25
45
0.9057
-1.5911
1.3208
-1.8641
-2.2547
-0.0217
-0.5752
0.0741
1.4413
2.5841
1.5216
-1.9893
1.4078
-2.4458
-0.2444
-0.6005
-0.0949
-1.2473
0.1673
-0.5603
-0.1967
-2.0155
-1.8316
-0.4405
0.5373
0.6816
-1.7464
1.3228
-1.0229
0.9689
-0.6934
1.9753
-1.5096
0.9665
-2.072
1.4586
-0.0177
2.239
-0.0452
-2.0439
-2.1491
2.1611
0.8517
-1.8164
0.5185
-1.3493
-1.0836
0.2419
2.1726
-0.0724
1.1904
-0.8351
1.2125
-1.6995
1.2491
0.3876
2.105
0.5886
1.0189
0.8968
-0.4639
-1.8431
-1.1873
1.501
-0.8563
0.9637
0.8481
-0.8995
0.366
-2.1187
-1.6373
0.2544
0.5882
-2.7034
-1.2064
0.3428
-2.3484
0.5395
-0.385
0.4113
-2.7226
-0.1149
-0.1425
-0.5599
-0.8084
-2.1432
0.1602
-1.9189
1.2724
-1.3247
1.0016
-1.0328
-0.6071
1.9653
0.0092
1.4562
1.0762
-1.7009
0.865
-1.9115
-0.7307
1.4783
0.7374
-1.4739
-0.689
0.2341
1.8844
-0.4381
-1.6566
-0.0542
-3.0406
0.326
0.9279
2.6215
1.8299
-0.5292
0.2544
1.6243
1.5622
-2.7312
0.3113
-2.3017
-0.3763
-0.6485
0.3719
0.2484
-0.0875
2.4238
0.7798
0.7674
0.2547
-1.9984
0.5428
0.3306
0.6476
2.5797
-0.4159
-0.329
1.2526
-0.5412
-0.3483
-0.5508
1.7602
-0.5934
1.6704
2.4301
-1.6311
-1.2495
0.5375
-1.8071
-0.8746
0.3025
-0.1505
-2.4271
1.3457
2.3516
1.3034
-0.4652
1.4957
-0.8758
-0.9857
-0.9932
0.1582
2.5441
-1.5927
-0.371
-1.1927
0.0957
0.7046
-1.3506
-1.779
-0.4795
2.1568
-0.3273
1.8093
-0.2127
-1.809
-2.4432
-2.3567
-0.2551
-0.6693
0.2691
0.3852
-0.262
-0.8315
-0.0233
-0.4857
1.2942
2.8466
1.273
-1.7901
0.7878
-0.0592
1.3438
-0.9565
0.7013
2.3451
0.301
-0.7172
-1.3133
-2.3712
-2.4521
0.7731
1.1335
2.3355
-0.3874
-1.4803
-0.9459
-1.0439
0.1288
0.3998
1.3114
-0.9418
0.7763
2.6378
0.6744
-0.0802
1.0931
2.9637
0.4929
1.7838
-0.2459
-0.9739
-2.8646
0.5363
0.0529
0.9864
-1.6628
0.55
-2.1739
1.918
0.8316
-0.8738
-0.3491
-2.0737
1.5264
1.1326
0.6938
1.0579
-0.4978
-0.8874
0.3788
-2.7315
-1.4671
1.1191
-1.2475
-1.0974
0.992
-1.1846
1.0405
0.5079
0.1221
-0.5235
0.9051
-1.4529
0.1558
0.6444
1.3866
-0.3585
-1.245
-0.8093
-1.84
-2.3155
-2.6988
2.0176
-2.8
-1.5316
-0.2815
-0.925
1.3145
0.0054
2.0778
1.7759
-1.1479
1.1207
0.1427
-2.1801
1.3831
0.0226
0.4403
-0.135
0.0751
0.4156
2.1316
-0.6684
0.4227
-1.5527
2.2094
0.3841
0.0433
-0.8562
2.5129
1.1407
-0.2117
1.7152
-1.2802
-0.5415
0.1074
-0.3935
0.4678
0.358
-0.9484
-1.4279
0.6856
2.1477
-1.5308
0.3418
-1.0081
0.5711
-1.2686
1.0345
-2.7599
-2.1303
-1.6258
-2.2372
-2.571
-0.4798
-1.2026
1.4827
1.4789
2.4754
-2.2803
0.3728
1.2276
-1.223
1.4003
-0.3406
-0.6024
0.2263
1.9481
0.9716
-0.4869
-0.8876
1.3103
0.5835
-0.1931
-1.4259
-0.5546
0.9339
1.8733
-1.2752
0.5181
0.8472
1.2989
0.7994
1.0727
-2.7768
-0.4083
-0.1675
-0.4958
1.472
-1.9116
-1.3631
0.6161
-1.395
0.0542
0.4808
-1.1229
-0.2844
1.3119
0.62
-1.9613
-1.7237
-0.9722
1.4083
1.7476
-0.3106
0.3414
-0.7981
-0.2535
0.436
1.8977
1.8115
0.4548
-0.3598
0.8495
-1.9519
-2.7533
-0.226
-1.4184
1.1913
-0.7768
1.7949
-0.4667
-0.9304
-1.9148
-1.3575
-1.4481
0.8057
-1.0954
-0.1341
2.6526
0.0043
0.1055
2.1842
1.9881
-1.4408
1.2976
1.0057
-1.8372
-0.6674
-0.3591
0.3101
-1.8612
0.4713
-0.0527
-1.0147
0.2122
2.1086
-2.4
1.8845
-1.5411
-0.4713
1.3782
-1.4187
-0.9424
1.9773
0.1719
0.6438
2.8251
-0.0929
1.925
-1.0746
1.3958
-1.0793
-1.1288
-1.9782
2.2586
-0.6573
-0.0567
-0.0619
-0.2736
-2.9105
-0.7147
-0.7747
-0.0272
2.5624
-1.1682
2.6917
1.8322
-1.0806
-0.2428
1.602
-1.1008
0.2897
-1.1594
-2.0581
-0.3504
-3.0614
-0.4234
-1.2718
-2.1626
0.1111
-2.1998
-0.6748
-1.157
0.1178
-0.829
-1.1351
0.0923
-1.8726
-0.6873
0.2661
-0.2827
1.184
1.2831
-2.2867
-0.5324
-0.7733
0.3144
1.2837
-3.0206
0.3654
-0.1616
0.9539
-0.6571
-1.0162
-0.3399
1.0569
-1.012
1.1856
2.1523
0.6733
0.3586
-0.5495
0.4288
1.874
-0.9252
-1.9197
0.923
-0.059
-1.2225
0.9629
-1.5458
-1.8357
-2.0564
0.2945
-0.9742
0.6854
-0.85
1.6627
0.4643
0.2458
-0.4011
1.9244
-1.7337
-0.3709
1.496
0.345
0.6382
-1.8059
0.5269
-0.7431
-0.5381
0.2356
1.0638
0.0149
-0.573
1.9285
0.2417
0.59
-0.3499
-0.4292
-0.1111
1.3544
-0.1293
-0.5346
0.4333
2.6761
-1.5464
3.2256
-0.2746
-2.4039
1.8611
-2.0042
0.0525
-1.0859
-0.2809
0.7395
0.4073
-1.1407
0.1299
-0.1834
-0.3781
0.2738
-0.7909
0.7869
2.133
-1.6696
-2.0405
-0.222
2.6945
-0.5345
0.1109
-0.1102
0.9629
0.5876
-2.3241
1.4778
-1.5789
1.4163
0.0837
-1.0719
2.1145
2.0763
-0.5859
-1.2694
0.5368
-0.9483
-0.4687
-0.1299
0.1352
2.4415
-2.2977
-1.2086
1.1954
-0.8538
0.6235
-0.7175
1.579
-0.3865
-0.5149
1.0558
-1.177
1.0253
0.5031
0.3241
1.448
-1.0515
-2.7336
-0.7069
0.9095
-0.3262
-1.7817
0.0428
0.4314
-0.6844
-0.4603
1.4263
0.5697
1.0322
0.1328
1.7033
0.1221
1.4742
-2.0133
1.868
-0.1345
1.4863
-1.9898
0.7847
1.3783
2.0617
1.8433
-1.4837
-2.3291
-1.3409
-0.6932
1.2904
1.4995
0.096
0.8121
-1.3869
-0.0489
-0.073
-0.6808
1.0032
-0.858
-1.3856
2.7465
0.8211
-1.4274
-0.6216
-0.5071
0.2275
-0.8985
-1.8643
-0.5936
-0.3234
-0.6736
0.998
0.1203
-1.1046
-2.3691
-0.4444
1.0777
2.444
0.1625
-0.936
-1.1372
0.1074
-1.6423
-0.3458
-1.6893
-1.9257
0.5308
2.1176
-0.9577
-0.6706
-0.4326
-1.053
0.021
2.0652
-2.0387
-0.2182
-0.8063
-0.2667
1.7211
2.788
-1.9511
-0.8819
-0.4673
0.4439
1.2567
0.7273
-1.0055
-2.9657
2.2711
2.2415
1.6486
0.1566
0.7866
-0.5057
0.0313
-2.2435
-0.5101
0.5997
-2.8885
1.1905
1.847
1.8778
0.0387
-0.0522
-0.035
0.131
0.9435
1.8427
-1.1896
0.8861
1.9739
2.7545
-0.5336
-1.215
-0.6277
0.6062
0.4131
-1.0645
-1.318
-2.1273
0.4457
0.578
2.1007
2.4512
-0.0454
2.052
-2.5277
0.6789
0.5672
0.8478
-1.9302
2.4654
-1.5744
-0.1859
0.5113
1.8601
-1.1177
0.234
0.8679
-0.4487
-0.0806
-0.7996
-0.8104
2.2907
-0.6004
-0.2556
0.5558
-1.2483
1.5419
0.9749
1.2728
-0.2792
-1.4582
-0.2305
0.8039
1.286
-0.2969
0.6548
-1.0469
-1.1869
-0.0491
1.1129
1.2413
2.5628
-0.867
1.4627
-0.2939
-0.7615
0.024
-0.0041
1.2157
0.3712
-1.8641
-0.4184
1.7149
-2.6859
1.7983
1.2735
-0.7534
0.5218
-1.0532
0.9183
-0.5331
-1.3467
0.1212
-0.4299
0.8945
-1.276
-2.2146
-1.0169
0.1894
0.2647
-1.3549
-0.86
1.3155
-0.7827
-1.2868
-0.0577
1.2564
0.2743
-0.6647
-2.0162
0.3054
1.3651
1.9162
-1.9286
0.8891
-0.5588
1.0082
0.1687
-1.8028
1.1777
-1.3026
1.0859
1.9424
-0.7333
-2.3071
1.0843
0.777
-0.4968
-0.671
0.945
1.5399
-0.5155
0.2174
0.4932
0.9602
0.7734
0.1643
0.7698
1.0217
0.617
-0.0465
0.8185
0.0007
1.4167
-0.8484
0.0621
-0.1069
2.4971
-2.2063
-0.0079
-1.3162
-0.6626
-0.6975
-2.3332
0.6376
0.8273
-1.3399
0.5073
-1.2621
-0.9938
1.7115
0.1349
1.3613
-0.5743
0.2296
0.2748
1.6097
0.7209
1.0481
0.4234
-2.5689
-1.2432
1.1269
0.815
-0.2644
-0.0339
0.8305
-0.5335
-0.0425
0.4861
-0.1635
-2.3119
1.7717
1.2263
-0.4394
3.1214
1.9981
-0.5291
-0.8116
0.0885
0.8697
-0.2298
2.9825
0.0683
0.8546
0.0645
0.2626
-0.8508
0.563
-0.8912
-0.5453
-0.6205
0.1239
-1.019
-1.7597
-1.0113
-1.6314
-0.6008
-2.0557
0.6299
-1.7933
0.2303
-0.1005
-1.6757
0.5334
-0.9165
0.1731
-1.1883
-0.2248
-0.5785
-0.5401
1.5456
-1.4302
-0.7471
0.2821
-0.9372
0.5575
1.5137
2.2693
2.0474
0.9453
0.2147
1.1542
1.2247
-1.5924
0.4211
-0.9221
0.2431
0.1002
1.1008
0.9539
-0.6585
-0.8157
-0.7291
-0.6353
0.3156
-0.1379
-0.9393
0.4173
0.0154
-1.8222
-0.5255
-1.1902
-1.4116
-2.7766
0.1776
0.4091
-0.4688
1.0461
2.3666
0.5947
-1.7285
0.3636
-1.8293
0.2327
2.1694
-1.7834
0.506
2.364
-0.3713
1.4742
1.9548
1.1728
0.2289
2.3834
-0.0621
-1.0257
-0.3354
1.5421
-1.3977
-0.7306
-1.1261
1.1684
-0.2141
-0.1675
0.8125
2.2859
0.6116
-2.7315
-0.964
0.2681
-0.7274
-0.2386
0.6889
-1.5931
-0.8201
-1.1367
-1.2971
0.1818
-1.6366
1.9038
-1.9378
-0.1105
0.1732
0.5021
1.1101
1.1278
-0.5958
-0.2999
-0.0233
-2.012
-1.8197
-1.5287
1.4169
-2.7245
0.9005
1.3707
1.8598
-1.9447
0.1788
-0.6006
-2.7403
-0.2239
1.0868
0.8997
-2.4823
-0.0764
0.3457
-0.0114
0.319
-2.2421
0.304
-2.5019
-0.6237
-0.3107
1.6158
0.617
-2.4127
0.0788
-2.4425
1.2332
-1.1048
-0.2792
-0.5256
1.7903
-1.4919
3.0274
-1.6708
0.1825
0.974
0.4665
-0.0207
2.5044
0.5699
-0.4406
-1.9877
0.3723
-0.9917
0.5044
-0.5079
-1.3301
1.2271
0.3116
-0.4687
-2.5701
-0.1191
0.7629
-0.5841
0.2109
-0.7066
1.3693
-0.8529
0.9538
0.2761
-0.1675
-1.6881
1.6457
1.8184
0.6975
-1.4086
-1.1453
-2.1385
2.7058
1.3549
1.3936
-1.351
-2.3817
0.3381
0.4706
-1.9898
0.1671
2.1742
0.4601
-2.0129
-2.2744
-0.5884
-1.1162
-0.9446
-0.0778
-0.4826
-1.745
0.8336
-0.7443
0.0226
-2.3933
0.7326
-2.1254
-1.4394
0.8919
-0.6042
-0.8236
1.0284
0.5361
0.6894
-1.6509
-0.5566
0.3395
-2.7127
1.5712
-0.9725
0.3724
-1.4243
-1.3805
1.0558
-0.1057
1.2125
-0.6253
-2.8275
1.9097
0.6478
-0.1237
1.3918
-0.2963
1.0054
2.4435
-1.4611
1.0586
0.388
1.3906
-0.8121
1.6817
0.7593
-0.1278
1.2104
