25
15
-1.5264
0.5069
-0.1714
0.1717
-1.2443
0.0076
1.8406
-0.153
2.0443
0.0515
-0.0226
-0.4448
-1.5247
0.9991
0.3724
1.1826
0.7575
-1.2184
1.3471
0.3795
-0.2592
-1.6568
-2.3324
0.2443
-3.09
0.7902
1.3534
1.8062
-2.3404
2.0358
0.7258
-0.1587
-0.5932
0.0339
-0.3292
0.8988
-0.8615
1.2686
-0.2344
0.6606
0.9833
-1.9376
-0.6836
-1.7823
-1.8363
-0.974
0.9911
1.104
-1.4168
1.0518
-2.2674
-2.4096
1.2084
-0.8312
0.1222
-1.7244
-0.9561
0.7655
0.4894
-0.8015
-2.5091
-1.7266
0.1119
1.6841
1.6473
-0.0172
1.4038
-0.074
-0.3926
1.8652
2.1401
-0.3158
-0.6032
-1.5222
-1.688
0.0753
-0.1731
0.2763
-1.6821
1.1199
-0.1742
-1.3151
-0.0057
0.8013
-2.353
0.8767
0.7791
0.5918
-1.1148
-0.0431
-0.0202
0.3758
1.9322
0.1525
0.1723
-1.9159
-0.0813
0.9035
-0.6893
-1.7094
-0.4019
0.4161
-0.3094
-1.391
-1.5881
0.1286
2.6392
1.0699
-1.1036
-0.543
-2.2655
-2.735
-1.9325
1.771
1.184
-0.6969
-1.9739
1.2064
1.8563
-1.4027
0.9564
-2.0462
-0.0477
-2.0842
-0.2938
2.1054
-0.2726
-0.6224
-0.0645
0.1667
0.3289
-2.6426
1.8058
1.4231
1.9929
-0.4447
0.0492
-2.9022
1.9862
0.5338
0.3981
1.6212
0.6195
-0.7094
-2.4005
-0.0592
0.5823
-1.3881
-1.2722
0.427
0.1202
0.9729
-1.1933
-1.9373
1.2303
0.5039
0.3483
-2.2032
-0.1922
0.8688
0.2262
2.0502
0.1399
-0.1052
-1.0761
-0.9015
0.5027
-0.6915
0.226
-2.6285
0.0487
0.0073
1.487
-1.0594
0.8581
1.4298
2.6184
-0.5145
0.2683
-0.5738
-0.8952
-0.2004
0.4305
-2.0012
-0.4533
1.9753
-0.244
1.4794
2.3165
-1.3464
-0.5964
0.2892
-1.466
-0.0273
-3.058
0.722
-1.5367
1.1207
-0.794
-0.3229
-0.7657
3.0348
-0.7565
-0.3565
1.8862
-2.0057
1.0733
0.6758
1.508
-0.1432
-0.736
0.0705
1.5662
0.4813
-2.7033
0.1268
2.3836
-0.405
1.9244
0.91
-0.6078
-0.2864
-0.5927
0.511
-0.1454
0.802
-0.1261
-1.4279
-1.1811
-0.5607
0.9002
-2.2771
-0.3037
-1.1633
0.28
0.1024
1.2755
-0.454
1.0035
0.3142
2.6592
-0.474
1.4316
-0.2036
0.0596
-1.1002
-1.2157
0.7491
1.233
1.5052
-0.9652
-1.5259
1.8259
-0.4574
1.6414
2.289
0.4359
0.3556
-0.0693
2.1867
-2.0156
0.3901
-1.3532
1.8694
0.2997
0.7791
0.3684
2.8078
1.5957
-0.3819
0.2726
-1.0315
-2.9754
-0.8046
-0.5033
0.8466
-0.7149
2.3428
0.5252
0.4468
-0.6884
-0.0962
-0.9149
-2.1862
0.1381
0.3728
-0.9611
-1.3363
-2.5422
-0.1965
2.2569
2.3575
1.0284
-0.0119
1.0542
-0.6104
1.3789
-1.7906
2.8967
2.01
0.2832
-1.3967
-0.7608
1.0136
0.6556
1.2694
0.7969
-1.0302
-0.4785
0.7359
1.1286
-1.7654
-0.847
-0.0113
-2.0525
-2.2318
0.8717
-0.4496
-0.4193
-0.0044
1.4039
-1.0701
1.4642
-0.7594
-2.3325
1.3855
2.6338
0.899
-0.9734
2.4096
-1.4858
-0.1676
-1.8841
2.6532
2.0931
1.7392
-1.3941
0.7747
1.9255
2.4802
-0.2495
1.3059
-0.4293
0.8279
0.8154
-2.4011
0.7975
-1.4629
1.4168
-1.8676
-1.2273
-2.7945
-1.2538
-0.873
0.3901
0.9746
-1.023
1.2016
-1.6093
-1.987
-0.4076
-0.1971
-1.1254
-1.1619
1.3169
0.8041
0.9541
-0.0831
0.2314
-2.0447
-0.7719
2.2018
-0.8593
-0.655
0.7743
