64
101
-1.2633
0.3455
-0.3446
1.7865
-1.2484
2.2243
0.9406
0.0205
1.3073
0.0904
1.4899
0.7953
-0.1499
0.4972
-1.9737
-2.4425
0.9338
0.1681
-2.8965
0.1371
1.2814
2.3797
1.9985
1.9808
0.8931
0.5785
-0.3963
-0.1884
-0.2313
1.3183
-0.2502
0.1832
1.1851
1.3219
2.4366
-0.1811
1.8657
0.5896
1.1106
-1.2815
1.8101
2.398
-0.9513
0.159
1.0186
0.1936
-0.4725
0.8635
-0.509
0.5301
-0.7296
0.8319
0.5042
0.1305
-1.7227
0.0644
0.7815
-1.005
-0.1751
1.8376
0.3227
0.4003
-2.6402
-0.4019
2.4048
1.0695
0.7122
-0.1007
0.4741
1.0028
0.0519
2.7413
1.0841
0.2
1.9323
1.5707
0.9582
1.9381
-0.2001
-0.3361
0.0962
-0.3367
0.2085
0.298
1.7751
-0.0707
-0.1191
0.196
-0.5589
-0.5405
-1.1826
-0.642
2.9247
1.5303
0.2946
1.0609
2.3956
-0.4116
1.0358
-1.2491
1.1305
0.5268
1.0228
1.3096
1.5921
2.0749
2.9629
-2.0926
0.2201
0.2758
-1.7211
0.9882
2.0546
1.683
0.0783
0.7219
0.5419
3.0199
-1.4696
0.3851
-1.0412
-2.2672
0.1888
-0.022
0.5821
-1.0711
-1.4999
-0.4995
-1.1419
0.0546
0.0177
-1.0474
-2.9362
1.1098
-1.8118
-1.6657
1.7527
-1.1821
-0.4348
0.9223
-0.1824
-0.2676
0.8716
0.1632
1.0888
0.5765
-1.1691
-0.6663
2.2897
1.3502
-0.0035
1.7106
0.1434
2.0534
1.0918
0.7403
1.2035
-0.5905
-1.16
-0.3005
2.1932
-0.0281
-0.2056
-1.4116
-0.1644
0.464
0.6785
-2.5931
-2.5923
-2.391
-1.7847
-0.5682
1.463
1.237
-1.0414
-1.8905
2.1711
1.5179
-0.3685
-0.0065
-0.468
1.7283
0.234
-1.4696
0.0992
-1.4084
0.7661
0.2737
0.5961
-1.3386
-2.0491
-1.3302
-2.2543
1.9374
-1.6578
0.2722
1.3787
-1.4105
1.9399
1.8043
-1.6124
-1.5521
-0.9554
-1.0913
0.9861
0.5663
-0.5075
-0.3921
2.7557
0.9486
-0.6932
-0.3267
0.6147
0.6973
-1.5126
2.382
-2.1598
-0.1876
0.3114
1.1804
-2.2911
1.5707
1.5017
2.6219
0.2209
-0.5814
-1.2184
0.1529
-1.1777
-0.0903
-1.2953
0.3272
0.067
-0.2328
1.271
-0.132
0.6781
-1.0089
-0.0731
2.0519
-2.6211
0.8583
1.226
0.3254
-0.0005
-1.1851
1.8915
1.242
1.9866
-0.5852
-1.3534
-1.7516
0.0634
-0.6189
-1.9551
1.1747
0.7833
-1.2861
0.0864
0.1906
0.8695
0.6897
-1.7825
-1.4271
0.3222
2.032
-1.0082
2.8752
2.4182
-0.5361
-0.8675
-0.0097
0.6037
2.8159
-1.3603
-0.2514
1.4324
-1.0195
0.7899
-1.1267
-1.6494
1.0652
-0.9702
-2.6356
1.189
-0.7604
-0.0871
-1.5013
0.1169
0.0571
-3.1143
-1.0006
1.688
0.2409
-0.2217
-1.1335
-0.6513
-0.2088
-1.2394
1.3768
-0.3474
-1.292
-2.8907
0.067
0.043
1.0962
-3.1223
0.6997
-0.3403
0.5161
0.1968
2.1837
0.1276
0.7872
-2.1864
1.242
-1.83
-1.3673
-0.4417
-2.1253
0.3403
0.6062
-1.1225
-1.3646
0.085
0.1542
-0.9522
0.2474
0.6809
0.5533
0.0693
-0.5663
-1.1488
1.8037
-1.3348
-0.5287
-2.1272
0.6284
1.3892
0.3599
1.0223
0.3043
1.6875
-1.177
-1.5305
0.8314
-0.4397
1.4142
0.0446
-1.067
1.5609
1.5797
-0.8059
1.1625
-2.1408
-0.6803
-0.8052
-2.3103
1.5624
1.1876
0.0468
-1.6553
-0.4369
-2.6469
1.7499
-0.149
1.6919
0.9234
-2.2493
-1.0682
1.395
-1.2086
-2.1206
2.1405
-1.3275
0.7873
-1.1408
-0.3531
0.078
0.3577
0.6904
-1.9956
-0.942
-2.4976
0.0959
0.4899
-1.1109
-1.2249
0.3527
0.5498
-0.4285
0.899
1.4606
1.461
-2.1718
0.5973
0.1429
-0.0535
0.2129
1.1469
-0.3236
-0.7167
0.172
-0.7292
1.9821
-0.5557
0.8669
1.5397
0.0287
1.4541
-2.1712
0.8262
-0.8176
-1.9826
-0.8255
1.2199
-0.5567
-1.0352
1.6275
-0.5559
-2.4653
-2.2574
-1.366
-1.2246
0.0101
0.9043
0.0245
2.4907
0.3159
1.8965
-0.7545
0.7598
1.7288
0.719
-0.4264
0.1359
-2.3047
0.6487
-2.2677
0.6193
1.3227
-1.5911
-3.002
-1.067
-0.4964
0.5531
0.6477
1.6307
-1.2083
0.5277
-1.1489
-1.1179
-0.8128
-1.6674
-1.8384
0.5175
0.6897
0.5215
-1.4207
-0.0167
0.0227
0.5409
0.1044
0.5562
0.4628
1.6674
2.7365
-1.0405
-1.2667
-2.6524
-0.0777
-1.5299
-1.8889
0.6886
1.492
-0.9122
1.8729
1.8599
0.8921
0.8127
0.1883
0.8617
-1.8773
0.3682
-0.3892
0.9706
-0.2628
-2.2461
0.1405
2.1867
-0.8178
-0.4763
-1.4993
1.2333
-0.2656
-0.8762
1.2448
-1.8897
1.3937
-0.1689
-1.4575
-0.6287
-2.3933
-1.6311
0.2244
-0.6412
1.4998
-2.4949
0.6869
-1.8574
-0.0925
-0.3672
0.8002
0.3376
1.7265
-1.3817
1.048
-0.6099
0.4031
-2.262
-1.8466
-1.4229
-0.7859
0.269
-1.33
1.1753
1.4362
-0.3424
-0.6791
0.6311
0.5161
-0.8194
0.1063
0.2212
-0.2698
2.1147
1.0261
-0.0541
2.3556
-1.3703
-1.1966
-0.1952
-1.4382
1.8327
-0.0079
-0.2018
-1.8209
1.8932
-1.9618
-0.074
1.2077
2.0883
2.7724
0.1882
1.0939
2.4176
1.0874
-2.6921
-2.1623
-0.3954
-0.4632
1.1157
1.2694
0.2028
-1.8795
-1.4957
1.5589
0.9354
0.1155
-0.696
-1.2942
1.8023
-1.0319
0.2383
-0.736
-0.4731
-2.045
-1.97
-0.0434
0.6627
0.3533
-0.767
0.7835
-1.344
-0.391
0.5704
1.7449
0.0607
2.276
-1.2346
-0.4361
-1.6772
1.8006
0.3715
0.7941
-0.0038
1.4596
-1.1647
2.1586
1.804
-2.0239
0.7103
0.3809
0.4694
-2.0961
-0.5572
-1.2061
-2.8704
0.0465
2.8342
0.7823
-0.9892
-0.6371
0.405
0.7035
-1.1752
-0.1111
-0.8146
-1.4425
-0.1516
-1.6523
-0.8245
0.8979
-1.1952
1.2929
0.3751
1.1711
2.2476
-1.1059
-0.4925
-0.6229
0.3464
0.9817
-0.1505
-1.2073
-0.3452
1.0021
1.4011
-0.5821
0.1728
2.2321
-2.3913
1.2527
1.9004
-1.8819
-1.6973
-2.2565
-1.716
-1.5095
0.2063
-1.2793
2.4308
0.0725
0.0427
-2.3693
1.2336
-0.4127
1.0887
1.0271
-2.0308
-2.9651
0.0675
-0.9205
-0.8088
2.2458
0.2559
1.6183
-1.654
-1.1642
-1.6229
2.09
1.9872
-0.0878
0.9847
0.4944
0.2844
-1.0786
-1.7517
0.1084
-0.2088
2.417
-0.0017
0.932
0.5076
0.5686
-0.3189
-0.3116
-0.8432
-0.0702
0.5735
-0.3456
-0.9844
0.5006
-0.6013
0.83
0.084
-0.9958
-0.5665
-0.0616
-0.9148
-1.2826
0.6779
0.2564
-0.704
-0.3598
-0.1449
-1.4928
1.894
1.6817
0.921
-0.1833
-1.4264
0.6734
-0.2329
-0.6637
-0.4139
-2.5558
-0.3309
-0.0881
1.6545
1.8246
0.6271
1.5436
-1.7747
-2.5694
-0.6356
0.9545
-0.8711
0.6463
-0.8424
1.4213
1.0885
1.6411
0.0068
-0.3327
0.8274
0.4151
1.912
2.2462
1.6222
0.2451
-1.6804
2.6042
0.1963
1.1311
-0.9399
0.7414
-0.1737
3.0732
-2.4203
-0.0654
0.5123
-0.4824
0.4321
-3.093
2.2544
0.2949
1.0637
1.4891
1.7756
-1.1487
-0.5254
0.5735
-0.924
-1.5363
-1.0586
0.7139
0.7092
-0.8678
-0.5357
1.9103
0.1217
0.8566
-2.2337
0.8859
0.5901
0.3602
-2.8757
0.9176
-1.1623
-2.357
0.8152
-1.2716
1.4181
2.5354
2.2852
0.8721
-1.4991
1.9303
-1.7424
-2.4819
-0.0834
-0.8957
-1.4372
-1.5031
-0.8886
-2.6657
-0.076
0.5318
-0.6377
-0.1029
-0.9355
0.3458
-2.6077
0.2392
-0.7391
-2.061
-0.2449
1.309
1.2239
0.2993
0.3783
0.0273
-2.1875
-1.1457
-1.5579
1.6958
-2.6484
0.3598
-0.5436
-0.2387
-0.1589
1.5389
0.1442
0.7771
2.0041
-0.8853
0.5056
1.4666
0.564
-0.359
0.5407
1.8297
-1.2025
-0.1593
0.2493
1.8663
-0.0187
-0.2858
2.9084
1.5766
0.8388
-0.7387
1.9643
0.9605
-1.9071
1.7587
0.6937
0.0179
1.5744
0.653
-0.9032
-1.2511
-1.8241
-0.7791
0.4503
0.4303
1.0045
0.7391
-1.7995
1.7854
0.23
1.931
-1.0989
-0.4627
-0.8709
-0.4803
-0.7247
0.2395
-2.2983
0.0587
-0.6768
0.6154
-0.7752
-3.0055
-0.9553
-2.6119
0.4215
0.1575
-1.5603
0.3879
1.2917
-0.2826
0.7852
-0.2154
1.8355
2.2277
-0.4725
2.1317
-1.2239
1.1347
-2.0567
-2.4014
1.944
-0.2846
-0.6904
2.5697
1.5087
1.2465
0.3495
0.6607
-2.5299
2.4511
1.0628
-1.5746
-0.3412
0.0526
1.4499
2.4173
0.0216
2.5795
-1.5999
0.7957
0.1404
-0.0842
0.3269
-1.6985
-2.6786
0.8681
-0.684
-0.5766
1.3953
-1.1173
-1.3558
0.8845
2.5316
0.5134
-1.6883
-0.5921
-2.5465
2.4833
-1.6816
1.5474
-0.7319
1.5155
-1.3357
0.7494
-1.8548
0.8871
-0.6507
0.2904
0.6383
0.5978
0.3736
0.1707
0.1937
0.6476
-1.5397
0.3902
0.0884
1.0367
0.1629
0.9489
0.3223
1.765
2.2048
-1.4301
0.8953
-0.4443
1.3092
-0.193
-1.4691
0.9623
0.7526
1.3833
-0.2176
-0.5686
0.5353
0.0219
1.373
1.5165
0.6572
2.2766
0.0261
0.6639
-2.1585
1.5937
-0.9816
0.1506
1.9185
1.2499
1.6267
-0.0235
-0.2188
-2.0313
1.2973
0.1416
1.2599
1.5802
-1.9696
0.6459
-0.1991
-1.0228
1.6563
1.4894
-1.3188
-0.0097
-0.9323
2.6721
1.1775
1.3426
0.0952
0.9171
-2.5407
-0.2427
1.4619
-0.4986
-2.6427
-1.4889
-0.109
1.5584
2.0592
-1.55
2.4044
-0.6183
-2.2216
-0.5619
-0.3499
0.2578
-0.1726
0.2022
-0.0513
0.9098
-1.6245
-2.5345
0.0231
-1.9388
-0.0236
1.0584
-0.1264
1.5421
-1.9235
-2.1263
2.7769
-1.7546
2.5062
1.0186
-1.0973
1.2782
0.1583
0.6627
1.3579
0.8104
0.8632
0.0829
0.3124
0.1185
-1.9327
-0.7211
-0.957
-0.7974
-1.6758
1.5278
0.8263
-1.9374
1.6339
0.2759
2.3856
-0.0244
1.4428
-1.1999
0.444
-1.6123
1.0277
0.3769
1.5554
-0.1474
0.3886
-1.547
-0.8341
-2.1833
-0.4745
-0.418
-0.1708
2.1104
1.7152
0.4869
0.2684
-0.3735
0.4041
1.1677
0.4838
0.1954
2.1459
1.6246
0.4751
0.5403
0.3867
-1.4192
0.2424
0.6612
-1.5964
-1.4103
-0.2143
0.5581
2.7501
1.6514
-0.895
0.231
0.3191
1.2122
1.4771
-0.3201
-2.3361
0.5492
0.3484
2.1817
1.3384
-0.3379
-1.0043
1.1825
-1.8312
-0.1189
1.4674
-0.1444
1.8042
-2.3123
0.8179
1.5693
0.1467
0.0318
1.4292
-2.0098
3.0268
0.3599
0.0246
2.2256
0.6142
1.9489
-0.1193
-2.1087
2.7391
1.5217
0.9976
1.3714
-0.4288
2.3554
0.0985
-0.4412
0.941
1.1732
0.4603
-0.9931
0.2947
1.2517
-1.194
-0.2842
0.9092
-0.6858
-1.5875
1.6856
-0.4922
-1.3624
2.5567
-1.6375
-0.6329
-0.7783
-1.8689
-0.423
-2.7896
-2.2102
1.52
2.0523
-0.4086
0.8956
-0.3838
2.5117
-0.0437
1.9853
2.2499
0.955
1.582
-2.2178
-0.4092
-2.6177
1.1918
-1.8832
-1.8074
-1.6527
-1.2145
-0.2879
1.3319
0.5729
0.9168
-0.7086
-0.8216
-2.4942
-2.2447
-3.1452
-1.7142
-1.0236
-0.8685
2.2325
-1.3461
-1.5691
-1.5084
-0.9594
0.2828
-0.8538
-0.8875
-2.8904
-0.1042
-2.1544
-2.2825
-0.2839
0.7695
1.0825
0.8599
-2.9702
-0.3728
2.3034
1.9864
-2.7383
-2.6546
0.3911
1.6883
-0.1964
-0.143
-2.8621
0.0431
-2.6912
0.6085
1.955
-0.0853
-0.3924
-0.3999
-1.5415
-1.9738
0.1463
0.1085
-0.2443
-2.3454
2.2019
2.1335
-0.7072
2.0765
-0.7793
2.3987
0.3468
-1.8151
1.0329
0.9038
-0.3592
-0.9131
-2.1915
0.9258
0.4515
-1.7712
-0.6223
2.4646
-0.4977
2.1643
-0.8132
2.2433
0.0699
-2.2137
0.5128
0.2621
-1.1227
-1.7982
0.0788
-0.2023
-0.7983
0.1342
1.1615
0.85
-2.2339
0.3066
0.4843
0.1423
-2.1528
1.9957
-1.953
0.9515
-0.5548
-1.3519
0.4033
0.0006
-0.7169
0.0941
-2.2771
0.5666
0.6379
-0.2201
-0.164
-0.6274
0.2327
0.9827
0.1892
-0.3047
1.3442
0.4255
-1.2176
1.5349
-2.5811
1.385
-1.1077
-1.6623
-1.7127
0.5846
0.5191
-0.0661
-2.6044
-1.9758
0.3859
3.0471
-1.9792
0.2573
-1.5075
-2.1534
-3.114
0.7305
1.3929
-0.2646
0.1766
-1.3963
-1.5014
0.0657
0.2334
-0.7939
-2.811
0.9401
0.8341
0.3525
-0.2999
-0.9183
-1.2979
2.0429
-0.5216
1.0441
0.3908
-2.2763
-0.1992
0.2737
-0.6532
0.5021
-2.6096
0.0473
-1.1532
0.5476
-1.1992
0.3648
2.1676
1.1372
0.7552
-2.0504
-0.5212
2.2708
-0.0232
-0.6448
-2.666
0.6716
-0.2577
-1.972
2.2867
-0.3836
0.0519
0.5216
-2.0469
-0.8949
0.9055
-2.9945
0.7171
-0.8621
-0.9737
0.587
0.7483
-0.2854
0.9679
1.4358
-1.9533
0.8354
-3.1001
-0.4482
2.4427
-0.7766
-0.0706
1.4886
0.829
-1.8446
0.2262
-2.5842
3.0362
0.9082
1.067
0.4406
-0.7662
-2.3486
2.4518
0.7325
-0.7478
1.4921
1.1038
1.5685
-0.1854
-0.6767
0.2997
-0.3283
0.9209
-2.3015
0.0396
-1.6811
2.5712
-0.1055
0.3236
0.7869
1.4888
-0.6423
1.1516
0.5221
-2.3264
2.6417
-0.7532
0.8012
1.672
-0.4421
-0.2022
0.9582
1.6053
0.3056
-1.0975
-0.7612
-0.1188
-0.6041
-0.3738
-0.8614
-0.2239
0.1053
1.9693
0.6576
1.2904
-0.8429
-0.6222
0.519
-2.1299
-0.1719
-1.5943
-1.2772
-0.654
2.1183
2.3294
-1.4542
-0.8359
-0.5259
1.3189
-0.012
-2.6752
1.7259
1.9274
-0.2274
0.3814
2.3201
0.8785
-2.1004
1.7804
1.2567
1.4486
-2.3542
-1.755
-1.4643
0.3613
2.288
-0.3944
-2.5661
0.893
-1.2809
-0.6914
-2.0487
-0.2327
0.046
0.6308
0.0879
0.2606
-0.2845
0.2954
0.567
-0.9035
1.004
-1.6976
-0.6117
2.8282
0.6351
-2.0714
-0.171
1.6257
-1.3916
-0.826
-1.3881
2.0423
1.4779
-1.2382
-0.9858
-2.4755
-0.5872
-0.0312
1.0355
1.1795
-1.0329
-0.4818
-1.8774
-0.0999
0.1404
0.6868
0.1055
0.2399
-0.3437
0.1978
0.431
-1.0779
0.7912
-1.9488
-0.9012
2.5003
0.2687
0.8006
0.6693
-1.0308
-0.3865
-0.4696
-1.0757
1.2771
-3.037
-0.7059
-1.3551
1.7737
-0.9451
0.5236
-0.1689
0.4591
-0.6646
-0.0581
2.483
0.6101
1.0817
0.8256
0.0468
-1.05
-2.2601
-0.1017
-0.9238
-1.2447
-0.8594
0.4365
-0.4287
0.0264
2.0067
-0.8364
-1.7449
-0.5137
-0.215
-0.6439
1.6813
0.4117
-0.9711
1.0144
0.0195
2.8027
-0.2618
-2.4153
-0.1766
0.1057
1.9133
2.174
-2.184
-1.1256
-0.9997
1.6755
0.551
-0.8915
-2.447
-0.6343
-1.8019
-2.4684
0.8479
1.7983
0.5875
0.6971
-0.945
-0.8571
1.1657
-1.2255
-1.2723
-2.0468
-0.0673
-1.6825
-0.1342
1.5058
0.1654
-0.6739
-0.8071
-0.0296
1.8636
-1.4764
-0.0145
-0.0993
-1.5262
-0.8135
2.2438
-1.9803
-0.1735
1.3152
-0.5861
0.8811
-0.6321
1.6327
-1.9502
-1.3455
0.3749
0.1389
-1.8487
1.1704
-0.4293
0.1107
2.995
-1.4018
0.2322
2.1433
-1.3988
0.5941
0.1344
-0.9343
-0.7691
2.4733
-2.4711
-0.6519
-0.0563
-2.1178
1.5602
-0.2862
0.7398
-0.0722
-0.8789
0.1626
1.6191
-1.2202
0.0419
0.6947
-0.6953
0.9919
1.0459
1.3099
0.3504
0.0104
-1.1436
2.0084
1.4792
-0.8879
0.0268
-0.4867
-0.5856
1.5737
-1.9963
0.3781
0.7097
0.8417
-0.6595
-1.9506
-1.1886
0.193
0.7606
-0.9194
0.2731
-0.3726
-1.0129
0.195
-1.4589
2.4219
0.5735
1.3927
0.1691
-1.2541
-1.0336
-0.6032
-1.3964
1.7068
0.7192
0.7609
0.398
-1.8027
-0.7216
2.2081
-1.0011
1.3245
1.1977
-2.8151
0.9597
-2.0186
-0.0766
-1.2014
-0.273
1.275
2.0091
0.4954
1.8543
-1.9018
0.9011
-1.0013
0.7879
1.5583
-0.1237
0.8619
-0.1952
-1.452
-1.0652
-0.4684
-1.0952
2.1745
-1.9236
-1.7155
1.3648
-0.6695
0.5781
0.3973
0.6313
-0.1535
-0.1139
-0.6834
-0.0351
-1.4539
-1.3922
0.3548
0.7149
-0.1069
-1.9061
-1.2008
-1.063
-1.2881
1.6057
-2.0075
-2.0922
-1.7204
-0.6875
1.2115
0.9043
1.8728
-2.2318
1.9023
1.3729
2.9381
0.2494
0.0652
-0.6867
-1.8013
0.2027
-1.0232
1.2794
-2.5153
0.9049
-1.3627
0.7174
0.7964
-0.9211
-0.9534
0.9043
-1.6968
1.2786
0.2047
1.84
-0.1643
0.9502
2.1116
0.2477
2.117
1.3707
-1.7864
-0.5958
1.8703
-0.7369
-1.6587
-0.6906
-0.9044
1.1813
-0.7823
-0.0365
0.3464
0.5714
-2.4337
-1.9105
-0.9307
0.7102
-0.0596
0.2413
-1.4591
-1.6789
-0.2136
-0.135
-1.2385
-0.0425
0.3813
0.2374
-0.2692
-0.9339
-1.5519
1.3587
1.4488
2.2002
0.5407
-0.0481
0.6389
-0.4706
0.1052
-0.7059
0.5777
0.8843
0.4184
-0.615
1.2655
-0.2889
-1.7963
0.2246
-0.5748
2.5637
0.0145
-1.4637
-1.6664
-0.3886
2.5743
0.8735
2.1808
1.4014
-1.6191
-1.7609
-0.4574
0.8577
0.7508
-2.2117
0.3669
0.4996
0.0294
0.7998
-1.9
0.3271
-0.5062
0.72
-0.7044
0.3402
-0.8563
0.8259
0.6766
-2.7379
2.256
1.1175
-1.0335
0.9232
2.277
1.5946
0.7189
-1.7837
2.4838
2.2572
2.6568
-1.0282
2.8761
-0.1712
-1.7734
-0.087
0.1772
0.8627
0.5357
1.0396
0.9407
2.0822
-0.2463
-0.9249
-1.387
0.2104
-0.8428
0.5731
-0.2523
1.8012
-1.2538
-1.0202
-2.2088
0.3007
-1.4791
0.8488
-0.7029
-1.0142
1.7581
-0.3733
-2.2882
1.1332
1.904
1.8671
-0.4111
0.1896
-1.0414
-2.2606
1.6516
-0.5685
2.7526
0.3508
0.6232
-1.141
0.1785
-0.1289
-0.2198
-1.5279
1.0668
-0.4229
-0.8771
-1.7292
2.1406
-0.5314
-1.3487
-1.7449
0.1234
-0.4544
-1.6348
-1.575
-1.7083
-0.1916
1.5414
2.0573
-0.0776
0.2567
1.6265
-0.6784
-1.5382
-2
-2.6956
0.1949
0.3227
1.1692
-0.3376
-0.7159
-3.0378
-0.545
-2.8629
0.0436
-1.451
-0.5886
-0.4409
2.4736
-1.4708
-2.2387
0.3746
0.0202
0.1799
1.0585
2.8606
-0.7626
0.2243
-0.5276
0.4632
0.1249
1.939
-0.4434
-0.2636
-0.5939
-1.2294
-1.9654
0.6799
0.3576
0.5492
1.4597
0.0171
-0.2972
0.7216
0.0017
1.0246
0.7182
-0.7125
0.214
0.4256
0.1274
2.8007
-1.18
1.4972
1.2069
-1.8462
-0.9038
0.9623
0.68
-1.5458
-2.2338
2.0979
-1.4532
0.4248
-1.8935
1.627
1.3606
0.7892
0.1173
-0.4502
-0.7086
-0.4529
0.5216
2.4196
-1.1075
-0.0246
-0.6804
0.4064
0.1641
-1.2026
-0.2122
0.0635
-0.1708
2.5664
-1.3503
1.3911
-2.112
-1.8244
2.4589
1.1122
0.8938
-1.2681
-1.892
2.5038
-0.9834
0.9587
-1.2956
2.2888
-1.1903
-1.6978
0.971
0.4675
0.2733
0.593
-1.6454
-0.0748
1.3791
-0.1185
0.5522
1.9577
-0.6123
1.2388
-0.4761
-0.6369
2.5994
1.2458
0.4221
1.9716
-2.0928
-0.0977
-0.0302
-0.047
-1.5819
0.4852
-1.8328
-0.1392
0.8555
-0.2821
1.5678
1.6949
-1.3343
0.8768
0.3411
-1.0981
-1.5978
-2.5915
1.0409
-1.9648
0.0651
-0.8565
0.3902
-0.905
0.3777
-0.472
1.666
-1.1957
-0.6602
1.839
-1.6855
0.44
-3.0484
-0.4773
0.1663
-2.5513
-0.2334
2.4097
-2.6091
-0.3396
1.2311
0.6695
-0.1814
-2.7551
1.3453
0.8556
0.8959
0.0327
-3.1678
-0.3087
0.6229
-1.8068
0.7992
-2.8233
2.2762
1.557
0.1389
-0.1348
-0.6976
0.2935
1.405
-2.0733
-1.745
-2.3203
-1.9559
-2.0856
-0.8661
0.2691
-0.1138
-0.1715
1.9393
-1.7688
0.3779
0.3923
0.1174
-1.8803
-0.4807
-0.3944
0.222
-0.0653
0.587
-2.5314
-1.0239
0.3992
0.3044
0.5347
-0.3434
-0.4866
-0.4924
0.0955
1.1526
-0.3932
-1.0601
-0.6435
-2.2153
0.983
-0.6744
-0.429
1.9242
0.036
0.665
-2.5375
0.4635
0.0425
-0.3188
-0.4158
-0.0436
1.0028
-0.349
-0.6172
-2.8737
-0.3603
0.5743
0.135
-1.4736
2.507
2.4514
-1.436
0.8802
-0.2255
-1.2717
1.2233
0.9108
1.2722
-0.7644
1.5596
-1.3818
0.4468
0.6967
-0.4275
0.5559
0.575
-0.1656
-1.461
0.1706
1.6568
-0.0742
1.7361
0.7387
0.4153
0.9708
-0.667
-1.0164
0.1276
-0.3074
1.1604
1.4591
0.7933
-0.6321
0.6646
1.6112
2.4126
-0.003
-2.1544
-0.5598
1.7089
1.5795
-0.7431
1.4996
-1.3182
0.8388
-1.6548
1.2358
-0.1148
1.0519
-1.6131
1.9255
-1.2346
2.2184
-0.6178
0.2922
1.876
1.0618
1.3313
2.8891
-0.6135
0.8588
0.957
-0.114
-2.1492
1.6094
-1.7404
1.1135
0.5453
0.0367
3.0694
0.0176
0.9166
-0.5822
-1.49
-0.5434
-1.1084
1.935
0.5996
0.0054
-1.2812
-1.417
1.4412
-0.6938
0.5748
-2.7402
-2.242
0.6358
1.1828
-2.0346
-0.6196
0.7174
0.5428
0.6998
-0.2452
-0.449
1.9316
-1.0906
2.158
0.4134
2.0724
-0.8522
0.0364
0.0278
0.9652
-1.8618
-0.0564
-1.6058
-1.39
2.4342
1.8796
2.0662
-1.7164
2.2054
2.5676
1.2134
-0.014
0.7286
2.0076
-0.8874
0.4404
-1.9962
0.1996
2.3174
-0.3532
0.5846
0.4204
0.9974
-2.3948
1.9174
-0.6068
-1.5706
-2.4076
2.0022
0.3948
-2.1098
-0.3916
0.839
0.1484
-0.6202
0.3764
-1.5722
-1.346
2.8982
-0.1036
-1.9546
-0.8116
-1.385
1.4452
-0.3082
-1.5252
-0.3626
1.746
0.0902
-0.21
2.6886
0.7988
2.5174
-0.1428
1.215
-1.3964
-2.857
-1.3236
-1.5066
-1.5628
0.351
-0.4756
1.0774
0.2996
-0.9658
-0.8756
-0.8634
-2.3628
-0.2538
0.7532
-1.3476
-2.433
0.0804
-0.1562
0.3388
-1.5066
-2.2108
-1.569
0.6236
1.295
0.65
2.1702
-0.4932
2.695
-1.1676
1.231
0.2652
2.6934
2.1669
2.1671
2.8989
1.2903
-2.4539
1.7015
0.8541
1.7623
1.3541
-0.1657
0.6845
0.8327
0.4837
-0.1577
-0.8867
1.7783
1.4885
1.7256
-0.5826
-1.9543
1.0919
-1.0695
1.5967
-0.5351
-0.7065
1.2873
2.3743
-0.5175
-0.6297
2.2425
1.7503
-1.9015
1.3223
-1.4807
-0.2753
-1.4103
1.8727
-0.0519
-0.4256
0.9562
1.0216
-0.0246
1.2992
1.921
2.0456
-1.399
1.6224
1.4842
-1.6088
-0.8982
0.544
-0.3542
-0.1112
1.4778
-1.936
-0.3174
-0.0152
-0.8245
0.7361
1.5947
1.9561
-1.2517
2.0065
2.1051
-0.7511
0.1963
1.8753
-2.0629
-1.5831
0.2427
0.3425
-1.0789
2.7369
2.1643
0.685
1.7804
-0.8981
-0.5923
-0.3741
-0.0387
0.6187
1.8029
-2.8349
-0.4528
1.6395
-2.3815
-0.842
1.5474
0.0765
-0.1348
-0.5201
0.7637
-0.9936
2.6046
0.2945
0.4728
1.7059
-0.7167
-1.6748
0.6746
1.6212
-0.2685
0.1254
-1.9075
-1.2473
0.6726
-0.8584
-0.7201
-0.3462
2.1065
1.9275
0.9602
1.0476
0.7563
-1.3474
-0.1435
-0.3425
-0.101
2.424
2.5222
-1.2399
2.8112
0.1347
2.4041
1.6324
-0.3374
-1.6619
-0.498
-1.5561
0.2837
0.3112
0.3694
-0.9751
1.3976
-0.4997
-1.5471
0.0988
-0.2726
2.4588
0.3059
1.6654
-1.4499
-0.6433
-0.625
0.448
1.1423
0.0242
2.2137
-0.2765
-2.3262
1.1844
-1.0085
-0.5082
1.2517
-0.4393
-0.461
-0.2472
-1.2313
1.7066
0.5792
0.5067
0.0553
-2.2084
2.1122
1.7533
-1.442
0.9231
0.8613
0.216
0.8302
-2.0063
0.1032
2.4483
0.3185
2.1108
-0.1622
-1.3803
0.2996
0.167
0.0653
-1.4393
0.7734
1.9928
-2.4913
-0.9489
0.1103
-0.6013
0.3978
0.0358
-1.4826
-0.6759
-0.6159
-1.0979
-1.9171
0.408
-0.4712
-1.0732
-1.1933
-0.6265
0.8318
0.1099
0.689
-0.5027
0.0166
-0.8255
0.4529
0.7796
-2.9171
-0.6024
-1.9017
-0.0565
1.8611
0.7791
0.179
0.2659
-2.0326
0.0421
0.1413
-1.5303
1.7857
0.4636
1.262
1.1088
0.2087
-1.2333
0.2643
-1.6473
-0.2098
1.505
0.425
0.0317
0.5301
2.1248
1.7441
2.8692
-0.8485
0.6264
0.9447
0.3115
-1.0686
0.2863
1.3038
-1.0879
-0.1303
1.1045
-0.4555
-1.3288
-1.3103
-0.1956
-1.0565
-0.4113
-1.3321
2.9395
-0.499
-1.6122
-0.1954
0.6793
-2.0599
1.622
2.0997
-0.4224
0.8143
-0.5388
2.2763
-0.3657
1.5702
1.7355
0.3346
0.8493
-3.0691
-1.3855
2.8281
-0.054
0.0037
-0.0712
3.2031
0.2011
-2.3189
-0.8753
1.4598
1.6146
-0.2062
2.7557
0.8749
0.9097
-0.1855
0.139
1.7296
-0.1244
-0.3027
-0.2389
1.91
-1.843
0.1754
-0.0216
-0.5911
0.3103
1.2488
0.7909
0.7798
-0.2181
-0.3595
-1.0782
-0.5308
-0.1512
-1.3726
0.9247
-1.2464
0.511
-1.7906
0.246
1.9101
-1.5085
-1.6132
0.1626
-0.8918
0.3439
2.4361
0.6742
0.1784
-0.4852
0.527
1.7811
1.8437
-0.719
2.4899
0.2064
0.8273
2.9191
-1.5056
2.5038
-2.8706
0.5988
1.6477
2.1194
0.5804
2.1504
-1.1574
-0.9465
1.3497
1.0206
-0.0904
-0.1404
-0.5627
0.4859
1.5716
-2.0158
1.397
0.5464
0.5521
-0.0193
0.6752
1.2021
0.1278
-0.7045
0.5485
2.453
0.2988
2.4824
1.017
-2.2545
-2.212
2.9878
2.0806
0.1868
-0.8507
-2.4653
0.4628
-0.0534
1.1058
-0.7697
-0.5599
-2.9754
0.3808
1.5212
-0.9874
1.2515
0.2509
1.1306
-0.8198
-0.48
0.7161
-1.9417
-0.0568
1.6606
1.7766
0.3351
2.3039
0.1018
-2.7895
0.3885
0.01
2.8335
-0.7665
2.5218
-0.2039
1.0916
0.0596
0.1815
1.6622
-1.847
-0.3111
-0.0788
-0.9452
0.5711
-1.8786
1.741
-1.4727
-1.4844
-1.366
-0.9129
0.0798
-1.4598
1.2265
1.79
0.4356
0.6447
-0.6546
0.0194
-0.4055
1.5524
-0.4556
0.3287
0.8334
1.2634
-1.4535
-0.5588
0.8756
-0.2225
-0.3714
0.6338
-0.2791
0.3716
-0.486
-2.6473
0.6462
-0.231
1.4793
-0.5716
0.3748
-2.0305
-1.029
0.3074
-1.0935
1.5268
1.8196
-0.0105
-0.4818
0.6106
0.1945
1.7516
2.21
-1.5025
0.6494
-0.9598
0.4281
-1.5356
-0.0924
-1.5913
0.7262
0.5114
1.2457
-0.1428
-0.1724
1.3615
1.387
-3.1678
1.0089
1.0148
0.3316
2.4407
-2.2835
-0.5287
-1.9208
0.2987
-0.2189
0.0078
-2.0931
0.2369
0.6488
-0.6525
-0.1853
2.255
0.3197
0.7673
0.5256
-0.2005
-1.8958
0.7011
-0.6519
-0.8349
-1.2815
-0.1486
1.1304
1.1218
1.6688
1.3378
1.972
2.1378
-2.8752
1.8834
-1.404
-1.0638
1.4703
-1.7887
0.8327
-1.9295
-1.6785
0.1521
-1.1481
-0.4591
-2.4913
1.1521
-0.7929
0.0705
-0.9682
1.2112
-1.3786
-0.3408
-0.3858
0.3296
0.3718
1.5839
-0.7443
-1.4929
1.1813
2.5678
-2.0436
-0.9794
-2.2268
-0.6658
2.27
1.8702
-0.022
1.7134
-0.9108
0.5022
1.242
-0.1251
1.5211
1.4701
-1.7117
0.3725
-0.2645
-1.7795
0.9475
-0.0707
0.2859
0.5837
-0.611
-1.4548
-0.1046
2.006
0.1666
2.774
-1.4358
2.4875
0.0033
-0.4917
2.8457
2.0282
-1.1008
1.8554
2.9096
0.6282
0.1312
-0.015
2.0328
1.5642
0.4224
0.4506
0.2152
1.5593
-0.2273
-0.0247
0.7335
-2.6631
-1.8177
-1.4407
0.3111
2.0041
-1.0721
2.7561
2.2246
-0.8232
-1.2674
-0.5416
-0.0794
-2.4631
-0.4966
-0.493
1.0295
0.9989
2.8966
0.3738
0.1891
-0.7296
1.0994
2.6038
-2.5649
2.182
-2.6115
-0.3566
-0.6789
-0.0968
1.5945
-1.9538
-0.7065
2.2644
-2.6668
-2.1879
0.6291
-0.5648
0.9888
-1.0587
0.051
1.246
2.7308
-1.8431
-2.4406
-2.1337
2.5592
-1.2643
2.9846
-0.8733
0.4739
-2.5991
-0.0574
1.7502
-0.2481
0.7061
1.5406
-0.8166
0.3931
-1.1792
1.225
1.2566
-0.8793
-1.7012
-1.0043
1.4162
-0.7885
2.4168
1.4065
-0.3379
0.6655
-1.9324
-1.3732
-0.7287
0.2059
1.6352
0.4872
0.2437
1.1094
0.0124
0.434
2.5793
0.0994
-0.2473
1.744
3.0013
0.4526
0.8563
-2.1365
-1.7671
2.169
0.0462
1.8999
-1.8956
-1.305
-2.6774
0.7459
-0.6608
-0.139
-0.761
0.9551
1.9372
-0.8867
-0.7582
-0.7493
-0.6552
-0.2711
-2.6691
-1.0905
1.3924
1.7076
0.0601
-0.0686
1.5264
-0.4612
-1.75
3.0528
-0.5935
-1.0155
0.3534
2.0794
-0.5477
0.8688
-1.6584
0.2677
-1.3403
-1.3623
-1.2318
0.8942
0.3055
-1.1548
-1.6436
0.6825
1.1129
1.4909
0.383
-0.3678
-2.1949
0.0216
-1.7056
1.0205
0.2125
0.9905
1.921
1.5702
1.7815
1.1212
1.4324
1.2817
2.5122
0.4133
0.1054
0.1546
-0.8725
-1.1328
1.2168
-1.8107
1.4582
-0.2407
-1.787
-1.3378
-0.3265
-0.1868
0.9244
1.5737
0.3274
-0.9714
-0.4794
0.3698
0.1427
0.6824
0.5552
-1.6723
-0.8802
1.4978
0.7514
2.0007
0.5351
-1.802
-3.1676
-1.7183
1.1122
0.6134
-1.3714
0.2779
0.8507
-1.0864
-0.4136
1.4357
-0.249
-0.3478
-0.2941
-1.5217
1.0895
2.8292
-1.0132
-2.0407
1.5898
-1.3858
-2.5705
-0.1213
-2.0253
0.1144
1.5872
0.9597
0.075
0.7762
-1.6469
1.2024
1.3367
0.5996
-2.4428
0.6065
1.7602
-0.4154
0.2661
-1.9935
-1.0382
0.0599
-1.7713
0.2268
-0.2948
0.1456
-1.5239
1.455
-0.5434
-0.7605
1.0083
-1.5856
-1.7839
0.6181
-0.7282
0.9355
2.5371
-2.272
-0.18
-0.8124
-0.6875
-2.8774
-0.6238
3.0015
1.6495
-1.198
1.2173
-0.7303
-0.2822
-0.5105
2.0663
-2.1772
0.0708
-0.8152
-1.3535
1.9374
-0.5682
-2.1117
0.7883
1.7832
1.0777
-1.1235
-1.3386
0.6371
1.7315
2.1495
-1.1808
1.7756
1.3933
-2.123
-2.015
-1.3545
0.0631
-0.834
-0.5643
1.0769
1.0178
-0.5369
-0.1057
-0.7605
0.9804
-1.232
-0.6391
-0.313
-0.049
0.3579
1.1123
-0.8576
1.2065
-2.3211
1.8718
0.8827
1.4699
0.5615
-1.6376
1.6308
0.7413
-0.8246
0.4146
1.3871
-0.9793
0.074
1.4749
0.1513
-0.415
-0.0193
1.5431
-2.0765
2.434
2.172
-2.6575
1.2574
1.0142
0.0947
1.9803
0.3224
-1.3975
0.3021
2.3494
-1.8995
-0.4418
1.277
1.8236
-0.2359
0.2186
-1.5232
-0.3416
2.3301
1.7815
-0.1444
1.6725
2.5218
-2.3069
-1.1399
1.3122
0.339
1.0608
2.0437
-1.4226
-0.9413
-1.2228
-0.4239
0.0219
-1.3192
-2.604
1.2878
-0.9081
-0.7948
0.1942
0.625
-0.9356
0.6321
0.6178
0.8647
-0.0608
-0.3155
-1.3329
-1.27
-1.5604
-0.3606
0.8955
0.7744
1.1193
0.4966
0.7495
-2.8323
1.4246
2.2562
1.506
1.0169
-0.6445
1.6416
-0.112
2.4918
1.4655
-1.3476
-0.8275
-1.6846
1.2011
-0.1575
-0.6406
1.595
1.8392
-1.3419
0.4486
-0.7764
0.1028
1.6529
-0.8365
1.0312
2.5457
-1.0034
2.0575
0.4645
-0.6626
0.5194
-0.6996
-2.4767
0.3082
-0.3321
0.7224
-1.2387
-1.0953
-0.2812
-0.23
-2.375
-1.5965
-2.6048
-0.2798
0.6678
2.0816
2.5277
0.5726
1.3363
0.1084
-1.2679
2.3275
-0.3696
-0.9624
-0.8842
-0.0054
-0.4588
-1.019
1.7956
1.6362
-1.2924
-0.2318
1.7461
1.5691
-0.5579
-1.1532
-0.0122
-0.2068
1.7447
-0.5067
-0.2025
-0.4147
-0.9385
-1.5691
1.1751
0.9454
1.2232
-1.0634
0.844
0.5966
1.676
1.0102
-1.1959
1.8159
-2.8567
1.3751
1.609
1.3264
0.7322
0.0313
-0.5717
-0.8719
-0.6645
-3.0215
-1.1845
1.7745
-0.4932
-1.2294
-0.2292
-0.5646
-2.0308
-1.1462
-0.9827
-1.3357
-2.0003
0.5051
-0.1682
-0.5388
-0.4018
0.4477
-1.0625
1.8261
-0.5121
-1.3187
-0.3889
-0.7947
0.9456
-1.517
1.8528
-1.8474
0.6944
-0.1474
2.3856
-1.3321
2.0113
-0.4865
1.2097
0.7512
-1.6574
0.7424
1.6019
-2.1511
-0.4813
0.2625
0.2851
-0.2087
-1.0141
1.3506
0.5364
0.025
0.0212
0.7298
-0.9212
-1.4501
-0.6523
1.6771
-0.8107
1.9196
0.2422
0.9156
-2.4089
0.3037
-0.5721
-1.5547
0.8375
0.2557
0.044
-1.6733
-0.2556
-0.4137
-0.3041
1.9163
-1.7398
0.4014
0.3526
-0.043
1.0577
2.2214
-1.2627
-0.9975
-1.6935
-1.5076
1.4036
-0.9472
-0.1632
-0.9549
1.798
0.1079
-0.905
0.6026
-0.0798
-1.109
-0.6419
-0.1118
-0.9527
1.9557
0.6261
0.1784
-0.8208
-0.5284
2.8988
1.4735
0.316
1.2691
-0.3773
0.4967
-0.8194
-2.4822
0.6282
0.5246
-0.9499
1.3249
2.6385
1.5572
-0.0756
-0.4168
-0.9
0.3179
1.8036
2.1231
-0.1569
0.0835
1.4106
-0.8858
-1.6858
0.8538
-1.2543
0.387
-2.2099
-0.6479
0.3625
-0.6124
1.5476
-1.1449
-0.2928
-0.6069
-0.2437
-0.6369
0.0566
-2.8734
2.2466
-2.401
1.4109
-0.8582
-0.8119
0.1165
0.4933
-1.1152
0.4112
0.362
0.5804
-0.3673
2.6392
1.6123
-1.6045
-1.8914
-0.6818
0.5906
0.4921
0.8662
0.2789
-2.7031
0.3169
-1.9252
-1.0324
-1.7152
-2.1304
0.5476
-0.1923
-1.3909
-2.8435
2.2083
0.862
-0.1238
-0.5444
-0.195
-2.1477
0.3561
0.9675
-0.1087
0.6091
0.0489
-1.5845
-0.8096
-0.6982
2.2312
-1.647
0.9792
0.4842
0.3496
0.7802
1.9807
-2.3975
0.9575
-0.8568
-1.0818
0.4872
-2.4986
-0.0041
-1.6547
2.5847
-0.1883
0.0615
0.2621
0.6183
-1.9419
-0.6602
1.3916
-2.1354
-1.206
1.1078
1.734
0.8774
-1.2573
2.0885
1.2891
-0.1739
-2.0958
-0.9948
0.057
-2.0125
-0.4447
1.6883
1.3145
-1.3613
0.4193
0.3075
-1.4919
-1.4974
-2.7808
1.4162
-1.8088
-2.4206
3.0624
1.7378
0.3639
-0.8543
-1.7121
-2.0047
-1.5274
-0.0752
-0.7202
0.0192
-0.9291
-0.0833
-0.5155
1.2559
2.1589
-0.8785
2.1789
-1.5714
-2.094
-2.461
0.8092
1.3678
-0.5804
-1.5538
-1.3477
-3.0339
0.1459
1.8429
-1.015
1.6076
0.085
1.1756
1.8073
-1.0917
-0.7631
0.1286
-1.8882
-0.6613
2.3754
-0.7649
-1.6856
-1.8204
0.6741
-2.1896
1.2625
-0.2338
1.7182
-0.8685
0.4026
-2.4553
-1.0456
-0.0788
-0.9883
-1.9312
-1.0639
0.1798
0.3662
-1.9382
1.6634
-0.0929
-2.0872
-2.4764
0.5828
2.38
1.4817
-0.269
2.2478
1.045
1.2426
-1.8697
0.1048
-0.8213
0.4724
-0.7248
-2.5695
0.0582
-0.8291
-0.111
0.7786
0.4063
0.6151
-0.0285
0.3188
0.2232
-1.7487
-0.4772
-0.6723
-0.491
-1.367
-1.4569
1.0822
1.5403
1.7604
0.3088
2.3057
-0.2364
1.0797
-1.7334
-0.279
0.7327
-0.1322
-1.0301
-0.118
1.1704
1.4016
-0.858
-0.4883
1.077
-0.8726
-1.217
-1.3898
0.4523
-0.4012
1.1696
0.4544
-0.7036
-0.4611
-0.2518
-1.5095
0.8862
-1.0522
1.0723
-0.7276
-1.3321
-2.1744
1.8652
2.7997
-0.8047
-0.5511
2.127
2.519
-0.8085
0.541
1.8575
1.7072
-1.3436
0.7994
-1.7915
-0.585
1.3465
0.9312
1.6508
0.4331
0.7598
-0.441
0.3121
3.2241
1.946
-0.0405
-2.5305
-2.0425
-1.6486
2.133
-0.3235
1.0172
-0.1936
-0.4745
0.3795
-0.7038
3.0341
1.9677
-0.4216
2.6248
1.4812
-0.3709
0.5502
-2.1042
1.7009
-0.9367
0.018
1.4931
0.4167
0.2702
-2.0183
0.3098
0.9053
-0.0268
-2.2816
-2.3777
-0.1101
1.449
-0.7723
-0.0155
0.6472
-1.8561
-0.7669
-2.4341
-0.0994
-0.1114
1.0113
0.1968
0.9268
0.1291
1.2855
-1.953
0.4489
-1.1343
0.0556
0.9468
1.744
-0.6249
0.5986
-0.9342
1.5349
-1.6195
-0.3624
2.2343
-0.1781
2.4354
-2.8275
0.6222
-0.1183
-1.5672
-0.2428
-2.4941
1.7143
-0.5202
-2.4391
-0.5607
2.0428
-0.9773
-2.8625
-0.1313
0.8674
-2.9382
-1.5131
-1.206
1.4648
0.1503
1.6091
2.769
0.5581
-1.5419
-0.0496
1.9632
-1.8524
1.8155
-0.4477
-1.6902
-0.7067
1.0692
2.2039
1.2638
0.0921
0.532
1.1499
0.5122
0.4621
-0.434
-0.3328
-0.6682
0.4033
1.448
1.0324
0.9994
-0.0843
-0.3756
-1.308
-1.0386
-1.0007
0.6488
-0.8004
3.0482
-2.3459
1.2444
-0.7216
0.1526
-0.8431
-1.8656
-1.0716
0.105
0.2309
-2.1276
-1.8504
-0.3714
0.8761
0.4584
0.2188
-1.2766
-2.1843
-0.6612
-1.4176
0.6662
-2.3967
-2.2096
-0.206
2.1802
0.2389
-0.91
0.5768
-0.0114
2.4457
-0.0392
0.9308
0.6451
0.9469
0.4028
0.856
0.8727
2.2961
0.4161
0.3524
0.6715
-0.0603
0.0005
-0.58
0.0415
0.4313
-0.8439
1.3356
-1.0173
0.4941
1.1597
-0.4544
0.7719
0.1281
2.7345
0.6036
2.1323
-0.6667
0.6037
-2.044
-0.2129
1.3865
1.3209
1.4332
-2.9869
-0.2659
1.6093
1.2048
0.3639
-2.3471
-1.8079
0.5476
0.0091
1.6966
0.8997
-0.5384
2.074
-0.4861
-1.8537
1.4525
-0.1928
-0.0312
2.1419
-0.0222
0.2348
-0.1588
2.2783
-2.0794
0.0801
-0.8688
-1.4445
1.8346
-0.6571
1.1157
-2.4729
1.8894
1.3002
-0.7591
-0.8068
1.3618
-0.6018
0.0605
0.2768
0.2519
0.1906
-2.9791
-2.4988
1.8363
0.4007
-0.0475
-2.58
-0.4384
0.0283
-0.975
0.0332
-0.0188
-0.9265
-2.485
-1.2127
-0.1816
0.8131
-1.3006
0.2357
-0.9267
1.9703
2.5782
1.1018
1.0225
-0.7316
2.5978
-1.8914
2.3893
-0.7392
-1.2417
1.0866
-0.1031
1.9476
-2.3868
0.2055
0.099
0.7752
-0.8376
-1.2581
-0.2814
-0.9795
0.1292
-0.0273
-1.2442
-0.0399
0.5137
0.6211
0.4874
0.3174
0.3157
0.6872
1.6366
0.0922
-0.4647
0.1708
-1.0733
-0.7154
1.4493
2.3488
-1.0889
1.1715
-0.4959
0.6676
1.59
-0.8009
0.2534
-1.596
-2.8672
-0.0789
0.4202
2.1117
1.9236
0.0607
0.4626
2.5946
-0.1067
0.7556
0.4712
0.8832
0.558
1.3387
-1.485
0.4839
-0.7422
-0.043
1.1477
-1.8802
-0.7303
-0.1128
1.8156
0.3443
0.5936
1.1295
-2.7582
-2.6726
-0.0474
-2.8698
-2.7431
-1.1008
0.6236
0.9964
-1.416
1.7831
-0.6702
-0.3789
1.223
-0.5746
-0.6519
2.8344
1.8973
-1.6204
-2.5984
0.8063
0.6068
-1.3541
0.0438
-3.1866
0.6281
0.2242
-2.5555
0.686
1.9616
-0.1624
-0.566
2.5939
-1.9466
0.7631
2.7354
-0.7398
2.0109
-0.2764
-2.4815
0.5152
-2.55
-0.0037
0.1672
-0.1945
0.7546
1.581
0.8509
0.4078
2.0945
1.2008
-0.43
-0.9548
1.4696
-1.1441
-0.399
-1.0054
2.1566
1.0998
0.9441
0.256
0.8789
-1.898
0.3224
-0.4473
0.913
-0.3069
-2.2642
0.1614
-1.0175
-0.6806
-0.2619
-1.1948
-1.636
0.2575
-0.2244
2.0379
-0.9426
2.5078
1.125
0.029
1.0629
-1.9405
-1.9576
1.2208
1.2461
1.5998
-0.7902
0.8347
0.1256
0.564
-0.9218
-0.8505
-2.2941
1.506
0.9241
-0.5583
0.5406
1.1487
-1.8061
-1.5652
2.0761
-0.5079
0.7182
-0.5945
-0.9645
-0.1868
-1.3335
-0.923
1.2494
-1.1649
-1.4076
0.726
-1.1127
-0.1654
0.4958
-2.2009
1.7796
-0.4652
-2.1767
0.1266
0.0958
-2.0641
0.4052
1.1548
0.3897
-1.6854
1.6878
-2.3929
-0.6156
0.6708
-1.6055
-0.6862
0.3566
-1.5489
0.3556
-0.2788
0.0297
1.4859
1.0175
2.1064
-1.5963
-0.0555
0.3802
-0.0845
2.0319
0.3808
-1.5563
-0.2979
1.0842
-0.4821
-1.5153
1.4664
-1.1627
0.6326
0.5034
1.9315
1.8448
0.448
1.2229
1.0974
0.2762
-1.0357
0.6432
-1.036
0.6853
-0.5418
2.041
2.0851
-0.2048
1.9296
-1.1371
-2.6466
-2.3942
-0.1749
0.9392
-2.124
-2.6059
2.975
-1.5606
0.3763
2.4368
-1.728
-2.8871
1.0627
1.8241
1.2404
-2.1222
0.1332
0.0195
-0.6203
0.0571
0.6182
-0.3708
-1.0666
-2.9028
-0.7594
0.6533
-0.0985
-1.1715
-0.7225
-0.1851
-0.9928
1.9742
0.7289
0.3911
-0.4727
-0.0192
0.3178
-0.8952
1.4618
-0.5984
1.3211
-0.7671
1.5339
0.2369
-2.8149
0.7754
3.0204
-0.7902
1.0173
0.4555
-0.6323
-0.4028
-0.2898
1.55
0.4062
1.3988
-0.1825
0.7821
-0.4177
-1.9387
1.3391
-1.8482
0.1728
-0.5849
-2.2783
0.2127
-1.099
-1.0936
2.0722
0.4112
2.3202
-0.1879
1.2835
-1.2527
0.6003
2.1321
-1.3677
-1.5022
0.2948
-0.6869
0.6725
-0.3373
-1.873
-2.0916
0.8502
-1.0348
-2.6266
-2.0819
2.4423
-0.3179
1.3111
-0.6579
-1.1048
-1.4634
0.1097
-1.0961
0.0393
-1.1944
0.3226
-0.12
-0.679
0.4888
-1.3269
-1.0063
0.0171
0.3097
1.7147
-0.4783
-1.1492
-1.7318
2.8941
-1.8125
0.0775
0.4724
-0.7948
-0.2424
-0.9423
0.5869
1.2734
-1.9551
0.937
0.3239
-0.3129
-0.7685
-0.8381
-0.3168
-2.2768
0.0404
-2.9907
1.9417
-1.3415
0.4717
-2.2442
0.5458
2.493
0.5255
1.4015
-1.2276
-0.6037
0.2016
1.3929
-0.1019
-0.8011
-0.4999
-2.2702
0.6462
-1.3762
-1.5789
0.2427
1.0168
0.9479
0.2412
2.3781
1.0097
-0.3823
-1.5931
0.859
0.6249
1.1866
-0.5281
-1.0377
-0.1373
-0.8989
0.1592
-0.0352
-1.2772
-0.0851
0.4689
0.5898
-2.7947
0.351
0.4011
0.8371
-1.4129
0.4095
-0.0444
0.7068
-0.4088
0.0905
-0.8675
0.199
0.2177
-0.6062
1.2086
-0.6866
0.4667
1.5963
-0.3696
1.3271
0.338
0.1445
0.9513
-0.3135
3.1085
-1.685
1.8946
-2.3318
-1.0521
-0.6153
2.4604
-1.4509
0.9632
0.0769
-0.6283
2.3293
-0.6759
0.3914
-0.8179
2.455
0.5843
0.3283
-1.3849
2.2031
0.1205
1.8644
-0.7001
0.8237
-1.5512
0.572
-0.7942
-0.5295
3.2092
-0.8421
-1.0098
1.2725
1.2943
0.899
-1.347
-0.324
2.5347
-0.7582
-1.8059
1.2348
-2.9001
0.7397
0.8904
-0.6048
-1.903
2.1161
0.1884
0.7107
-1.0274
0.0941
2.6415
1.9046
-0.2734
1.2272
-1.5805
-0.2998
0.3588
-1.038
0.6295
0.6509
0.8696
-0.148
-0.559
-1.7967
-2.018
0.6202
-1.869
2.1877
-1.7505
-2.0098
-0.0238
-0.5032
-1.6045
-1.4846
1.6996
-0.0388
-1.5801
-1.0811
0.0248
0.304
1.5994
-0.7991
1.5052
0.525
-1.8962
-0.6387
2.8639
-2.6522
1.0401
-0.6
0.8243
-2.6743
0.578
-0.6828
-1.337
0.4589
-0.0056
-0.8873
-0.343
0.1937
2.5659
-1.2134
0.5294
-0.1932
1.7391
-1.661
1.2801
2.5752
-2.4861
1.0465
1.9092
-1.3316
-0.2794
0.3557
-0.86
1.1935
1.8058
-0.4567
-0.4741
0.3202
-2.7842
-0.1891
2.4963
-0.0067
2.3371
-0.0979
-0.5533
-2.1011
-1.2597
-1.1011
1.8563
-2.0132
-2.6742
0.078
-0.1054
0.2572
-1.9062
0.1628
0.1154
1.4332
1.0442
-0.8468
-0.7582
-1.762
-0.3766
0.326
0.5506
0.502
0.385
0.4044
-2.5118
-1.6052
0.0522
-0.6116
3.1618
1.7468
-1.3751
0.5547
-2.0895
0.7275
-0.6199
-2.6501
1.3953
1.8907
-0.9591
-0.3957
-2.7679
1.9595
0.8841
-2.5125
-1.4719
-2.3429
-1.6439
0.8299
-1.2703
-1.1861
-1.9896
-0.199
1.1136
2.153
-0.1529
-2.3223
2.4031
1.1209
-2.6873
1.0137
2.5983
-1.0055
0.2375
-0.0215
-1.5777
-0.9495
-1.2089
-2.1511
2.9823
-1.9879
2.8039
-2.0983
-0.1057
-0.8439
-0.8313
0.1369
-1.0113
-0.7943
0.9927
1.2776
0.2654
1.4376
1.7222
1.324
0.4478
-0.7016
1.3574
0.276
2.8126
-0.6584
-0.1018
1.4104
0.8062
1.5672
0.6214
-1.8264
2.4839
-1.9604
0.1477
0.8211
1.9029
-1.3174
-0.4428
-0.1839
1.3027
-0.6936
-1.0527
2.0687
0.6833
-0.089
1.5952
1.0253
0.0447
0.4964
0.9469
-0.0373
2.6637
1.0626
0.2796
-1.119
1.9867
-1.6671
-0.4071
1.0567
-1.9863
-1.1394
-1.1128
-0.0634
0.5751
-0.6307
1.4389
-1.2029
-0.1595
-0.1414
0.6948
0.9154
-0.9133
0.3289
-0.0686
-0.2625
-1.6863
0.7798
-0.8512
1.8174
0.7983
-2.0651
-1.653
0.6011
-0.0131
1.6242
0.8028
-0.6342
2.4331
-1.2591
-0.0374
1.3879
-1.6935
-0.8849
-0.8968
0.1142
0.7143
-0.5299
1.5014
-1.1789
3.1029
-0.1941
-2.6732
0.7858
-1.0813
0.1225
-0.3134
-0.5457
-2.0079
0.4199
2.0272
-1.8962
0.3231
-2.5787
1.0718
0.0107
2.6349
0.9571
0.0972
-1.3782
1.6508
-2.0799
-0.8965
0.4903
-2.6295
-1.8593
-1.9096
-0.937
-0.3752
1.6189
0.3351
0.8931
1.8597
0.9726
1.6479
-0.1451
-0.9249
-0.4868
1.3742
1.586
0.3532
1.1578
0.9276
-0.1327
1.4587
-0.6471
0.3083
-2.024
2.3914
0.6519
-0.484
-0.8114
-0.1256
-1.4987
1.8279
0.2285
-2.8154
-0.5452
0.6902
-2.1814
0.8756
0.2354
-0.6205
-1.4871
1.1171
-2.4336
1.173
-0.9656
-2.0912
-1.9986
-0.4832
-0.6171
1.0815
-1.7363
-2.3122
-0.4412
0.8046
-1.6469
2.2396
-0.4382
0.3548
-1.7303
0.0651
2.6689
-0.2678
1.2904
-2.2822
-0.9506
2.2136
0.8614
1.7511
1.8109
1.2455
0.2596
2.335
1.1228
0.1044
2.7618
-0.5308
0.2617
2.0675
1.8145
-0.2926
2.5048
0.581
-2.5825
-0.2272
1.2982
2.1984
-0.5987
-0.3345
-0.0811
0.3662
1.2124
-0.6147
1.6434
-1.6388
2.8506
-1.0677
-0.0815
-0.5397
1.0392
1.5834
1.2976
0.3864
-0.945
0.7848
-0.7731
1.1399
-3.1019
-0.1866
0.2604
-1.5562
1.1218
-0.8188
-2.2334
1.17
1.4042
-2.9643
-0.2621
-1.7531
0.9595
-0.1115
0.1539
0.3221
-1.0405
1.1861
-0.9853
0.8422
-1.3188
0.9286
-0.4028
-0.193
0.1244
-0.8842
-1.3756
0.4935
0.0125
2.3016
-0.6266
-0.3752
-1.6546
0.6552
1.8438
0.4776
1.6766
-2.5464
-0.5178
-0.2247
0.1759
-0.7495
2.1191
0.7945
0.3967
-0.5079
-0.0761
-3.0183
-0.9377
-1.8214
-0.5496
-1.8326
2.7264
-1.4134
0.6984
1.0746
-1.7184
0.7163
0.3913
-0.8501
-1.1646
1.2908
-1.471
-1.0532
1.1106
0.31
-1.6118
0.4652
-1.4462
1.0508
-0.0309
0.4285
0.9955
0.2365
-0.0053
2.1133
1.8819
-2.1331
-1.5349
-1.0339
-2.0636
0.4958
-1.3428
-2.4594
-1.0108
1.5694
-2.706
1.1135
-1.5131
-2.1889
0.9294
-0.1456
-0.2938
2.328
-0.2674
0.3168
2.647
2.0128
0.2574
-0.776
-2.5209
0.1425
-0.7729
-0.1471
0.5863
-0.0063
-0.9168
0.8367
0.8962
-0.5334
0.0293
-0.4876
-1.8792
-0.6641
0.0858
0.5753
1.0092
1.5923
2.5294
0.7486
-0.2687
-0.3176
0.8068
0.0323
-2.4362
-3.1171
-1.8056
-1.5737
-2.2166
-0.2526
1.2461
-0.7924
0.3904
1.7223
0.1314
-0.9008
-1.1692
-0.4693
-1.873
-1.8986
-0.3415
-0.2736
1.7868
-0.5093
-0.4034
-0.9676
1.28
-0.0097
1.9218
0.7258
-0.1163
-0.3996
0.0808
-1.7473
0.8746
1.5976
0.6268
1.4435
-2.301
-0.5714
0.2833
0.468
0.1876
-0.3533
-0.9499
-1.3972
1.7864
-1.0249
0.2042
-0.875
-0.7811
0.6908
0.4688
2.0343
-0.9615
-1.76
-0.1564
-2.4997
1.2454
-1.8234
-1.6711
1.9072
-0.714
0.5003
-0.7987
-1.1292
-0.2864
1.9343
-0.8158
1.4986
2.5285
-0.798
-1.7224
-0.0402
1.1769
-1.1432
-0.242
-2.4685
-1.0642
0.899
0.3489
0.7672
-0.9181
-1.2254
0.0501
-0.1636
1.6152
-1.5
0.4657
1.1117
-0.9954
-0.7357
0.4571
1.1496
-0.0918
-1.4242
-1.0041
-0.2652
-0.6411
-0.2887
-0.6414
0.1439
0.6335
2.6708
-1.7315
-0.8999
0.4554
-2.3761
-0.9976
-0.1195
2.1014
0.9547
1.5603
-0.792
-0.9823
-0.4443
2.6654
0.3595
1.0347
-0.0192
2.3177
0.0581
1.599
2.23
0.5172
-1.6959
-2.5662
-0.2505
0.5407
1.6508
1.6461
-0.9071
-0.8886
0.2679
-2.1481
0.2604
-0.4939
0.7089
-0.8413
-0.0248
1.7249
-0.3027
-0.9874
1.5139
-0.7861
-2.7672
0.6905
-1.6771
1.8038
3.1459
0.9155
0.2328
-0.3358
-2.2242
-0.3121
-2.5868
2.6253
0.7833
0.2842
-0.3057
0.8567
-0.9388
-0.5723
0.5225
0.9122
-0.8369
0.3951
-0.1019
-0.485
1.0891
-0.0901
1.0976
-0.0583
-1.7147
-2.0282
0.8443
-1.0845
0.5824
-2.1423
-0.8619
-0.2866
-1.8501
-0.4324
2.5329
-0.9414
0.8183
-0.1753
-2.0788
1.5176
-0.2777
-0.0231
-0.7903
0.9019
-1.295
-0.6227
-0.1533
0.3183
-2.2803
-1.1904
-2.7609
-0.2335
0.0433
-1.726
-2.0598
2.5237
-0.8781
1.0471
1.9502
-1.2408
1.5095
-2.7015
2.7153
1.5804
0.6522
0.1357
0.2357
1.1567
-0.173
-0.272
-2.2121
0.7651
-0.9663
-0.6476
-1.351
0.4053
1.5493
2.2855
-0.4578
0.0777
0.8199
1.9739
0.4673
-0.218
0.1227
-1.5827
-1.8523
-0.4817
-0.5426
-1.8303
-0.8633
-0.7133
-1.1758
1.2308
0.1579
-0.9131
1.4997
-2.2296
-2.0658
-1.0807
0.9303
-2.3813
-0.9806
2.0604
-2.8837
0.7759
0.1365
1.9568
-0.1122
0.6881
1.2857
-1.3917
2.6914
0.6324
2.4667
-1.4313
2.2501
0.6088
0.4031
1.8377
-1.4359
0.6171
1.6482
-1.4147
-1.8133
-2.6193
-0.3515
-1.3584
1.1183
0.7297
0.9577
2.0068
0.805
0.8341
-0.9781
2.1271
0.5238
-2.3064
0.3951
2.2793
-0.7069
-2.188
2.493
-1.2048
1.6688
-0.1498
-1.5409
-0.6611
-2.221
2.1764
-2.0099
0.1706
0.7307
1.5137
-2.191
-1.9864
0.6938
1.139
1.1928
-0.5787
-2.3321
-2.2244
1.5878
1.1171
-1.7932
1.2537
-1.0061
-0.176
-0.9662
-1.5337
-0.0352
-1.181
0.1487
-0.7563
-2.053
1.3788
1.5517
-2.9678
2.7707
0.9497
-0.0342
-1.6144
1.3289
0.8086
-1.332
0.0269
0.1751
-2.3212
0.935
-1.3205
-0.6908
1.3905
0.2131
-2.38
-1.2686
-1.1633
-0.2208
0.1254
1.7183
-0.1523
-0.3666
-0.358
1.7165
-2.1302
-0.2245
-0.5535
-1.2742
-0.5432
0.2057
-0.461
2.5768
1.3317
-2.3529
-0.0804
0.1622
0.2179
1.93
-2.6887
1.3123
-0.608
-0.0526
1.5447
-0.5264
-1.1458
-1.7473
-0.4875
-2.077
-1.3956
0.1229
-2.2318
-0.0629
-1.3575
2.281
-0.4112
2.2393
-1.0314
-1.8265
-1.5795
-1.7241
-0.4172
-2.369
-0.2443
0.5525
1.921
-2.4877
0.6383
1.6736
-2.454
-1.7092
0.8361
-1.1671
-0.9602
-1.6153
0.349
-1.4157
-0.1513
-2.2064
-0.8227
-2.3491
-0.0271
-0.2055
-2.6794
-0.6905
-0.5877
-2.166
-1.944
0.2832
1.4437
-1.5347
-1.8934
0.5723
-0.4866
-1.5881
0.7491
0.1764
0.1753
0.9505
-0.5699
-0.9043
0.1522
-0.4725
0.7031
0.6072
-0.5556
0.6964
-1.9855
1.4337
1.3286
1.1807
1.1946
-1.7013
-0.7489
-2.2968
0.4133
-2.2443
-0.2343
0.0945
2.2238
-0.1953
2.8723
1.8012
0.0728
-2.108
-1.2595
-0.4539
0.5138
-1.4285
0.4775
-0.1169
0.2699
-1.434
-1.7471
-0.4647
-0.6586
1.1525
1.897
-1.4973
-2.2721
-0.2224
1.5797
0.062
-1.2935
-2.2823
-2.6994
-2.3401
-0.9997
1.5267
-1.1097
1.1264
-1.3907
1.3741
-0.2046
-2.6455
0.8102
0.5367
0.0155
-0.5484
-0.9503
-0.9856
-0.4491
0.8637
-0.119
0.1065
0.067
-0.5627
0.061
0.5041
-0.6666
1.6686
-0.4774
-1.9846
2.267
1.0134
2.6514
-0.8062
-0.9626
0.7487
-0.383
0.7627
-0.525
0.8743
0.2498
-0.5549
0.303
1.3903
1.273
-1.4821
-1.7554
2.2967
-0.5902
-2.0189
-0.1466
0.3167
1.2138
1.1115
1.8526
2.0039
0.1314
1.3555
0.9654
0.8047
-0.5606
-1.2869
0.4686
-0.0041
-0.8622
-0.2621
0.3622
-0.4225
-0.7734
1.1531
0.6462
-0.4505
-0.2942
-0.3181
1.3206
-0.0881
0.5754
1.8779
-0.8914
0.6647
1.8354
1.1875
0.5638
-1.4689
0.209
0.8875
-0.8674
0.0647
-1.027
0.9779
1.3686
-1.2881
-1.8726
1.4587
0.7182
1.0263
0.949
-0.9469
0.4582
0.4543
0.8842
0.3147
-2.6882
0.2727
-2.067
-1.3101
-2.1674
0.4815
-1.351
-2.5445
2.0206
1.0807
-0.2446
-0.1117
0.0455
-1.2065
-2.0245
-0.5653
-1.5393
0.1735
-0.1373
2.6483
2.383
-0.615
-1.5502
-0.2178
0.3102
0.2386
-0.2277
-0.8842
-1.5257
1.329
-1.9453
1.963
0.1519
-0.6205
-0.1493
-1.5064
2.0663
0.9436
-1.3933
1.8144
0.9407
-0.5324
-2.4005
2.0952
0.0519
1.5052
0.106
-0.664
2.6768
-2.774
-0.4276
0.0904
2.2616
-0.2628
-0.7244
1.0817
-1.1936
-0.7915
-0.7844
-0.9671
-1.1352
-1.0835
-0.6075
0.4977
2.437
2.1381
-0.1938
-1.0775
-0.3078
-0.9571
0.4566
0.8609
0.461
-0.5386
-1.933
-0.2406
1.4666
0.1166
2.4678
2.1714
2.709
-2.2682
0.5518
-1.7334
0.9115
2.1374
-1.1273
1.1522
-0.6493
0.2262
0.7071
-2.2789
1.3035
-1.448
2.7783
1.0804
0.2163
0.3912
-1.4673
1.3996
2.6427
-0.8096
1.0776
-1.3212
-1.2476
-1.7736
0.5824
-0.5284
1.6524
0.776
0.324
0.5013
1.5124
0.2857
0.3024
-1.5091
-1.6676
0.0321
0.5177
-0.0059
-1.3339
1.2679
2.9403
1.0596
0.7457
0.5649
-0.9162
1.4223
-0.4069
-1.2836
-2.6415
0.6393
0.5718
-1.001
-2.2357
1.9876
0.4048
1.4129
0.3014
-1.0866
-0.9077
-0.5956
1.6928
1.2473
-0.089
-0.473
1.9387
-0.8412
-0.416
-1.4959
-2.2378
2.4781
-1.8886
-0.3877
-1.0065
1.3752
-1.2299
-0.4251
-0.9206
-0.8733
-1.7169
1.6688
-1.9803
-0.9907
-0.0726
-0.6597
-0.9089
1.0232
0.4261
-0.8571
-0.983
1.8915
-0.2209
1.0768
1.074
1.6141
1.2634
1.865
-1.2913
0.1912
1.602
1.5077
1.7514
0.8994
-2.4817
0.0048
0.3716
0.4621
-1.1574
-2.6438
1.123
-1.1209
-0.9789
0.1156
0.7289
-0.5727
-1.9458
-1.5473
-0.8109
-1.17
2.4953
2.1977
-0.2194
0.3639
-0.7629
1.5204
-0.7735
0.7521
1.387
-0.3025
0.8035
-0.0052
-0.8856
0.0057
1.235
-1.9082
-1.0269
-0.8316
0.5208
1.5969
0.963
0.4622
1.4532
-0.8562
-1.5572
-0.4451
-0.5917
-1.7923
2.7115
0.0173
0.1602
0.0684
-0.0534
-0.0004
0.4321
1.449
-0.0216
2.7786
0.224
-0.9271
-0.4697
1.8009
-0.4641
-0.5064
1.879
0.3432
-1.6322
2.7111
0.4708
-1.5946
-0.0036
-1.105
-1.4173
-0.7355
1.1451
-2.1243
-0.5086
-0.3564
-1.463
-0.3468
-0.0799
-0.4574
-1.2744
0.9506
-0.1312
2.2385
1.7111
-1.5087
-0.6625
-2.0992
0.9398
2.1056
1.603
-0.3632
-0.3116
-1.3138
0.1116
-2.3842
-2.0429
1.3405
1.4171
1.6685
2.2994
0.238
-1.0342
-1.3124
-0.3918
-1.3446
-0.6888
-1.4966
-0.2864
-0.1303
-0.8233
-2.1607
-0.6609
0.604
-1.4378
-0.028
-1.5154
0.8584
-2.5323
-1.6522
0.4268
0.6326
-0.8301
-0.4795
1.8891
-0.0731
0.3923
0.2132
2.8714
2.018
-2.1422
0.4259
0.0968
0.3522
-1.88
0.1585
0.1191
1.4833
-2.0977
-0.5887
-0.3386
0.3433
0.2513
-0.9301
-1.3574
-2.4643
-2.4075
-2.6208
-1.2609
-3.0381
-2.8326
1.1989
-2.2075
1.8984
-1.0241
-2.5781
-0.9206
2.5149
-0.2587
2.432
-0.677
2.0882
-0.5367
-0.1548
-1.4765
0.6183
1.419
-0.5079
-0.0423
1.382
-0.9453
1.3727
0.3486
1.1025
-1.0759
-1.0668
2.9731
3.0567
-2.2499
-1.2728
1.2775
-2.5861
-1.1902
-2.5219
1.8157
0.5584
-1.1737
1.7395
-1.9662
-0.6171
-2.2003
1.6808
-0.2377
0.4411
-0.9934
0.5789
0.4476
0.4559
2.447
1.7105
0.0897
-0.5724
1.5675
1.7991
1.9654
-2.6439
-0.3551
-2.4324
-0.4789
0.7951
-0.0442
2.1233
-0.6895
-0.0861
2.5002
-0.9179
1.3333
1.2664
0.7247
-1.7253
2.313
-1.7011
-2.0939
-0.2992
-1.0273
0.8419
0.5978
0.0837
1.1429
-0.9352
-1.0305
-0.5766
-1.0071
-0.4788
-0.4253
0.9967
2.3534
-1.0655
-0.8631
-1.75
1.3939
-2.6953
0.4201
-0.951
1.8015
2.3288
0.8358
0.8039
-0.8387
-0.6106
-1.5837
-0.2764
-3.0374
0.1683
-0.2847
-0.915
1.7591
1.3888
1.4558
-1.1121
-2.8331
-0.2258
0.3611
-0.8676
-0.4302
-1.3989
-0.2919
-0.1815
2.4143
1.1464
-0.5034
0.9463
-0.8531
0.8565
-0.2733
-0.7612
-0.4022
1.0083
0.3985
-2.0271
0.4903
-1.6752
1.5118
0.4255
-1.4523
2.6365
-0.2101
0.0428
-2.9535
0.8363
-1.4904
0.1017
2.5406
-0.5224
-2.3291
0.6023
-1.354
-1.4395
-2.7262
-1.7324
-1.5303
1.3619
0.5952
-0.3487
-1.265
1.328
-2.1955
1.4767
2.7188
-1.5411
-1.2678
0.4668
0.5905
-0.6917
0.1015
3.1753
-1.0962
0.5992
-1.3643
-0.2281
0.9355
-0.9451
0.8882
0.0868
0.1321
1.2291
0.3055
-2.4335
-0.2298
0.568
0.1645
-1.2353
-0.1501
0.3485
0.465
0.4044
0.3713
-2.7061
1.2071
-0.7912
1.3342
-2.0425
-0.8859
1.0355
0.1984
-2.0289
-0.526
-0.0037
1.3816
-1.0809
-2.2709
2.9315
-0.0145
-2.7121
-0.0413
0.0106
-0.713
-0.369
-0.391
1.0642
2.5629
2.6718
-0.0431
-0.4614
-0.0171
-0.1434
1.0025
-1.2895
-1.8995
1.0157
2.7457
1.8569
0.1924
-0.4044
-1.3672
-0.8528
-0.2948
-1.1269
-1.5056
0.4119
-0.0844
2.1251
-0.9464
-0.9025
0.8235
-0.4789
0.3103
1.7575
-0.8477
-2.3854
-1.0121
1.8382
1.4554
-0.3174
1.6397
2.6166
1.1793
2.4482
1.7125
0.8158
-1.6759
-0.6423
-0.7939
-0.2875
-0.5567
0.2417
-2.6028
-0.6931
-2.0168
-1.4536
-0.4372
2.8756
0.4976
0.8255
-0.8508
-2.6885
0.4328
0.5255
-0.5669
-1.0013
1.0655
0.9231
0.4147
1.3834
-0.8809
-1.2586
2.0938
1.189
-2.1298
0.5342
-2.0831
1.6922
0.5957
-0.2522
-2.2855
-0.3839
-2.5347
-0.3411
1.4865
1.5145
-1.6908
0.2677
-0.5976
0.8336
2.4647
0.1474
-0.7536
-0.0333
-0.7637
0.5366
0.7956
0.2183
-0.9905
0.6505
-1.2072
0.1947
1.7842
0.4893
-0.2084
-0.1041
1.007
0.0529
0.5152
-0.6782
-0.0455
-0.6587
0.9636
1.7494
1.9037
1.6313
-2.1401
-2.6518
-2.9759
0.3693
-2.2421
-0.7746
1.6997
-1.168
0.6575
0.8274
-0.4535
0.2964
0.0051
-1.1226
0.3948
1.4855
-0.9225
-0.0711
-2.3088
2.3995
1.1515
0.7053
-2.0108
-0.2385
-0.3266
-2.0703
-1.988
0.1251
1.197
1.4325
1.0364
0.2134
-0.8315
1.3833
0.5088
0.0266
0.1417
1.0589
-0.2941
-0.4354
0.8397
0.4592
1.9047
2.1042
1.2625
-0.4156
0.5515
-2.185
-1.8668
-1.5657
-1.0769
-0.1958
1.2824
0.2859
-2.9805
1.5181
-2.3972
-1.4145
1.3943
-0.3199
0.2016
-0.1133
-1.0598
-2.4331
-0.7516
-2.3641
-0.5122
-1.5447
-1.98
-1.6134
-0.2399
-0.9315
-0.2069
2.139
-0.2427
-0.1135
-0.2253
0.1227
-0.5035
-0.2605
-0.5818
0.3756
1.1782
0.3925
-0.1385
1.4287
0.3833
1.8455
1.105
0.0048
0.3882
0.8217
-0.1285
-0.6189
1.1933
0.5979
2.715
-0.4428
-0.4785
1.1741
-0.1952
-2.7433
-1.3503
-0.7265
-2.3054
-0.9672
-1.4221
-1.8271
-0.3388
1.6091
-0.6939
1.1491
-0.849
1.7084
0.8343
-1.6283
-0.5592
-0.6689
-0.1143
2.948
0.5306
-2.2464
-0.2629
-1.5063
-0.8564
0.2531
0.3885
1.3932
-1.4434
0.2756
1.8399
-1.4611
-1.2304
1.0983
0.8145
-0.2384
-0.2174
-0.556
0.5891
1.7841
-1.6811
-1.4101
1.1637
1.33
0.9318
1.8124
2.5383
-1.6011
1.0681
2.5583
1.4361
-0.4552
-1.2726
-2.4496
-2.1429
-1.7863
0.4637
-0.1037
-1.6451
-2.3172
-0.277
-0.2347
-0.3473
1.2286
-0.2175
-2.8425
-1.5263
2.2976
0.6418
-1.3735
1.3715
0.8898
2.3013
0.8955
-1.4843
0.282
-1.048
1.1415
-1.5439
0.9312
-1.0589
-0.7558
2.0452
0.9954
-0.4235
1.2699
-0.273
-1.5707
-2.4184
0.6654
-1.9448
-0.2137
-0.4903
0.7072
0.3067
1.7898
2.0844
1.3954
-0.0723
1.1627
2.0286
-0.5467
0.1952
-2.0946
-0.6576
-1.8425
1.1089
-1.4288
-2.6973
0.785
-0.6076
-0.1166
-0.8139
0.7819
-1.6778
1.8421
-1.5608
-1.8514
-2.1016
1.1703
-1.6615
-0.5616
1.3979
1.145
-1.1156
1.3746
-1.0099
1.7659
0.0766
0.6805
-2.7712
-0.2434
1.9152
0.6327
-0.6095
-1.6064
1.1235
1.2314
2.1988
0.9538
0.9781
-0.8005
-0.9002
0.8837
1.4792
-2.1858
-0.076
1.4599
-0.6503
0.352
1.3946
-0.5942
-2.1332
0.2594
0.2349
1.2747
-2.9698
0.8132
-0.2784
0.5134
0.1168
-1.2633
-0.1455
-2.8784
-2.7038
0.5834
0.634
-2.347
-1.6011
-0.2005
-1.217
-1.1692
0.148
-0.3378
0.8552
0.6551
2.5433
