64
131
-2.6935
-0.1788
1.0612
2.8694
0.5357
2.4569
0.6456
0.2219
-0.2478
-2.1971
-0.506
0.1151
1.5095
2.2434
0.8833
2.5492
-0.7461
-0.6058
1.5365
-2.3063
-0.4608
2.3627
1.4538
-1.3443
2.3652
1.3183
0.6351
2.1586
-2.0983
-0.4621
-0.9197
1.6486
-0.7443
0.2985
0.0664
0.4027
-0.1263
0.3229
0.3164
1.6975
-0.2441
-0.3886
-0.1695
-1.0205
2.1787
1.4406
-1.3915
2.0793
0.5888
-0.743
-0.0727
1.1661
1.5396
-0.3857
0.5102
-0.483
1.7544
2.5123
0.3571
0.4086
1.2333
-1.8792
2.7448
-2.7126
-0.0239
-0.4531
1.1196
-0.0161
1.2598
0.2369
-1.2416
-1.3325
-1.4693
0.191
-1.0619
-0.108
-1.6577
2.6858
1.6585
0.3805
0.6948
1.1679
0.3662
0.1329
-0.9656
-1.0861
1.6147
-0.8506
-0.0851
2.4775
-1.1497
0.7066
0.0593
2.0285
1.9036
1.5279
-0.5323
0.8433
0.944
1.6131
-1.8597
-1.0778
-0.7515
-2.3145
-0.6465
-0.4582
0.0937
2.8525
-0.1692
-0.5746
0.2029
0.7297
-0.428
1.8499
-0.4238
1.1478
1.854
0.2615
1.4903
-2.447
0.1233
-2.0628
-0.6085
-0.2242
-2.3435
1.4305
-0.1664
-2.0141
1.0074
0.9109
-0.4604
-0.9134
-1.2745
0.8175
-0.9861
0.0732
-2.3537
-1.508
-0.462
0.9892
-0.2264
2.6496
-0.0083
1.8349
-1.4463
0.1833
0.375
2.6101
0.5402
0.9234
0.6878
0.0382
-0.8205
-1.6837
-2.3465
0.6727
1.0251
-1.0844
1.1023
1.2368
2.8004
-0.5556
1.204
-1.5463
-2.0483
-0.0971
-2.0414
2.1537
-0.4138
0.291
-2.0806
-0.7702
-2.1266
-2.6681
1.0867
-0.4877
-0.6329
0.856
0.9067
-0.2756
0.7904
-2.244
0.6564
-0.1339
2.1433
1.1393
0.3358
-0.0627
0.149
1.1753
-0.0554
-0.0618
-1.9158
1.141
-0.5169
-0.1313
-0.7741
1.0364
-1.0489
-0.2712
0.2972
-2.4156
-1.6512
-0.4815
1.2981
0.6157
-2.3239
2.5145
-1.0482
0.2997
0.2098
-1.1134
3.0886
-0.0866
-0.6037
1.7419
-2.6753
-0.5432
1.7891
1.25
1.3208
-1.0704
0.8348
0.6876
-1.3071
-1.6679
-0.1899
0.0549
-0.7286
-2.3359
1.9918
-0.6482
-0.2206
0.2026
0.8263
-1.4217
0.2171
-0.606
-0.4097
1.0112
0.5843
1.7916
1.5608
0.0968
0.8812
-2.4347
0.1841
-0.8879
-2.169
-0.1779
-1.263
-1.943
1.2638
-1.2682
0.4962
0.2083
-1.9273
0.8479
-1.0917
-0.9876
-1.9121
-0.3832
0.4975
0.0197
2.7791
0.7885
-0.8321
-0.2395
-2.1442
-1.4261
0.4813
2.1443
2.1293
2.2794
1.1612
-2.659
-0.7844
-1.2022
1.2076
-1.5423
-1.0549
-2.0407
0.6203
2.2177
1.3178
3.0408
-0.6007
2.0671
-0.2199
0.9351
0.8216
1.283
0.8856
1.4726
1.6104
-0.1347
1.3575
1.3765
1.7655
1.0909
1.1959
0.6468
1.2869
-1.5941
0.4005
2.5603
0.1748
-1.6358
-1.0284
-2.7134
1.706
-2.311
0.1859
1.2097
-0.6733
-0.3431
0.7667
1.2224
-0.4094
-2.2857
0.7137
0.6015
-0.7791
-1.585
0.0272
-0.653
-1.7824
-1.5178
-1.2929
0.7357
-0.1425
1.1925
0.0303
-1.7859
-2.413
-0.0077
0.7197
1.6123
-2.0403
1.4354
0.7756
1.1002
0.9756
2.245
0.198
-0.0455
-3.1957
-0.8559
-1.0133
1.4521
1.8298
-1.3136
0.4185
-0.9609
-0.3319
-2.4049
-2.06
-0.7306
0.1496
-0.853
-1.8952
2.1429
-0.0025
0.0653
-2.3641
-2.1707
2.4887
0.35
-0.1899
-0.5645
1.0693
0.0011
1.3508
-2.8686
-0.9836
-0.9814
2.258
0.7474
-0.3933
-2.5975
-0.7453
0.4529
2.8403
-1.5704
-1.1054
2.8015
2.1633
2.0999
-2.0991
1.2398
0.8528
1.8598
-0.4496
-1.3059
-0.3119
1.1449
-0.0075
-0.2876
0.5097
-0.688
-0.3987
1.582
-1.0944
1.6072
0.0611
1.0259
-1.8473
1.4767
1.3722
1.3211
-1.749
2.1975
-3.019
-0.8094
-0.7994
0.4926
-0.0055
-2.0887
1.0013
-0.3612
-2.6943
0.76
0.3765
-0.3636
2.0216
1.1832
0.6028
0.4851
1.0351
2.4575
-1.5966
2.1851
0.8998
1.3063
0.3322
1.4594
-1.661
1.0062
-0.1647
1.5849
-0.0939
-1.7195
0.1897
-0.7152
2.3245
-0.3172
-1.8816
1.1128
-0.9596
-1.3405
0.1751
0.5151
-0.1157
-1.5125
-0.1938
0.7687
-1.6974
-0.8334
0.2886
-1.4034
0.8489
0.6969
1.6221
0.5525
-2.3071
-0.1984
0.5301
0.0828
-1.3352
-0.2424
0.2892
0.4643
0.4879
0.5647
0.8995
-1.5797
-0.1146
-1.0537
2.361
0.5042
-3.1426
-1.821
-1.8799
0.1625
1.2341
1.5397
1.2841
0.672
-0.0915
-0.802
2.0224
2.0328
2.7108
-2.2925
0.3351
0.9679
-0.1893
0.3451
-0.501
0.7543
1.0386
0.557
-0.4858
1.3918
-0.159
1.6201
0.3805
-0.3963
2.7713
0.2576
2.0981
1.9436
-0.0008
-0.2536
1.39
-1.4188
-1.9217
0.0863
1.5331
-0.6533
0.2854
1.2775
-0.7494
-2.3134
0.4825
-1.9044
0.693
0.2876
-1.2774
-2.1587
-0.5133
-1.0515
-1.93
1.9711
2.6645
1.9935
-1.4754
-2.6224
0.3958
-0.4079
0.0863
0.4449
-0.7657
-1.7021
-0.5215
1.3427
-0.8198
-1.8892
-0.0222
0.0708
0.2331
-0.9691
1.5843
-0.0938
-0.8835
1.0583
-2.2555
0.8488
-0.893
0.916
-1.7113
2.8985
0.2047
-1.3959
-0.0599
-0.4981
2.4097
0.6764
-0.5782
0.4892
2.445
0.5789
0.0107
2.5837
0.3109
1.5887
1.7069
-0.7681
-0.7162
0.4288
1.2334
0.2641
-0.6361
0.3761
-1.4097
-0.8733
0.5513
1.4307
0.3314
2.3732
-0.431
0.3156
-0.0973
0.1733
-0.3061
0.3079
0.5813
-0.9193
0.9261
1.4072
-0.9098
2.372
-0.0113
0.3369
-1.2937
0.217
0.1585
0.3739
-0.5703
-0.8308
1.4354
-1.7588
-2.0165
-0.7715
0.5427
0.4925
0.9213
0.3951
0.7573
0.5744
-1.5874
-0.608
2.079
-1.5135
0.2879
-0.5039
-2.0456
0.7827
-0.0063
0.7075
-1.7862
-2.3676
-2.4702
-0.2507
-0.4197
-1.1339
-0.5501
-0.1017
2.0541
1.2071
-0.7994
1.1544
2.3582
-1.8984
0.0583
-3.0359
0.4927
-0.6198
-1.2535
0.4347
-0.2655
1.766
-1.4582
-1.5412
0.0835
1.6462
-0.59
0.2542
-2.1701
-1.1043
0.3794
-0.7909
2.1433
-0.4438
-1.7936
1.5753
0.0375
0.3512
-0.5554
0.7991
-1.934
1.2806
0.8171
0.1573
-0.4941
-0.9324
-0.9527
-0.3502
1.08
0.2657
0.6887
-0.7231
-0.4882
1.5983
-0.8124
2.315
-1.922
-0.2115
-2.1789
2.2108
0.0553
1.3898
-0.1344
-1.0358
-1.1097
-0.1511
-1.2322
-0.8712
1.1365
1.719
1.0812
-0.5723
0.2403
0.4468
0.2522
-0.1389
-0.5216
2.5858
-0.4425
-2.8479
2.1279
1.5824
-1.0027
1.131
1.6348
0.7133
1.8483
-1.3091
-2.0006
-0.0213
1.5568
-0.3382
-2.2248
2.6553
-1.8769
0.7672
-2.3147
-1.0874
1.3772
-1.2698
-2.2701
1.8581
-1.7878
0.1044
1.1857
-1.6158
1.7352
1.6129
1.4991
-1.6784
-1.161
-0.0209
-1.33
-1.6066
2.6307
1.7565
-0.7477
-1.4004
0.0033
0.3914
-0.0312
-1.0599
0.7871
-0.8391
0.8198
-0.5849
-1.5716
-1.9354
1.8052
0.0245
-0.5189
0.3796
2.9249
0.7682
0.668
-0.4478
0.9023
-1.6303
-1.2874
-1.1408
-0.9859
-0.6178
0.1684
-1.6995
-2.7397
-2.7475
-1.5182
-2.1237
-1.0824
-1.4662
0.2063
0.8633
0.7095
-0.0504
-1.2115
-2.569
-2.4029
-0.0444
-1.9111
0.3938
-1.1169
-1.3232
1.6181
-0.2802
-1.8981
-1.3924
-0.1967
0.2554
1.8071
-0.252
2.4749
-1.2762
0.1683
-1.1787
-0.1975
-1.5982
-0.2609
-0.8959
-1.6603
-0.7106
0.5195
0.5965
1.3633
1.3866
-0.7673
0.0217
-0.9571
1.4166
-0.8445
0.6565
1.2089
-0.6206
0.2879
-0.7759
1.3077
-1.4482
-0.6469
-0.9987
2.6161
2.2106
-0.3721
-0.0119
1.8573
0.5254
1.1123
-1.0923
-0.9687
0.0498
0.5295
2.3137
-2.5851
0.7838
-2.1205
0.3757
0.2849
2.7274
-0.284
-0.3527
-2.1891
-0.673
-0.5148
0.1285
-0.1766
0.413
-2.8128
-1.4575
-0.2314
-0.5682
-0.6244
1.4429
-2.3534
-0.3398
-0.5032
-1.0007
0.011
-2.1786
0.8276
1.0421
0.3082
0.469
0.0912
-2.2591
1.815
1.0494
0.5644
-1.0739
1.2546
-0.4374
-1.0296
-1.9559
-1.373
-0.7146
-1.414
-1.6283
0.4858
0.2178
-0.5888
-0.0911
0.2774
-0.9169
-1.8308
-0.6211
-1.9982
-0.8421
1.4136
0.0585
0.2126
0.4423
-0.686
-1.3291
-2.9206
-0.3405
-1.576
-1.5071
1.7094
0.0863
2.0204
-0.4755
0.9954
1.7227
0.2728
1.7657
-1.7858
1.2919
-0.2652
-1.3371
-0.0806
1.5051
2.2725
-1.3998
0.5235
1.6936
2.3153
-0.6834
-0.544
-0.3387
0.1373
1.0891
-0.5556
1.9617
-0.9847
0.6407
0.4888
2.0413
2.2262
1.2483
-0.6876
-0.0998
-0.0606
-0.3649
-0.808
2.0918
1.9855
-0.9221
0.1277
-1.2142
1.8107
-0.4232
-1.1575
-0.1874
-0.5849
1.1316
1.8901
1.8954
1.3524
-2.8111
-0.5599
1.7575
1.0688
-2.4211
1.323
-0.6013
1.8412
-0.9751
0.985
1.3727
0.3928
-1.7498
-1.5737
1.1259
0.0005
1.8082
0.2003
1.9351
-2.6127
-0.1314
-0.2465
0.5236
2.3837
-1.015
0.3628
0.168
1.8825
2.4342
-1.2488
-2.4083
-0.8395
0.3859
1.4724
-0.6519
0.7714
-0.6065
-1.304
2.1606
0.1614
-0.5429
0.2524
2.7522
0.6075
0.5767
-0.4119
-2.1538
-1.1673
-0.5244
-0.0203
0.5498
1.3907
2.7072
-1.8495
1.0326
-1.5488
0.4413
0.6541
-0.7053
-0.1556
-0.7687
-2.3399
-1.3873
2.2936
-0.9227
2.2758
-1.0133
2.522
-0.0206
1.3939
0.4167
-2.7472
-1.3394
1.5679
-0.3741
-0.4067
-1.6022
-0.4789
-0.1088
-0.2871
-0.809
-1.4696
1.2124
0.8885
-2.2366
1.8724
0.3129
-0.1567
0.6687
-0.2832
0.4693
-0.1458
1.3531
-0.4992
2.4977
2.4023
-2.2191
0.3071
1.9935
1.4069
0.3903
0.7868
-2.1138
0.0852
-0.6034
0.9403
0.0061
-1.5629
1.3533
0.7673
-1.4773
3.0161
-0.2934
0.268
-0.0102
-2.5616
-2.2663
-0.5577
1.1305
-1.9121
-1.2889
-1.7099
-1.3321
-1.5892
-0.6378
0.0884
-0.8442
1.6843
-0.3131
-1.7165
-0.6828
-1.9223
-0.3149
-0.5711
-0.8478
0.6984
2.6338
0.248
-1.3391
-0.2841
-1.2975
0.7405
1.1199
-1.5931
0.9983
0.9068
-0.0242
0.0484
-0.309
0.7467
-1.4947
-1.9133
-1.9429
0.2601
-0.0149
-0.9247
-0.6262
2.724
1.1386
-0.2624
0.3641
-1.6921
1.9657
0.0733
1.0279
0.1189
-0.8105
0.0828
-1.9114
-1.6732
-0.6363
-0.2341
1.3765
2.7619
-0.7885
2.3993
1.0611
0.3169
2.0098
1.4296
0.4194
0.8223
1.2049
0.1335
2.7281
-2.2755
0.0735
-1.4891
1.4335
0.854
-1.3842
-0.1612
-0.1875
0.3803
0.1085
-2.4365
1.1419
-0.4199
1.2747
-1.7616
-1.1318
1.7304
-1.1622
-1.4129
-0.4551
0.2775
-0.6487
1.8861
-0.1049
1.7749
-0.4618
-1.6948
-0.081
-0.3308
-0.6011
0.9515
-0.3835
0.5139
-1.0669
-0.0055
-1.0125
-2.2448
1.4178
-1.2888
-1.0313
0.5926
1.4185
-1.6256
-1.7814
1.1561
0.8379
0.7458
-2.1923
2.0588
-2.6802
0.1797
1.0127
0.0239
0.6945
-0.0472
-1.9966
-1.6719
1.1316
0.0651
-1.3898
0.2484
-1.3689
0.5165
-0.444
-0.7689
-0.2534
-1.9696
-2.4357
1.8297
-2.0756
2.4371
-0.8114
1.4908
-0.2817
0.6293
-2.1247
1.4911
-1.4254
-0.8392
0.1779
1.8305
1.0469
1.3084
2.8198
2.5093
0.5815
0.5182
2.5241
0.2504
-2.8214
0.0673
-0.7093
-1.6694
0.6685
-0.0444
-0.3266
0.0269
1.2207
0.1831
0.3953
2.0624
-1.1646
0.7497
1.4563
-2.1165
0.0662
1.6556
-0.4201
-2.6795
-1.6408
-0.3761
-1.9574
0.3736
0.2683
-2.0687
0.1212
-2.7877
-0.7602
-0.1452
-0.7377
0.9437
1.8273
-1.1593
2.0194
1.7376
1.4771
-1.8343
1.8389
-0.406
-1.8106
1.1069
-1.2793
1.0662
-1.4823
-2.1664
2.4954
-0.3991
2.4619
-1.8238
0.0557
-1.5252
0.1918
2.1349
1.2319
-2.3121
-1.7391
-0.1208
-0.5294
0.5169
-0.0541
1.2395
1.3254
0.4084
-1.3065
-0.3379
0.2424
0.6391
-2.2198
1.7008
2.7755
-2.0679
0.4828
0.8019
-0.9058
-1.1588
0.2479
0.2421
-0.9711
0.0895
0.3522
-2.0026
0.7418
0.4003
2.0926
1.1087
-0.7085
-1.5157
0.5304
0.7192
0.894
-0.3788
-1.2559
0.1056
-1.0043
0.5341
0.0106
-0.7318
0.1502
1.2231
-2.2238
1.4835
1.0807
1.6879
-1.4052
0.198
1.7872
1.9288
-0.8107
-1.3115
2.2697
-1.331
-0.4402
0.2318
-0.7486
-1.5381
-0.2938
-1.7257
-0.7141
1.3075
-0.3712
-0.6304
-0.9035
0.6524
-0.6727
0.2409
-1.3171
-0.2266
2.0786
0.8882
-1.9546
-1.3297
1.329
1.3115
0.4607
0.62
0.3556
1.5108
-0.6247
-0.9312
2.4349
1.4861
1.3425
-2.7062
-2.2634
-2.0393
-0.191
-1.4285
-0.6321
0.7647
-1.9484
-0.3748
0.7752
0.068
-0.6531
0.4548
-1.3183
-0.8527
0.4182
1.0606
-0.359
1.2795
1.2654
-1.8345
0.3763
-0.0893
-1.388
-1.6768
0.8876
-1.682
-0.9887
-1.7431
1.1749
-0.2218
2.4634
-2.0334
1.2382
1.0143
-0.8622
-2.5477
1.0775
2.0263
2.142
-0.0092
0.6929
-0.4624
1.6453
-0.9715
0.0841
0.1018
0.9246
-2.1578
-0.7486
0.4419
-0.0202
-0.2913
-1.8053
0.558
-1.1888
-1.9256
0.1909
0.45
0.6953
-0.5071
1.9629
0.1182
2.3554
0.6874
0.2342
2.8391
-2.7621
1.6579
-0.3039
-0.5177
-1.4719
0.3152
-1.5054
-0.1752
1.2338
-0.3503
-1.446
1.4282
-1.3532
0.2451
-0.1259
1.0155
0.5973
-1.1756
-0.8218
-1.4132
0.5318
1.9413
-0.2568
0.6958
-1.5496
-0.2346
-1.7079
0.7887
0.9065
2.1271
-1.8982
-1.1344
1.3466
2.4728
2.4491
1.4802
-0.2292
-2.4742
-1.7731
2.0787
-0.5443
0.3931
1.819
0.6612
0.4014
-2.0324
0.1183
0.5046
2.608
0.0798
-0.3216
1.6087
2.7985
0.1759
0.4993
0.6968
-2.3038
-1.744
-0.6958
1.0457
0.4084
0.8738
-0.63
2.6555
-2.1723
-1.8013
-2.5803
-1.0276
-0.2154
0.0612
0.007
-0.1731
-0.2744
-0.0922
0.5784
1.9422
-2.3495
1.0151
-0.8663
-1.2353
0.113
0.1064
-1.0502
0.1248
-2.7173
0.4586
0.0268
2.7458
2.2669
-1.2053
-0.9123
0.0739
1.9582
1.6684
-0.5906
1.9396
-0.3665
2.5262
0.992
1.7894
-1.4304
1.3679
-2.7183
-0.3769
-1.2335
1.4704
-1.891
1.9944
0.2242
-0.4431
0.1972
2.3498
-0.334
-1.0957
0.2693
0.6891
0.3685
-0.4876
-1.6746
0.2892
-0.945
1.3813
0.9192
1.1502
-0.9976
1.2342
1.4969
-0.0049
0.2105
2.3479
0.0586
0.1008
2.6794
-1.3822
-1.4293
-0.7673
2.4472
0.2269
0.9685
-0.0381
-0.95
0.0761
-1.6703
2.2078
0.4463
-1.8348
0.4845
-0.583
0.0827
1.0479
-2.3976
-1.8571
-2.0409
-1.1061
-0.486
-1.6143
0.6289
-1.7434
-0.3344
0.1453
1.5389
-0.8638
-1.9429
0.1448
0.6889
1.5326
1.2423
-1.6157
-1.9212
-1.1079
-0.6093
1.4175
0.2624
1.0453
-0.9443
-0.5862
0.686
1.4385
0.2377
-1.073
-0.6505
0.0715
-0.3404
-0.043
-0.4701
0.2215
0.5984
-0.7731
-2.0498
-1.3885
-0.2228
0.0137
1.1641
1.795
0.4727
-0.9595
-0.6587
-0.0582
-0.5917
-0.4161
-0.9648
-0.3946
-0.1393
1.6443
0.246
0.7857
-1.447
-1.3321
-0.3032
0.2061
-1.2379
-2.7918
0.6643
1.1432
0.4881
0.5422
-0.1281
0.3203
-2.8228
-1.1607
0.5963
-2.2625
-1.34
-1.3467
-0.4395
-0.0518
1.6596
-0.0159
0.0417
0.399
-0.3777
-0.4452
-1.2371
-0.9102
-0.8981
-2.6345
-0.9992
2.5741
0.0983
-0.0301
0.7556
1.0217
-0.6655
0.8142
0.7504
-2.2907
0.0877
-0.1014
2.2619
-0.8097
2.3576
0.4998
-1.2633
-1.0885
-0.4092
-0.6591
0.005
0.1495
-1.6592
-0.3011
-0.4867
-0.3726
1.8843
1.5737
2.0212
-1.1723
-0.4408
-2.1327
0.51
1.1389
-0.0416
0.4505
-0.4572
0.7173
0.9016
0.3008
-0.8804
0.8396
2.3888
0.6952
-0.7596
-1.7708
1.1432
-1.6432
-0.0948
-0.5604
0.4416
-0.1608
-2.1629
1.194
0.2839
1.8656
2.8667
0.2156
0.6703
1.1591
-1.3901
-0.2189
1.6007
0.9966
-1.8261
-0.1094
-0.2017
-1.8986
1.5587
0.5442
-1.4601
2.3038
-1.0661
-1.535
1.1023
0.4966
-3.147
0.2066
0.9318
-0.7666
1.8698
-0.7846
1.3054
-1.4858
-2.3998
-1.2318
-1.0538
1.6158
0.4282
-1.1351
0.4078
-1.2923
0.5234
-0.4943
-0.8634
-0.3795
-2.1143
-2.5863
1.6861
1.0773
-0.9312
-0.8575
-1.774
-0.1987
0.796
-1.8615
1.8636
-0.9307
-0.2096
0.9553
-0.5084
-1.1187
-0.6712
1.0392
0.9404
-0.7628
-0.5888
1.6672
-0.3436
0.1372
0.0376
-0.4376
-1.0836
-1.6956
-2.0689
1.2784
-1.2797
0.2924
2.9223
0.2616
-0.9317
-0.4524
-1.3729
-0.2113
-0.0397
-0.6533
-1.8473
-0.1402
1.3963
-0.3102
1.4991
0.475
0.0995
0.577
-1.1641
1.6342
-0.6533
-1.2686
-0.0065
0.0606
-0.8622
0.7066
1.695
-0.969
-0.527
-0.051
-2.613
1.8222
0.3522
-1.4844
0.5524
2.6903
0.219
1.5354
1.9289
-0.034
-2.5099
2.8976
-1.6288
-1.1389
-0.343
-0.6746
-0.2907
-0.6247
0.1665
0.6492
-0.61
-1.7681
-0.9818
0.3154
-2.5871
1.9845
-0.5107
1.6008
0.332
0.8027
1.5794
-2.0482
-1.6835
1.2401
-1.2647
-0.8012
1.1972
0.0199
0.787
-1.2118
-0.8566
-2.8579
1.1813
-0.0032
-1.2912
2.4371
-0.0822
2.8246
-0.1066
-0.4791
0.2737
-2.5588
-0.5796
1.5007
2.2486
0.2306
0.5666
-1.4539
-0.7107
1.3624
0.0552
-2.7893
1.2258
0.8367
1.163
0.7714
-1.7719
1.93
0.6132
-0.6025
0.1262
1.3659
1.6826
-0.357
0.3669
-0.856
1.0944
-1.7693
2.2267
-1.4585
2.1254
1.7146
-0.8479
-0.442
-1.778
0.2639
0.9735
-1.0829
-0.7854
0.4326
1.1373
-0.1048
1.8264
-1.0565
2.9203
2.4927
-0.4962
-0.9262
-0.2311
0.1556
-1.1996
0.8232
1.5135
-0.5621
-0.2838
0.915
1.6005
0.3392
2.2512
-0.6508
0.0299
-0.4169
-0.1482
-0.5974
0.0785
0.446
-0.9284
1.0752
1.7463
-0.3485
-0.0894
1.0902
1.7565
0.476
-0.9079
-0.5524
0.1091
2.9199
-0.1074
-0.5758
0.0809
-2.8476
-0.9643
1.02
-2.0979
1.6105
0.4952
-1.9621
0.9971
-0.2529
1.0463
-1.4542
-0.9959
-0.6507
3.0628
0.5193
1.7536
0.4171
-0.0085
0.6814
-0.585
-0.3262
-1.6143
-0.9675
-1.458
0.3959
1.5224
-1.1509
-0.8653
-0.693
-0.4291
0.1314
1.1929
-0.3163
2.362
-0.3977
1.4399
1.5259
0.0651
0.539
-0.1243
-1.7199
-0.7664
-0.3355
-0.2228
-0.2233
-0.1321
0.2554
1.1442
2.739
-1.3091
-0.9647
0.7
0.6131
-1.0204
2.5575
-1.5553
-0.047
0.7337
0.9917
0.9317
0.7585
0.6768
-2.3853
1.6075
-0.2473
2.0855
-1.0198
0.4721
0.2125
1.6828
-1.4656
-2.4744
2.1379
2.7459
-0.4458
-0.6786
2.2522
1.9977
-1.2371
-0.694
0.5551
2.7152
-0.5629
0.7563
0.3238
1.6213
-1.6999
0.3953
-1.7187
1.9932
-1.3713
1.4999
0.9811
0.5539
0.423
0.7933
1.8697
0.58
0.406
1.5524
0.9471
2.0719
-1.4222
-2.7767
-1.7866
1.7525
-1.7847
0.9136
0.2219
-0.378
-0.6817
-0.4841
0.4194
-1.0431
-1.3899
2.8605
2.0825
-0.2424
-0.6325
-2.1597
1.9343
-1.2529
1.5906
0.8393
-0.0251
-0.798
2.0024
-1.2496
-0.5189
1.1227
-2.6738
1.4037
0.453
1.2321
1.5603
-1.6389
1.7207
0.3751
-0.5556
-2.5053
-0.3536
1.1888
-2.5884
-0.0115
0.932
2.0857
-1.2612
-0.7115
-0.9759
-0.2111
0.1493
-1.3283
0.4761
0.8522
1.6429
1.415
-1.2654
1.9986
-0.0569
0.9646
0.3531
-0.0486
-1.6737
0.5975
-1.2221
-2.0125
0.0695
-2.9633
0.5628
2.6603
1.896
0.1128
-0.846
0.8629
0.5288
-0.0047
1.1052
-0.8515
-0.7551
-0.0391
-0.1371
0.7941
1.3209
0.0098
-1.2963
-0.7538
0.2034
0.1418
0.9047
-2.2186
-0.8309
0.357
-0.0881
-0.3233
-1.7821
0.6555
-0.9977
1.6551
0.6268
-2.2397
-1.824
0.44
-0.158
1.5021
-2.5672
-0.6919
2.4172
-1.2267
0.0497
1.5361
-1.4779
-0.5955
-0.5271
-2.7062
-2.0131
0.119
-1.0206
-0.3118
-2.4649
0.9166
-1.4309
-1.111
0.4431
1.7975
1.5187
1.4499
0.1575
-0.5153
1.2748
0.8171
-0.0448
0.532
1.114
0.2677
-0.164
-1.6143
-2.2404
-0.1987
-0.1999
-0.4007
1.0421
-0.5819
-0.1527
-2.3806
-2.1459
-0.8818
-0.0222
2.2762
1.3031
-1.0986
0.1915
0.4626
1.5583
-1.2321
0.4883
-1.2677
1.8967
-1.2825
0.8683
0.3619
2.3184
2.0272
1.3316
-1.202
-0.4536
0.6208
-0.1703
-0.0954
-2.2265
0.1948
-2.457
-0.1469
0.7764
0.5177
-0.7182
0.5504
1.2513
-1.6875
-1.5073
-1.2804
-0.8018
0.1331
1.7291
0.9145
1.1706
-0.5744
2.4377
0.5813
0.6151
-0.5332
0.6182
0.9971
-2.4685
0.2569
-0.4526
-1.1152
1.7505
1.7957
-0.7745
0.798
0.1646
-2.4701
-0.3477
0.1833
2.6042
-2.7104
-2.4487
0.3173
-0.7609
1.0748
-0.5242
-2.0765
-0.1005
-0.9447
-1.1278
-0.4448
1.3089
-2.2155
-0.9825
1.9356
0.1902
0.5395
-0.0885
1.7881
-0.1798
0.7664
1.5545
-0.8875
0.1991
-1.5348
0.6694
-2.8141
-1.9501
0.1897
0.533
-0.7153
-0.0735
-0.6139
1.1455
-1.1444
-0.7251
-0.6685
-0.7701
2.4521
-0.6278
0.0255
-1.9367
0.2437
0.2183
-1.8084
-2.3547
-1.2157
-1.4637
0.3833
-2.0238
-1.9265
0.8801
0.0469
-0.9441
1.3884
0.6957
0.4595
0.8843
-1.1015
-2.0166
-1.6561
0.1849
0.4341
-0.7033
0.254
0.2341
2.7187
1.3587
-0.3639
1.0322
-0.8017
-2.3839
-0.2331
-0.6977
-0.2964
1.1757
0.6467
1.5979
0.9577
-1.0694
-1.0017
-1.9111
-0.3163
0.7111
-1.9012
-1.3947
2.4355
-0.0365
1.2248
-0.1294
-0.6177
2.2234
-1.9187
-0.7245
1.0958
-1.1684
0.88
2.5303
-0.9279
-1.0976
0.5874
-0.583
0.5108
-0.8413
0.4806
-0.234
2.1352
2.8774
0.5593
0.3007
0.6682
0.2281
0.8236
1.0211
-0.6131
1.0412
-2.0034
1.927
1.5681
-1.2369
1.909
-0.2584
0.658
-0.0526
-0.5467
-2.258
-0.0666
-1.9594
0.46
-0.7953
-0.6055
-0.404
1.6523
0.853
-0.9587
1.3371
-0.2466
2.6868
-1.1264
-0.013
-1.9599
-1.8472
-1.1086
2.0994
-0.2108
0.3579
-0.9051
-2.1564
1.7239
-0.5282
-0.5159
0.3271
0.5674
-1.2288
0.0588
-0.2805
-0.4035
1.5332
0.819
-0.7026
2.088
1.2039
1.765
-0.9392
1.4884
1.0602
-0.3803
2.2867
1.0742
1.1021
-2.34
-0.8553
-2.4311
1.3296
-0.8374
-0.535
0.8029
1.7427
-2.4258
-0.0292
-2.3312
-0.9354
-0.5519
0.6623
1.2738
-0.1511
1.5076
1.5395
1.7877
0.8188
0.4758
-0.6746
-0.7895
-1.3025
-0.3702
-2.7032
0.0956
0.0386
-1.0307
2.0076
-2.1106
-1.7114
1.7712
0.3503
-0.8543
0.0008
-1.7949
-1.1214
0.5877
1.8987
-1.8986
0.8692
-1.0616
0.7055
1.4601
-0.2312
0.7514
-0.3022
1.7276
-1.1461
-0.5266
2.1524
1.3424
0.6921
-0.2634
1.9576
1.006
0.3637
0.2354
0.8258
-0.9369
1.7056
-0.8724
1.3645
-1.2093
-1.8356
-0.3096
0.2969
0.1886
-0.4298
1.9235
0.8996
-0.02
-0.6302
2.5503
-0.104
-1.8348
0.8397
1.5706
0.5626
-1.9793
-2.5735
2.2614
-0.377
-0.4533
2.2372
1.3456
-2.9231
2.743
2.1646
2.1004
-0.5219
1.0562
0.4858
1.2487
0.2728
1.0396
0.4773
2.0674
2.738
-0.5832
-1.1375
1.2798
0.3198
-0.5357
2.1948
-1.1144
-0.4279
1.1823
0.644
1.4388
0.4949
-1.983
0.7634
-0.8913
-0.1888
-0.201
-0.7234
1.7259
0.798
-0.0256
-0.5399
-0.5402
0.1782
-1.4565
1.3141
2.141
1.229
-1.2169
-1.7152
-0.0612
0.6733
0.693
0.2026
-0.5928
-1.4887
0.9966
0.5142
0.5459
1.2964
-0.3064
-0.7807
0.0783
-0.8016
0.0612
-0.4051
1.281
-1.2294
2.0991
-1.636
0.8772
0.0134
-0.7461
-1.1964
-1.1328
-0.3503
1.3558
0.9134
-1.4725
-2.3204
-1.4254
-1.8598
-0.1417
0.6568
0.7404
0.3141
-0.4174
-1.2494
-1.9768
-2.3951
0.9774
1.7918
0.2531
-0.1572
0.7656
-0.0503
-2.4002
0.4744
-1.0524
-0.2219
-0.1062
-0.5006
2.0767
0.9273
0.3304
1.0827
1.7507
-2.3762
0.3758
2.0193
1.1208
-0.4764
-0.9293
1.6054
2.4174
0.0729
-0.308
-0.1588
-0.9133
2.5487
-1.0369
0.0034
0.9593
0.3973
0.1604
-1.1849
-1.7953
0.1722
0.0073
-0.4467
0.6532
1.8735
1.7807
-1.059
-1.5255
-1.0523
-1.0732
0.2552
1.4991
1.225
1.2762
0.2189
-0.1036
-1.1248
-1.0017
2.109
-3.0565
-1.5482
-1.3531
-0.6279
2.4704
-0.0453
0.2219
-1.4386
0.0933
0.1073
-2.8304
-0.3229
-0.3573
-1.0906
-0.6795
-0.5575
-2.1584
-0.362
0.1211
1.1342
-2.033
-0.9839
2.848
-1.8012
0.0187
-2.9562
0.9478
0.4666
0.7201
0.2749
-2.3028
-1.8929
0.0711
2.1554
-0.3503
0.9509
1.3484
-0.5913
0.2519
-0.8326
1.2753
1.8653
-0.4964
-0.6896
-0.1481
-0.3054
0.6818
-1.8971
0.3548
-0.5496
-2.7673
-1.1782
-0.4926
1.1325
-1.0131
1.4673
0.5864
1.4643
-0.6093
-0.5146
0.3149
0.4457
-1.556
2.7067
1.9699
1.3534
-0.5763
1.3009
-1.0024
0.9107
2.3299
-1.4554
-2.0482
2.3945
0.6088
0.9916
2.1091
2.5278
0.8142
2.0881
-1.6376
-1.9659
2.946
1.8343
-0.1809
-1.2566
0.4505
0.2301
-0.88
-1.5461
0.9193
0.1675
-0.3198
-0.338
0.3178
1.8526
1.194
1.8238
0.6701
1.2143
0.3845
1.6624
-1.301
-1.7472
0.5288
-0.8222
0.9584
-0.4781
-1.6503
-2.3533
0.8946
1.7444
-2.8758
0.3462
1.7844
-1.633
0.1293
-2.5545
0.3509
-0.78
0.811
-1.2248
-0.1288
1.0266
2.4464
1.0587
0.3449
0.5099
-1.5182
1.0188
1.7722
0.947
-1.2524
-1.3442
0.8765
-0.9393
-0.0331
0.5232
-2.3426
1.4049
-1.1368
0.0674
1.9456
1.4259
1.9897
0.5651
0.6338
-0.8764
-0.4837
-1.2602
0.2756
1.0518
-2.0035
1.1447
-2.4059
0.6568
0.707
-2.0503
-0.8568
-2.0614
1.0944
2.2619
1.6457
2.7275
2.4354
0.974
1.8251
1.9166
1.4532
0.6398
-0.3187
-1.2177
-1.8523
1.2592
1.7678
-0.1215
-0.9272
2.8322
1.5312
-1.3485
0.9513
2.0819
-1.0286
1.6548
0.5067
-0.9914
0.642
-0.9418
1.0157
0.1655
-0.0107
0.692
-0.7986
-1.0007
0.2904
0.0026
-1.6592
2.0635
1.5449
0.2667
-1.5662
-0.4724
-2.8005
1.4846
2.7572
1.2222
0.3613
0.3791
1.4805
0.5936
1.1998
-3.0495
-2.1192
-2.3582
-0.2848
-2.2477
-1.4887
-1.0797
-0.8158
2.114
-0.8526
-1.03
0.1482
1.2484
0.837
0.7572
-0.4246
2.4116
1.2786
-1.9804
1.0314
2.3268
0.4722
-2.6892
1.2394
0.994
1.6946
-1.3692
0.1994
-1.5868
1.669
1.9796
1.1882
1.138
0.3954
0.8036
0.929
-0.662
-2.1262
-1.6204
-0.5782
-0.4332
-2.619
1.2612
-0.0566
-1.4524
-1.083
-0.382
-0.783
-0.4428
2.4818
0.0036
-2.7574
2.5956
1.5218
-0.8588
0.5738
-2.1676
2.5906
0.3076
-0.6198
1.6516
2.4114
0.226
0.2154
0.946
0.9842
-1.1036
-0.1974
-1.0076
-1.691
-0.4044
1.4186
-0.9324
-2.3374
-0.9532
-1.4902
1.1716
-0.955
0.5268
-2.3702
-1.2492
-0.8206
0.7589
-1.2213
1.6357
1.3427
-0.2571
1.9563
-0.0042
2.258
0.7558
0.6092
0.3846
-1.3516
0.5206
1.2908
-0.4746
0.3444
2.3142
-2.5524
-2.5818
0.7924
-0.417
-1.09
0.6166
-0.0076
-1.1194
-0.8756
-0.7098
1.2212
0.207
-1.9092
-0.0074
1.202
0.2854
-0.914
-0.553
-0.0652
-0.8842
-1.1668
-2.3466
0.6964
-0.025
0.6092
1.1654
0.21
-0.4138
1.1372
0.1526
1.7524
1.2262
0.4172
1.1686
-1.23
-1.6586
-1.5508
0.9366
1.0932
0.7622
-0.1027
0.4571
0.7245
0.9043
-2.0755
1.8203
-0.3107
1.5667
1.1037
-1.4949
0.5293
0.8275
2.8813
0.3419
-0.0323
1.9635
-0.0194
0.7772
1.2814
-1.5788
2.2318
-0.1892
1.1934
0.0308
-0.1954
-2.5572
-0.2962
0.2388
-0.7474
0.2268
0.0894
2.322
0.5758
1.6092
2.3502
-0.2731
0.4975
-1.6867
-0.0673
-0.9931
2.2943
0.1693
-0.6097
0.1621
-0.5873
0.6237
-2.5537
-0.0843
1.6831
-0.3235
0.6543
-1.7323
-0.7248
0.6046
-0.8159
-1.5049
-1.2575
0.1311
-0.4111
0.5975
0.0849
1.5327
1.8689
-1.9785
0.0257
-1.7441
-0.5295
0.5975
1.8417
0.1311
-1.0527
1.7719
-1.0207
0.6048
0.2994
-1.732
-2.0078
-0.3232
0.2498
-0.084
2.157
0.624
-1.2014
0.1624
-1.6334
0.1696
-0.7774
2.284
-0.2718
1.5904
1.5218
3.004
2.9651
-1.6671
-0.8573
2.3225
1.5235
0.2273
1.9155
0.2393
-1.3197
0.7201
0.0099
0.0313
-2.2877
3.0881
-0.0205
-1.5783
1.8963
0.7778
1.8244
-1.3125
1.4021
0.3427
-1.0091
0.8283
-0.4939
-1.4941
1.3093
-1.7093
-0.5147
-1.4557
-1.0507
0.9051
-1.9371
0.4579
1.7413
-1.1589
-1.4843
0.9699
-0.145
-1.2793
0.055
-0.4232
-0.8705
-2.7206
-0.8535
0.0203
-1.5326
2.8844
2.0074
0.9565
1.5748
-0.8481
-1.1923
-0.8912
1.8982
-0.8111
2.6544
-2.2461
-0.5623
-0.2812
-2.8366
0.1685
0.7468
0.7415
1.9957
-0.2008
-0.7282
-1.0199
0.7672
-0.0774
1.5665
-2.2885
0.0314
0.5388
1.0771
0.2126
-0.2115
1.6479
1.0806
-0.0704
0.0383
-0.027
-1.6999
0.1395
0.781
2.0676
2.5659
0.8422
-1.2604
1.3783
0.7709
-1.2392
0.4678
1.1817
-0.5312
-2.8277
-0.5879
1.478
-1.3406
-0.6467
-1.1508
2.2671
1.6197
-1.2496
2.0558
0.2721
-1.4808
1.917
2.4785
2.0467
-0.8118
-0.9772
0.1171
1.0374
0.3501
-0.1017
-1.7514
0.5208
-1.2721
1.2666
0.1497
0.4971
-2.4014
-0.1492
-0.7333
0.9662
0.2389
-1.0721
-1.1235
-1.3488
0.095
-1.5023
2.256
0.1059
0.4441
1.8372
2.8514
2.0533
1.286
-0.8841
0.6629
1.2168
-0.6562
0.1641
-1.0328
0.8731
1.1713
-1.5717
-2.2358
1.022
-3.0621
0.4622
0.3309
-1.6129
-0.249
2.9888
0.1135
-0.4782
-0.2199
-0.5453
0.389
1.1492
0.3019
-0.3098
-2.1195
-0.0073
-1.9603
0.4184
-0.8586
-0.6711
1.3039
2.9139
-1.1382
-0.8169
0.8054
0.6569
-1.0575
-0.8563
-1.8115
-0.4416
0.1817
0.2628
0.0067
-0.3817
-0.6977
2.5403
-0.2934
0.8366
-0.4186
-0.5775
0.5649
-0.0635
-2.2579
0.74
-0.6952
-3.082
0.3379
-0.0609
-0.797
1.6115
0.8154
0.2965
0.2598
-2.3671
-0.8255
-1.4644
-0.8019
-1.9104
-1.3081
1.2099
-0.7053
2.9815
-0.6322
-1.5109
0.5498
-0.7987
-2.0747
0.2033
2.9633
-0.1436
0.918
3.076
-0.0185
1.6699
-1.4846
-2.7233
-1.8418
-1.9119
0.5482
-0.8107
0.7701
2.2184
0.4625
-1.0164
1.2635
0.9535
1.5351
-0.0637
-0.3614
0.8471
0.4894
-1.2295
-0.8279
-1.3779
0.6021
-1.2368
-0.136
0.8324
1.8731
-0.0857
-1.5625
0.9243
-2.251
-1.053
1.4462
-1.1023
1.3369
-0.862
-0.9403
-1.9704
-0.4705
0.4876
-2.1685
-1.6801
2.1574
-0.2813
1.0386
-0.2315
2.6669
0.1081
2.1273
2.3756
-2.2187
-1.6208
-2.1793
-0.4125
-2.6693
1.0855
-2.0506
1.2346
-1.9614
-1.6035
-0.7635
0.7633
-0.0951
0.1428
-1.5948
1.4504
-0.3473
-0.2293
-1.2678
0.0191
0.559
0.5569
0.2178
-0.2539
2.6237
2.5016
-0.4151
0.6316
-0.7069
-0.824
-1.2767
0.5607
-0.0224
2.0941
2.1998
-1.1389
0.4749
-0.9462
-0.282
-2.2432
-1.7094
-0.1145
1.108
-2.7522
-0.0218
1.3124
-0.1835
0.6107
-1.0156
0.0578
2.397
-1.9849
1.8625
-0.6018
-0.9808
-0.7084
-1.2178
-0.6661
2.7901
-2.1134
-0.4262
-0.1352
-2.6743
0.3535
0.9608
-2.2858
-0.9898
0.1387
-0.3339
-0.5646
1.29
0.5192
2.2434
1.7519
-2.3887
1.495
-1.1377
-1.89
1.0813
3.0659
2.63
-1.6598
-1.407
1.9552
0.4393
2.4422
-0.0232
-1.8372
-1.1562
0.5859
1.9557
-1.7574
-2.1564
-0.6752
1.2529
-1.0825
0.7152
-1.341
1.1454
0.1876
0.9053
1.8651
1.6332
2.0529
1.6906
2.3895
-0.5607
1.2366
-0.2056
0.2324
1.1174
1.0155
1.77
-1.3294
0.1138
-1.8872
1.0641
-2.2961
-0.2944
2.359
0.9534
-2.6677
-0.1075
0.6466
1.438
-2.444
0.6746
-0.4705
2.5177
1.6518
-1.2249
-0.9924
0.9157
-0.2109
0.7476
2.3578
-0.091
1.7984
0.0385
-0.2506
-0.5024
1.126
-0.0754
1.0131
-0.3187
1.049
0.406
-0.4048
0.4601
1.5671
-1.7944
-1.2274
-1.4426
-0.5964
-0.1227
-1.4549
0.5268
1.112
-1.1326
2.1895
-0.3023
-1.2324
-0.394
-0.8593
0.8534
-1.6046
-1.4751
1.4468
0.8124
0.1031
-0.4762
2.5561
-0.4256
0.6139
-0.6741
-0.8082
0.4165
-0.0719
1.208
-2.0925
0.0619
-1.9546
-1.3835
-1.2967
1.7872
-1.7573
-1.8949
1.579
-0.9611
0.5201
-0.3264
-0.0189
1.6475
-1.6762
0.0453
0.4633
-0.2176
1.4843
-0.7798
-0.2514
-0.0027
0.1712
0.4752
1.1139
-0.9846
0.9382
0.5333
-1.9944
0.1136
0.5083
-0.6054
0.2542
0.0149
-1.1184
0.336
1.3059
-1.2806
2.6118
0.0805
1.1608
-0.496
-1.4085
-1.3718
-0.181
-0.9083
-0.072
2.5328
0.5571
0.7594
0.0678
-1.3131
0.0984
1.2304
-0.9893
0.1978
-1.557
-2.7723
0.0336
0.512
-1.1325
1.8586
-0.1402
-0.3707
1.372
2.016
1.7659
0.8266
-0.597
0.9765
-0.8016
-2.4496
-0.4861
-1.2598
1.9878
2.9077
-1.572
-1.416
0.3035
0.5146
-0.5778
0.5077
-2.5776
0.2016
2.4963
-2.0422
-0.1018
1.9685
1.0968
0.7648
1.1771
-0.7382
-1.4994
-0.9019
-2.0176
1.9119
1.261
2.7881
0.1445
0.0884
2.8247
2.0047
-2.167
0.3449
-0.0851
0.0244
0.8783
-0.5953
-0.915
0.1241
-0.5499
0.5444
2.301
-0.7112
-0.0958
-0.5632
-0.2702
-0.6504
0.1394
0.6656
-0.5054
-1.5304
-0.5662
0.9535
-1.6815
-0.0745
-2.2127
0.3007
-0.5215
0.4407
-1.5231
-1.2929
-0.3023
0.0151
-1.7744
2.7262
2.2528
-1.3514
0.3104
-0.749
0.5904
-0.3818
-1.8225
1.3885
1.2639
2.9237
-1.6194
-0.6916
0.9966
-1.2652
0.9198
2.8412
-0.2114
0.1588
-0.7586
-1.1204
0.9166
0.6419
-0.1011
0.5307
1.1037
0.1843
-0.3843
1.2411
0.3501
2.0627
-1.6083
1.0107
-1.3444
-0.2766
-0.4964
-0.1606
-0.7028
-0.2798
-0.3252
1.0042
2.2747
-1.2239
2.1819
1.2281
1.0346
0.168
0.4714
0.5112
2.1306
0.6192
1.097
-1.1464
2.2858
0.1296
-2.495
-0.4681
1.5001
1.9759
-0.4743
2.5463
-0.2263
2.8815
0.6057
-1.9337
-2.8935
-0.4305
-2.5319
-0.801
0.052
-1.4066
-0.0568
2.6678
-1.22
-0.0466
1.4775
-1.3579
-0.1561
0.3725
2.071
0.2292
-0.033
-0.1492
-1.553
0.8756
-0.8506
-1.6116
0.4358
0.5812
-2.609
2.5387
-1.7931
-0.6541
-2.0315
-0.8053
1.5909
-2.8301
-2.3947
-1.8133
0.7573
0.6067
2.8549
-0.4854
-1.0172
-0.1742
0.61
-0.0982
2.8212
0.2005
1.6554
0.5331
0.3152
1.2065
0.1349
0.5823
-0.5236
0.2988
-0.0223
1.9946
0.0008
0.7544
1.1837
-1.7834
1.8884
-0.7036
0.4761
2.3554
-1.4145
2.4784
-2.1451
1.3038
-0.0774
0.4699
-0.1263
1.6154
-0.6538
-0.1753
-0.0212
0.0134
0.133
0.5427
-1.8296
-0.2255
-0.9938
-0.6529
-2.2748
0.8989
-0.7574
-0.4853
1.92
0.1096
0.8421
-2.2313
0.9244
-2.5932
0.5281
0.6626
1.292
-0.656
1.5773
1.643
-0.2541
-0.6324
0.7129
0.7098
-0.4369
-2.5224
1.2117
-2.137
0.7434
0.2275
-0.2031
-0.3438
0.0102
1.0639
-0.2548
-0.4642
-2.6366
-0.0133
-2.22
-2.4983
-0.6434
0.2727
0.4548
0.1077
-0.5639
1.9219
-2.0608
0.8
-2.3979
-1.6193
0.0636
-0.4212
0.4081
-0.5206
0.2744
-0.2792
-1.9763
-1.3354
-1.4285
-2.0508
0.2793
-0.787
-1.7681
-2.4593
0.6213
1.1246
2.5322
-1.5045
-0.9504
1.1226
1.6422
0.8135
-1.1588
-0.793
-1.1614
-2.0589
-0.004
-1.3455
-2.6018
-0.2913
-0.7628
-0.5347
0.5977
-0.4373
-0.1584
-1.6376
-1.3931
0.7798
1.8092
-1.3772
1.2561
0.0834
-1.4136
0.2464
-1.2851
0.7502
0.0035
-0.0436
-0.8327
0.6469
-0.5882
0.5818
2.7235
-2.1504
0.9104
0.642
-1.1123
-2.5095
-1.7062
-0.1362
0.7671
-0.43
-1.8844
1.5241
-1.4687
-2.4659
0.3758
-0.931
2.0107
-2.0632
-1.4792
2.3293
1.3749
0.7777
2.381
-1.8026
-0.0993
-0.4964
-1.1508
-0.2191
0.865
0.6677
1.0326
0.5258
0.9907
-2.2832
2.3776
0.4325
0.2782
0.4809
-0.3926
-0.4994
-1.2729
-0.87
-0.7244
1.0073
-0.3854
0.2173
1.3822
-1.6014
-0.3365
0.4664
-0.6264
-1.7715
-1.1258
3.1538
-0.1966
0.4966
0.5231
-1.5508
2.6716
-1.3503
-1.943
-0.5402
-1.8522
-0.7589
-1.9709
-0.368
2.616
-1.0059
0.4398
-1.0342
-0.3078
-2.0913
-1.2649
0.738
2.4836
-0.7383
-0.531
-1.605
-2.1169
-0.2237
-0.6357
-1.5096
-1.0024
-0.5475
1.6982
1.0242
-0.7261
1.5671
-0.0833
-0.5572
1.9884
-0.4335
-2.703
0.2998
0.5879
0.0044
0.3923
0.3184
1.6256
-0.3963
-0.6274
-0.5014
-1.4517
1.6416
0.7911
1.1172
1.186
-0.4359
1.3714
1.8974
-0.2913
-0.0748
1.1131
-1.4376
0.6696
-0.5523
0.0166
0.9426
0.7923
-1.868
1.3584
2.4844
0.0765
2.5313
-1.415
-0.089
1.7991
0.6494
1.187
1.0483
0.438
2.8376
1.8985
1.1021
0.6534
0.7571
1.6179
-3.1128
-0.1231
0.9612
0.3453
-1.7662
-1.8918
0.1735
1.3575
-1.4116
1.9013
-1.6063
1.3778
1.2279
-1.8513
-1.1012
0.4061
-0.4016
-0.0423
-1.5882
1.719
0.2539
0.7747
0.2096
-1.2367
-0.0827
0.5998
1.0155
1.3691
1.8656
-0.5671
0.8292
-0.2939
-0.455
-2.7262
-0.3489
-2.9489
-0.4908
0.6765
0.7577
-0.0422
-1.5185
-0.1897
0.8724
-1.4043
-0.2616
1.2289
-0.005
2.795
0.0035
1.6555
-1.8744
-0.5511
-0.7235
1.0902
-1.4589
-1.6125
0.8344
-0.4671
-2.0356
2.8877
1.4002
0.2602
-0.3273
-0.1577
0.974
-0.0043
0.3889
2.3586
-0.4441
-1.2609
0.1132
-2.6708
0.4224
-0.2327
2.1222
-2.1386
0.2971
-0.1965
-0.1376
0.6785
2.4565
-1.1522
-0.1125
-0.7733
-2.9296
0.1768
2.1972
0.0597
0.5226
0.5138
0.2383
-0.0993
-0.294
-0.1411
0.5641
-1.2502
1.1743
1.4887
-0.102
-0.1164
-1.6264
-1.1503
1.5166
0.0254
1.1347
1.7723
-1.1336
2.4521
-0.3731
0.4262
-1.4989
-2.6669
0.404
1.3648
0.4204
-2.2243
0.189
1.3114
1.3479
0.5031
-1.018
2.32
0.2805
-0.4737
-1.3764
-0.5844
0.469
0.3499
0.9016
-2.5863
-1.717
-1.2009
0.8053
-0.409
0.2762
1.4276
-1.6655
-0.6062
-0.1048
-1.5952
0.043
0.0991
0.4164
-0.4387
-0.623
-1.5701
-1.4367
1.6202
-0.3866
0.94
0.8893
1.3046
0.7524
1.0756
0.8409
-1.3853
-0.4832
2.1136
-1.5818
0.1039
2.4605
0.7774
0.1746
2.4956
-0.2471
-2.9334
-0.4433
2.5128
1.2245
-2.4649
-0.1588
0.1556
0.3218
-1.0941
1.028
-1.299
-2.9554
-2.0977
-0.1595
-1.8514
-2.0533
1.078
-0.4447
-1.5013
-0.2488
1.8792
0.1726
-0.2489
-0.8188
0.3061
1.6922
1.9059
-0.4863
-0.3646
0.8374
1.6864
0.7485
-0.133
0.8852
-0.9076
-0.391
1.0011
-1.4416
0.6777
-0.6282
3.0375
0.4109
-0.1114
0.037
-0.5772
-0.1111
0.0018
1.6047
-0.0128
0.2693
1.0175
-2.4788
-1.8228
-1.7246
-0.3413
0.8937
0.5466
0.4606
-0.7976
-1.3851
0.5414
0.2715
-0.3516
-2.7615
-1.8381
0.9848
-2.28
0.0414
-0.0385
-0.6764
-0.029
0.4698
-0.6133
1.8417
-0.1526
-1.4762
-0.2856
1.9853
-2.6505
0.7572
-2.3324
3.0314
2.3075
0.616
-0.1999
-1.5738
-1.6625
-0.9782
0.6809
-1.6581
2.0401
-1.1269
2.1529
-1.0229
-0.6191
0.2924
1.9162
1.1804
1.5666
0.0028
-0.0294
1.6748
-1.2333
1.2813
-0.4069
0.4605
0.8116
0.851
0.7837
0.8143
1.1477
-1.2881
0.2653
-0.5409
-0.2251
-1.8592
-1.9618
-0.328
-0.0298
2.4144
0.6558
-1.824
-1.5433
1.7025
-1.7121
-1.7519
1.788
-0.7182
-2.512
-0.1117
0.1337
-1.5709
1.5329
-0.1805
0.0473
2.4211
0.5922
1.3188
1.529
1.4276
1.2194
1.1092
-1.975
-1.2747
0.1379
2.4677
-0.634
-2.409
-2.6524
-1.1593
-1.0019
1.3015
-0.5979
0.0583
0.1981
0.0263
-0.2522
-0.4328
-0.3106
-2.9576
-1.6154
0.644
-2.5282
2.1801
-1.4105
0.0121
0.0991
-0.9446
0.3624
0.9482
1.0177
0.7755
0.4265
0.1755
0.2273
0.7867
-1.2183
0.9708
1.005
-0.9108
1.9818
0.0572
0.0738
-1.0404
0.1963
0.7117
-2.5661
-2.8786
-0.0212
-0.3426
-0.3611
0.1279
1.3293
0.1711
0.1349
-1.8513
-2.3059
-1.024
-1.0778
1.0144
-1.0962
-0.6512
-0.7226
-1.1056
-1.5953
1.2897
1.2007
-1.6575
2.7504
1.5218
1.4152
2.6355
-1.1663
0.0451
-0.0791
-1.3341
-0.2383
0.1363
1.1979
2.9276
-1.0145
1.0455
1.1203
1.053
-0.5898
-1.965
-1.2294
0.1833
0.8398
2.5829
0.7025
0.3185
-0.0028
1.582
0.3624
1.4584
0.1595
-1.6909
1.0271
0.3262
1.3266
-0.6822
-0.5802
0.1989
0.2218
-1.9455
-1.1827
1.0765
0.1216
1.0728
2.4964
-0.318
1.0263
1.8192
0.6267
-0.7077
-0.3409
-2.9834
-0.2382
-0.0927
-0.7034
-0.2275
-0.0983
-1.7495
-0.0612
0.2564
1.0464
0.8752
1.5859
1.7452
-0.0809
1.2279
-2.3157
0.9618
-0.2034
2.5854
-1.9358
-2.0935
-2.5978
1.6709
-0.5511
-0.8671
-0.7108
-1.5156
1.8383
-1.9128
2.1811
-0.4205
-1.3209
-1.9538
-0.4758
1.6794
-0.1986
-0.9899
-2.1278
-1.7695
-1.3483
-2.2979
0.5016
-0.9368
-1.4932
0.6756
0.8591
0.9008
-0.6333
-1.8998
-1.0554
-2.8106
-2.0454
-0.1935
1.3118
1.0365
-2.4527
-0.7591
-1.87
-0.6652
1.4216
-0.32
-0.7701
-1.362
-0.2529
1.1239
-1.9421
-1.0542
-0.9226
0.2958
-2.1094
0.2585
-0.5875
0.4725
2.0048
-0.7008
0.7524
-1.6228
0.5703
2.6216
-0.1797
0.5635
0.1407
0.395
-0.107
-2.799
-2.561
-0.8267
0.9706
1.3969
-0.9811
2.2333
-0.224
1.8085
0.1411
0.6773
-2.9318
-0.6508
-2.1054
-0.5373
0.9817
-0.6205
-1.8623
-2.5389
0.8313
-1.3773
0.8705
1.2258
3.1704
0.3554
-0.4608
0.9266
-1.8312
1.301
0.6975
-0.1599
-1.0665
1.4593
1.0686
-2.0336
-1.089
-2.4464
0.6525
-1.4177
1.3781
-0.5857
-0.5507
-1.5889
-0.2187
0.4878
0.7356
0.7294
0.674
0.7742
1.2348
-1.0162
-2.4973
0.2733
0.9467
-0.2723
0.0978
-1.0148
-0.1286
-0.3156
1.9057
0.1867
-1.9911
-1.1461
-0.3503
0.6011
-1.3639
0.513
-0.1168
0.2282
-1.524
-1.8918
-0.6704
-0.9318
0.8056
-1.8071
-2.0113
0.3977
2.3478
-2.5096
-0.8626
0.94
3.1029
-0.7225
-0.5011
0.6951
-0.2059
0.2775
-0.9267
-0.3369
-1.0252
0.4902
1.1372
1.1206
0.6452
-0.0842
-0.8628
1.7909
1.5283
1.8309
-0.3733
-1.6028
-1.6526
2.9588
-0.6711
0.7699
0.9329
0.0227
1.5209
-0.9213
2.7313
-0.4237
-0.3512
-0.123
0.4656
1.6194
0.2664
-0.1118
0.6896
-0.4015
0.0967
2.3889
0.1263
0.0672
-0.8602
0.8256
-1.2242
-0.2513
-2.6043
-1.5249
-0.0851
-1.3569
1.4181
-1.3857
0.2668
0.027
1.3764
1.243
-0.1684
0.6238
1.4436
1.728
-0.2735
0.5588
-0.4851
1.7146
-0.8294
0.2799
0.3318
1.1699
1.3604
-0.5304
0.6176
0.094
-0.2579
1.405
0.3722
-1.513
0.8694
2.8091
-0.4044
-0.3744
-1.8112
0.4052
-1.7123
0.233
-1.7463
0.747
-0.2746
0.3091
1.0644
0.5575
0.632
-0.146
0.0669
-0.1631
-2.2695
-1.1322
-1.4618
-1.4149
0.8515
0.6271
-0.2448
0.0788
0.1645
-1.4216
0.4409
1.0414
-1.0538
-0.7245
0.5954
-1.8041
0.4736
-0.5588
-3.0579
-1.904
-1.8071
-0.9242
-0.689
0.7418
1.9346
-1.8209
1.1488
-0.4204
-1.4084
0.028
-0.8215
-2.1138
-2.0058
1.3458
-0.0462
-1.0617
0.1424
2.1323
0.198
2.736
1.7593
2.3878
-0.0891
2.7258
-0.4318
2.1119
-0.9073
-1.0925
0.1228
1.3048
-2.2567
1.1116
0.1461
-0.0334
-0.8606
-0.4921
2.915
1.3739
0.0044
0.6496
1.8761
-1.0268
0.3381
1.2602
0.3058
-0.6817
0.1406
1.3395
1.4812
-0.868
2.6888
0.8876
-1.1515
-1.5854
-1.8478
-0.0954
2.2382
0.4427
2.9148
-1.6096
1.82
-1.3372
0.5925
-0.3782
0.8705
-0.3714
-2.261
0.3219
-0.61
0.0631
-2.3688
0.4908
-2.6219
-0.0335
0.2689
0.9751
0.2534
2.7146
2.0098
-1.6563
1.7516
-0.6688
1.1175
0.7619
1.7458
0.9973
1.9981
-1.6008
0.2359
-2.1172
1.3747
-2.1906
-2.7778
-0.1823
-0.7528
-1.0076
-0.7421
0.2487
2.1694
1.9481
-0.2103
-0.8243
0.3108
0.1232
2.0943
-0.1246
0.225
0.0709
-0.3819
-0.9288
1.9119
1.7915
-1.0854
0.0398
-1.1818
-1.2687
-0.016
-0.4956
-2.5029
0.7207
-0.4506
0.7417
-2.0511
1.206
0.8875
0.4752
0.1735
0.1874
-2.555
1.9813
0.8941
0.9416
-0.9481
-1.2933
0.1106
0.1917
-0.8451
0.4817
1.1
1.2148
1.0307
0.7526
0.5854
0.7337
-1.8743
-0.4804
1.8435
-1.2513
0.2702
0.0594
-1.679
-1.4635
0.9108
-0.9048
-0.1521
0.0971
0.0474
-0.0963
-0.1291
0.1536
0.9567
-0.7916
1.6667
-1.2938
0.3622
0.2857
1.9585
-0.9684
-1.7365
-0.1409
-2.5306
-2.1471
-2.0623
-2.0715
-1.97
1.724
2.6615
-2.2294
0.3634
-2.4627
2.6045
2.6624
1.1927
-1.5997
1.0434
-0.5034
-2.7586
-2.2407
1.2552
-1.8964
-1.6605
2.1679
-0.037
-1.5167
1.2105
-1.4812
0.4436
-2.6408
2.5775
-0.0806
-0.5798
1.2845
-0.8363
-0.184
0.1695
0.4291
1.0581
1.0736
-2.2145
-0.4094
1.7785
-0.3612
-1.7085
-0.4202
-1.2067
1.052
1.6455
2.417
-1.3439
-1.2404
1.2939
1.5486
1.367
-0.6848
0.5135
0.2514
0.3722
-0.558
-0.6957
1.8022
-1.0514
2.4168
0.9431
-0.3526
0.373
1.686
-1.1237
0.3406
-1.9082
0.5264
-0.3425
0.605
-1.3414
2.2148
0.0099
0.4406
2.0734
0.1976
-0.0665
-0.1526
-1.4942
-2.2484
-0.5717
-1.1746
1.063
-1.8464
1.7711
0.6514
-0.0854
1.4036
-2.8685
-1.2282
1.6142
-2.3288
-1.3833
-0.2598
-0.3918
0.0637
-0.3269
0.2798
0.4502
-1.2495
0.3007
0.3907
0.8634
0.2853
0.4995
0.0727
0.8478
1.3913
0.2695
2.6027
0.4034
-1.2083
-0.3893
-1.8497
-0.4698
2.3169
1.7999
-0.1773
-1.7718
-1.1403
0.2835
-2.2105
-0.2258
-1.7495
1.6151
1.8811
0.8914
0.4893
-0.7589
-1.0097
1.5798
2.2993
-0.2849
-1.0525
-1.4374
0.4037
-0.2396
-1.5241
1.6702
1.3561
-0.6232
0.8523
-2.2046
1.8797
-1.4356
-0.4769
0.0454
-1.3023
0.6
1.0419
-1.4102
-1.6363
-1.07
2.1319
-0.0178
-2.3991
0.108
-0.4837
-2.331
-0.3139
0.8572
-0.2513
-1.7962
-1.9343
-2.0992
1.8422
1.5929
1.9216
-0.2437
-1.4214
-1.4067
0.0053
-0.2577
1.2862
1.565
-2.4935
-0.854
0.1346
-2.5994
0.9789
1.244
1.6775
2.4842
0.5921
-0.5172
-0.6389
-2.8449
-0.3771
0.416
-0.2608
1.0739
1.3482
-2.51
-0.4652
-2.1433
-0.7858
-2.7415
-1.252
0.6107
-0.2254
-0.2787
-2.6211
2.7823
-0.2474
-1.675
-1.2959
1.0948
-0.8518
-0.377
-0.5531
2.1016
-2.0385
0.3387
-0.3927
-0.7508
2.746
0.4719
-0.8146
-0.9088
0.3944
0.0227
1.4578
-1.6491
-2.5396
-1.0089
3.1478
0.3049
0.4977
0.6539
0.9786
-1.6002
-0.3243
1.7344
-1.773
-0.811
-1.7287
-1.0444
-1.8301
2.6726
-0.4387
-1.1288
0.8071
2.2971
0.2689
1.4812
-0.4148
1.3391
0.3942
0.232
1.0576
-0.2013
-0.063
-1.5995
1.9476
0.9527
2.1742
-0.7367
-1.0215
-1.7525
0.5522
-0.4562
-1.2963
1.5136
-1.6522
-0.7582
1.1233
-2.3564
2.1147
-1.6426
2.9605
-0.2552
-1.2545
0.1675
0.9385
1.2636
1.3476
-1.8817
-1.6658
-1.0768
0.0904
-1.2365
1.701
-0.7227
-1.7492
2.1031
1.2086
2.3258
-0.8943
1.5836
0.1338
1.515
-0.6219
0.4816
-1.5233
0.1218
-0.9319
2.1154
-0.3507
-0.0722
-1.7599
-0.2936
-0.3836
-0.1868
2.14
-1.3905
0.8954
1.0106
0.7982
-1.1754
-3.0671
0.2432
0.7685
0.3516
0.836
0.7879
2.0506
-0.0861
2.7742
-0.6322
-1.9087
-2.4886
-0.5291
-0.7404
1.9976
-0.3025
0.7564
0.4635
-2.6146
-0.081
0.077
2.9794
0.6389
1.4524
0.7096
0.2536
1.9276
1.0211
-0.6226
-1.1601
1.2514
-1.375
2.6341
-1.2618
1.8873
0.8176
-2.6276
-0.0517
0.5584
1.0455
-0.0238
-0.8062
0.5414
2.5854
0.6153
-0.2488
-1.4404
-1.1164
-0.7104
1.6207
-2.1102
-0.2293
2.5526
-1.7514
1.8089
1.9696
-2.7027
2.742
0.4864
-1.0729
-0.0924
1.9939
-2.801
-2.8034
0.5529
-0.719
1.7773
0.0548
-0.7664
1.1568
1.114
-2.3285
-0.7738
-2.209
-1.5142
-0.123
0.5309
-0.986
0.4465
0.1176
-0.1292
-1.7277
0.4424
-1.6065
0.5226
-1.1574
1.7501
-2.0186
-0.7903
-2.552
1.0932
2.158
-0.7912
0.6423
1.7482
-2.1838
0.5198
1.8718
0.4385
-1.9368
-0.1339
-2.1404
0.4408
-0.3777
0.5242
1.7131
-1.5218
-0.7834
-0.7823
0.325
1.1045
0.1228
-0.7768
0.2487
-1.5108
-0.9357
0.5406
1.4846
0.7125
2.7309
-2.4998
-1.6677
2.1551
-0.6568
-0.0683
0.8485
-0.9782
-2.0669
-2.2129
-1.2112
-2.1339
-1.4995
0.897
1.9835
1.9648
1.0456
-0.5691
-2.6746
-1.7894
-0.9853
-0.0576
1.1984
-0.2891
-1.0386
-0.8454
0.4955
-0.088
0.8856
0.3445
-1.5066
2.0906
-1.7661
0.2352
1.7456
-0.3067
0.8366
-1.1734
0.4219
-0.7264
-1.1368
2.6725
1.0758
0.8314
-1.1325
-1.3344
0.4305
1.0902
-2.4273
-0.0869
-1.514
0.0497
1.5321
-0.1386
-1.4809
0.9867
0.9156
1.7873
0.5297
0.6246
-1.0001
-0.8628
-2.0356
-1.0367
-0.9382
-1.5354
0.6535
-0.7204
-2.1756
-0.2303
2.0434
1.5734
1.8415
-0.2244
-1.1428
-0.7087
-1.9942
-1.5178
0.9255
-1.0132
-0.5756
-0.8335
1.6946
0.6598
-0.4561
1.8284
1.1644
1.0337
1.641
3.191
-0.6649
0.1084
-0.838
-0.0222
-0.5165
-2.1161
-1.3392
-1.2579
1.6093
-2.363
0.1371
-0.5161
2.436
-0.6323
-2.9627
-1.0734
-1.3133
-0.2008
-0.808
0.3469
0.1918
2.2082
0.0475
0.468
0.3976
0.0413
2.8806
-0.7102
-0.6957
-0.148
1.1376
0.0893
0.1886
1.6402
-1.9045
-0.4104
-0.2264
-1.1475
0.3078
-2.2094
2.7378
-0.3872
0.877
-1.4568
-2.2686
-2.9919
-1.7837
-0.0775
-2.5837
2.3713
0.2468
-0.5606
1.7925
-0.6813
-2.8619
0.3708
1.0294
0.9572
1.9974
2.7164
1.6806
0.7333
1.7175
-0.0771
0.4695
-1.3531
2.852
1.8206
-2.6039
1.2519
-1.1527
-1.4208
-0.9862
-1.2824
2.8106
0.0288
2.0459
0.8745
1.6347
-0.3839
-0.0613
-2.1078
1.8732
-2.6589
-0.7539
-0.3989
0.2493
-0.2428
-0.0322
-0.5524
0.0398
0.3108
-1.1729
-2.5683
1.2447
-0.9979
-0.8993
0.107
0.5872
-0.8921
0.7889
0.9199
-1.9326
0.628
0.6146
-0.1296
0.2386
0.2857
-1.4221
0.2353
0.5475
-1.9191
1.2324
-1.2622
-1.006
-2.7093
-1.2523
1.9315
-1.145
1.1916
0.9542
-0.014
0.1302
-0.0467
1.2983
-0.5451
-0.4569
0.1293
-0.22
0.3382
0.3705
1.7199
-0.3239
-0.6408
-0.6646
-1.8288
0.9866
-0.2056
2.9915
2.5905
0.4347
1.6441
1.5083
-1.4062
-1.9796
-1.6454
-1.8371
-0.7117
0.2973
-0.2436
-0.4914
-1.8796
0.7118
2.5724
2.2687
-1.6331
-0.7361
0.2493
-0.1105
0.0278
2.5072
-0.6593
-1.0751
-0.1737
-2.6654
-0.1536
-0.6254
-2.2376
0.1298
-1.5103
-2.0381
1.1281
0.9282
1.7286
0.4574
0.5963
-0.9269
2.6464
1.6903
2.9636
0.1173
-0.0903
2.5457
-1.6003
0.7838
0.0722
-0.2534
0.0119
1.0727
-0.1428
-0.1533
-2.0304
0.984
-0.7356
-0.4307
-1.1735
0.5178
-1.7059
-1.0858
-0.6941
-0.3261
0.2231
1.1583
2.6844
1.7292
1.7744
-0.2519
-0.8683
0.1302
-0.3287
1.237
-1.5217
-1.8465
0.4675
2.3483
0.724
-0.924
0.886
-0.1947
-0.6847
2.8977
-2.3499
0.1614
0.8058
-0.2118
0.5903
0.1399
-1.358
-0.4221
-0.124
-0.2591
-0.6227
-1.0099
-1.2159
2.241
-0.265
1.3014
0.5915
1.0867
-0.2848
-0.0417
-1.2556
-0.4452
-0.6824
1.5145
-0.2035
0.9222
1.8193
-0.5838
0.4711
1.9119
0.6667
0.2171
-2.5088
-0.7528
-0.8636
0.6405
0.6873
-0.5182
0.5053
0.6862
0.2291
-0.6613
1.4967
-2.9225
-0.6068
-1.182
-1.1664
-0.3551
-1.8203
1.1965
2.3465
1.8346
-0.1346
-0.0794
-1.0717
0.3699
-2.1032
-1.7329
-1.5908
-1.4723
2.1041
2.7897
-2.4875
-0.4154
-0.6198
-2.8958
2.7919
0.2639
-0.4444
0.8715
-2.1368
0.5657
-0.6467
0.9845
-0.8895
0.4898
-1.2267
0.7198
-0.0197
0.0363
1.0927
-0.7648
-0.2782
0.2009
-0.7612
-1.3213
-2.913
-0.4163
-1.8185
-1.9994
0.8842
2.1216
0.2795
0.4778
1.2828
-2.0156
-1.0209
-0.4435
-1.7168
0.2792
0.8338
-1.4863
-1.5612
-0.8246
-0.7098
0.6261
-1.5273
-2.0498
0.9018
-0.66
1.6619
-0.1198
-0.8852
-2.0676
1.4527
1.6885
-2.7936
-0.32
1.1218
0.0985
1.73
1.3058
0.6694
1.6637
-0.4217
-0.4666
0.0954
-0.1696
-2.6949
0.9162
-0.6004
-2.1244
-1.8129
-1.0995
-1.4176
-0.9241
2.2242
0.0401
-2.3565
0.1546
-0.4138
-2.2188
-0.1401
1.1118
0.1033
-1.3224
1.9547
-1.3295
0.4988
-0.5476
0.651
-0.6155
0.7728
0.1055
-0.7742
-0.0231
-2.3517
0.637
0.9558
-2.8292
0.9559
1.047
2.5641
-2.48
0.8651
1.3353
-2.5028
-2.2524
0.6526
-1.7747
2.1392
1.1302
0.3186
1.5473
0.1059
1.1146
-0.137
1.4708
-2.0489
0.9774
-0.7144
1.2728
-1.0485
0.7185
-1.4132
0.9532
-0.1698
0.3381
1.0432
0.5118
0.5874
-0.1639
0.1011
-0.051
-2.0538
-0.7876
-0.9625
2.5414
-1.54
-1.5328
-2.1477
1.7353
2.1292
-2.3996
-0.1778
0.8077
2.3999
-0.1114
1.6706
-0.2416
2.5491
-1.2214
0.3562
-0.9004
1.8706
-0.9564
0.6538
0.3524
1.621
-1.8892
-0.143
-2.766
0.277
2.6372
1.2426
-0.4252
1.1154
-0.4844
1.5338
-2.4556
-2.4174
1.8532
0.7305
0.9731
-0.4911
-0.1805
-1.1671
0.0307
0.3409
-0.0317
-0.8823
-2.0061
0.0785
-0.9773
1.5849
1.4163
-1.2783
0.2595
-0.3191
0.4675
-0.4527
0.4018
-0.0408
1.701
2.5552
2.7266
2.4199
1.8401
1.1919
-2.5967
0.5095
0.8849
2.0111
0.8161
0.7815
-1.1647
-1.5409
-0.1423
-0.0409
-1.0319
0.3663
1.0817
-1.9577
1.2833
-2.0977
-2.0655
1.5847
-0.7727
-2.3793
0.2465
0.7558
-0.6464
-0.4786
-1.8128
-1.1674
-1.6144
0.3278
-1.6896
2.3686
-0.4
0.0398
0.616
1.5334
-0.28
-1.3426
-1.4496
-0.3962
-1.2544
-0.5426
-1.3328
-0.1434
3.2304
-0.837
0.9664
-0.985
0.0671
1.0509
-1.1057
-2.9211
-0.9137
1.8445
-0.9953
0.6021
0.2879
-1.7331
1.2975
-0.2459
0.3951
-3.1283
-0.7809
1.0885
-0.5921
0.9357
-0.6769
-1.9484
0.603
0.6284
-1.6674
0.474
-2.5731
-0.7733
-0.4755
-1.4749
-0.2899
0.0075
-0.3779
-1.2413
-2.3779
-0.3061
-1.3747
-2.1021
0.9933
-1.7141
-1.1827
-0.9641
0.2772
1.1077
0.0939
2.3557
-0.0942
1.1412
-1.9255
-0.8973
2.792
1.1553
-0.6873
-0.8927
-0.8946
-2.1264
0.5317
-0.9073
-1.3236
1.1261
-1.5453
2.3357
-1.7718
-2.194
-0.3646
-0.9941
1.0376
-2.2567
0.7967
-1.0663
0.551
0.9384
1.939
-1.1577
0.0453
-2.4395
-0.2149
2.0085
-0.4798
0.7172
0.889
1.8787
2.2529
0.5778
1.9735
1.7297
1.6894
0.4192
-0.2378
1.5615
-2.1699
0.2414
0.8083
1.3741
0.505
0.0444
-1.4414
-2.1093
-0.1159
-0.1718
2.8431
0.9417
-0.7562
-0.4072
-2.7218
0.6967
1.8613
-0.6618
1.5243
0.4325
-2.0941
-0.9356
-0.8022
0.1491
0.4849
-1.2286
0.1287
-0.1535
-0.2321
1.736
1.0406
-0.4753
-0.9683
-1.8722
1.9331
-0.8163
-1.7237
1.054
-0.4702
-1.1764
-2.4983
0.6842
0.3839
1.7209
-0.0153
-2.9816
-2.0578
-1.9544
-0.8283
-0.1129
2.0347
0.9045
1.6163
2.7364
-0.4454
0.4676
0.7649
-0.9869
0.332
0.0113
-0.1057
-1.4528
1.0902
-0.464
2.2813
-1.9377
-1.4476
-0.9587
1.3723
0.8348
2.549
1.8044
0.4441
0.3115
-0.0272
-2.0055
2.7735
-0.2312
0.6542
0.7192
-1.4699
-1.0616
-0.2002
0.8551
2.3093
1.0903
-2.5972
-1.9946
-0.174
-0.2076
1.3866
-1.7404
0.4465
-1.6781
-1.3559
-1.659
0.8944
-0.0446
-0.9946
1.5264
-2.1074
-1.8609
-0.8059
1.2623
1.2717
-0.573
-0.79
-2.4515
-2.0758
0.542
-0.947
0.2155
0.9577
-1.7925
-1.2768
-0.567
-2.7352
-1.0232
1.4974
1.7544
-0.0475
-0.4265
-2.4547
0.6262
-0.8092
-0.0026
-0.0262
2.602
-1.7438
0.2483
-1.0471
-2.1485
0.4256
0.3266
1.036
-0.5183
-0.8546
0.232
-0.3306
-2.3377
0.9693
-0.0353
-1.87
-1.053
-0.6565
-0.4756
2.9714
0.0588
0.8217
2.1883
1.0865
-2.279
-1.1496
1.4026
2.3054
-1.5128
-0.017
-2.8329
-3.2019
-0.9193
-2.334
-0.6874
-2.3284
-0.4987
1.7298
1.2852
1.649
-0.2509
-0.9327
-0.1917
2.1768
-0.1758
-0.4913
1.4352
-0.745
-0.2736
-0.2227
-0.3873
2.7141
-0.5442
-0.1268
0.8942
-0.5534
-0.9876
-0.2038
2.0027
-0.7167
1.6731
-0.4536
-0.3382
-1.0528
0.884
-0.8762
0.4248
1.715
-0.0777
1.8053
1.0151
1.0332
-1.2122
-2.2397
1.4324
0.1786
0.7572
0.0961
1.6771
-0.8487
2.5538
-1.0176
1.749
-2.049
0.9008
0.6896
-1.5086
-1.1415
0.3571
-1.7231
1.0148
0.5834
2.1028
0.8626
-1.294
0.753
-0.9836
1.893
-1.8812
-0.6326
-2.3483
1.3683
2.5301
-0.2965
-1.9915
-0.7117
-1.1675
1.7611
0.0869
-1.0701
0.1334
2.2636
0.6102
0.2932
-0.121
-2.066
-0.4218
0.1013
-1.9305
-1.3971
0.268
-1.6458
1.2584
-2.2834
2.6792
1.6054
-0.3848
-1.4482
0.2584
0.0246
-0.3063
1.1087
-0.4407
0.1655
1.4937
-1.1665
0.5817
2.0279
-1.5383
1.5567
0.049
2.3352
0.4282
2.7248
-2.039
1.0872
0.8394
-0.9391
0.8715
1.5609
-0.3044
0.3954
2.2268
-2.7974
-3.0036
0.1746
-1.25
-2.1574
-0.7044
-1.6014
0.2717
0.2043
0.0397
1.6211
0.2381
1.0107
-0.7715
0.0115
1.9261
0.2619
0.139
0.1236
2.059
-2.042
-0.5058
-1.3196
0.6366
0.6525
0.5711
-1.0411
0.936
1.7918
0.0928
0.959
-0.32
1.3758
1.336
1.4038
0.1456
-0.5954
-2.2527
0.2935
-0.9439
-0.8449
-0.8431
-2.3721
-0.3119
0.6271
-0.9887
-0.0393
-1.235
0.544
0.5874
0.7384
2.8402
2.1824
-2.6686
-0.0391
-1.1933
-1.0111
-0.926
-2.3718
-0.2284
0.7938
-0.7388
0.2938
0.949
-0.2539
-0.4884
0.4504
2.7671
0.113
-0.7536
0.3724
-2.8581
-0.4098
1.3686
-0.5951
0.4576
-1.822
-0.6757
-2.4522
-0.3932
-0.8472
-0.3329
1.3546
1.1434
2.5149
-0.8796
-2.2816
1.7903
1.7105
-2.316
-0.254
1.5475
0.0166
-1.365
0.8841
0.4152
0.71
-1.3037
1.1325
1.67
0.5136
-2.1321
0.4914
-1.2414
-0.5723
-0.5732
-1.0392
-1.7657
0.7289
0.096
-0.1828
0.0971
-2.1362
-0.1242
-0.2159
-2.2064
0.6628
-1.2342
-1.1387
1.154
-0.7048
0.0431
0.3258
0.3482
0.3149
0.4308
-2.3761
-1.3474
0.4449
-0.0712
-2.6908
-0.6557
-0.3146
-1.4626
-0.6183
-0.8536
1.3131
-0.467
0.5645
1.3356
-1.2256
-0.3609
0.8578
2.6354
-1.3771
-1.1444
0.2614
-0.2314
0.8585
0.4592
-1.2244
-0.7109
2.2046
1.1734
-0.3231
1.1968
-0.6158
0.9978
-0.3115
2.2148
-1.0488
-0.0673
-1.1894
-0.9334
0.9053
1.2547
0.3198
-1.6946
1.9697
1.6872
-2.3372
-0.0685
2.1446
1.2302
0.6697
0.6679
1.4298
-0.1166
-0.4899
0.5148
-0.1744
-2.3529
0.7378
-0.5278
0.6085
1.0747
-2.201
0.8166
0.5017
0.336
0.5244
-2.0053
2.7822
-1.2922
-1.6283
0.7633
-0.4174
-0.0505
0.4303
-0.4084
-0.7234
1.3282
-2.2405
0.244
-2.4823
-2.0227
0.1894
-0.5565
0.8595
-0.2728
1.1665
0.4669
-0.5282
0.0243
0.6907
0.0377
-0.0918
2.1455
2.0391
-1.8444
-1.1083
-0.4631
-1.3422
-1.9025
-0.3009
-1.2476
0.3773
-0.1367
-0.9462
-0.208
-2.6328
0.1765
0.2326
-0.6213
-0.5421
-0.9632
-0.0415
-2.4875
0.0958
-0.2789
-1.7685
0.7472
-0.7191
-1.0475
1.6055
-0.7476
0.2901
0.0081
0.2498
2.8583
-0.1537
-0.3892
0.7181
-1.5423
-2.0502
1.0375
-0.2665
-0.842
1.1541
1.0114
0.5731
1.6824
-0.3711
-0.4675
-0.0402
-0.5229
-0.0725
-0.1224
-2.1063
2.3725
2.0502
-1.2301
0.9283
0.5385
-0.5566
-0.5138
-0.7665
0.5284
1.9373
-1.2503
-0.6374
-0.9345
-0.2985
-0.1628
-1.9611
-0.5735
-0.7102
-0.5281
1.816
1.6117
0.7022
0.9307
0.8635
-0.9328
0.6617
-2.3403
-1.5418
1.6235
-0.8317
-0.5104
1.1537
-0.5499
-0.5009
-0.1332
-0.8804
2.3777
1.6538
-1.2089
-1.0905
-2.7012
-0.9211
-0.4607
0.5234
-2.6793
-1.6721
-1.1652
-2.5923
2.4434
-0.5989
-0.0456
-0.6071
-0.4403
2.2982
-0.3789
-0.0749
-1.1846
1.6733
-0.5867
-1.2065
0.019
0.0176
-1.0057
0.4307
1.2545
1.6708
-1.3926
2.0997
-0.7547
0.0791
-1.7474
0.5241
0.5447
-1.4805
-2.0703
2.2572
-1.4005
0.2685
0.9157
0.7455
-0.037
-1.2271
0.6567
-0.7341
1.3586
0.586
0.4299
1.0949
-0.4907
-0.8456
-3.0418
-0.3207
0.9687
1.0315
0.0722
-1.7044
-0.8165
-0.3361
-0.0587
0.2208
0.707
1.6049
-0.1575
2.1779
-1.0142
0.3012
3.0523
-2.3865
0.5733
2.3064
-0.2593
-0.3655
2.1929
1.0667
-0.2622
1.6877
-2.7093
-0.1409
-0.2331
0.496
-1.0257
-1.3167
-0.1719
2.6132
0.6898
0.8165
-0.0789
1.4855
2.4374
-0.2952
0.0463
0.3897
0.9401
-1.3748
0.2034
-0.6739
2.7517
0.8543
0.3926
1.5712
1.3183
-0.1613
0.6137
0.5716
-0.083
2.1317
0.8669
-0.3961
1.8246
1.1801
1.1519
-1.3317
-2.7895
0.2604
1.4691
1.0413
-0.8179
-0.6273
1.8182
0.1697
1.1855
-1.4829
-1.0774
-0.67
-0.0557
0.9701
2.6125
1.7992
-1.265
0.1785
-0.2193
-2.2533
0.8346
-0.5812
0.2579
0.2799
-0.3107
1.968
0.767
-0.4319
-1.4239
1.2723
1.3082
2.1652
0.7715
0.6087
1.8813
0.3706
2.2659
1.5169
-0.0334
-0.5416
-1.4415
-0.8898
-0.3201
-1.1659
1.6926
0.2684
-0.3187
1.7746
1.838
1.7145
-0.0293
-1.5504
-1.0054
0.1719
0.548
-1.3107
-0.2841
2.194
-1.8634
-0.7829
0.7252
1.2274
-0.7101
0.0329
-1.2542
0.5488
0.7313
1.1366
0.3311
0.1581
-0.8162
2.5284
2.2045
0.0554
-2.0756
-2.3455
1.0891
0.2408
-3.047
-0.3777
-3.0152
0.7141
2.8231
1.878
-0.2778
-1.8013
-0.8492
1.1449
-0.5293
-0.7519
-0.9566
0.7
-0.4927
0.5854
2.5007
0.5429
-0.1682
-1.066
-0.3075
0.6738
0.4443
0.8473
0.4491
1.0928
-1.9318
-0.2281
1.4936
1.7997
-0.7433
-1.0156
-0.4506
-0.4821
0.7332
1.7617
-2.1069
-2.4759
-0.779
-1.7264
-0.1983
2.3718
1.2735
-1.6499
1.9982
0.954
0.3373
-1.2854
1.2059
-0.1759
-0.3109
2.644
0.7018
-1.0177
2.6056
0.3077
0.4855
1.7052
2.5334
1.5363
-2.7196
-1.8375
-0.5277
-0.224
0.917
1.4616
-0.0239
1.5806
1.5647
1.7717
0.7678
0.3964
2.5005
2.3698
-1.4293
2.7769
0.4474
-0.0208
-0.0614
2.1686
1.9592
-2.1235
-1.6825
1.8484
0.4822
-0.6613
0.2612
-1.4607
2.0947
1.3303
0.5232
3.1549
-0.4003
-0.1071
0.9625
-0.2634
-0.3033
1.0475
0.7172
2.1871
-0.8912
1.5173
-0.2131
0.6762
1.1131
1.3022
-1.8281
1.7571
-0.8444
0.4025
-0.8511
-1.1235
-0.2099
-1.1822
-0.5589
-1.4121
-0.26
-0.1749
-0.9516
0.8913
-0.9951
0.1478
-2.0289
-0.767
0.8619
-0.2145
2.7624
0.1669
2.0341
-1.2615
0.3153
0.4158
-0.7553
0.2835
0.4604
-0.0201
-0.9528
1.1437
-0.0795
2.1362
1.4419
-1.9578
-1.3041
0.3307
-0.1252
0.8097
0.0633
1.1173
0.8997
-0.3846
0.7459
1.2191
1.24
1.0131
0.7436
-2.6407
0.8953
-1.5506
0.0567
-0.6318
-0.1341
1.7543
-1.3152
0.6925
1.4285
1.0977
-0.0951
1.3318
-0.9705
-0.2437
0.4404
1.2863
2.4992
1.0069
0.2909
0.5562
-1.2693
-1.7042
-0.5433
-0.8589
0.8308
-1.8231
-2.0623
0.3181
-1.0307
-2.627
-0.9893
0.8103
-0.3
-0.8389
-0.6012
0.6177
-0.2543
0.2646
-0.8977
-0.2598
-0.8933
-2.5937
1.3976
1.4549
-2.2171
0.4169
-0.2687
-0.7922
2.3279
-0.5341
0.6572
-0.4472
-0.3656
-2.1699
0.8981
2.4898
-0.4669
-1.2138
0.4543
-1.8117
-1.2532
-0.9423
2.6025
0.8069
0.6429
0.9129
0.1833
0.2973
-0.1787
0.5985
1.1953
0.1781
-0.6099
0.6745
-0.6791
0.4493
-0.6507
1.1409
1.1137
1.1109
-0.3011
-1.2791
0.0201
-1.1139
0.4389
-0.0319
-0.6831
0.3285
1.5693
1.6057
-0.9959
-1.1155
-0.1867
0.3569
2.3585
1.1077
-1.5523
-0.5015
-0.4503
0.4445
-2.5275
-0.9695
0.4081
0.1717
0.1645
-1.0471
-1.6199
0.2893
-0.0299
-0.7343
0.0193
0.7973
0.1661
-0.0311
2.0489
-1.581
0.7525
1.0626
1.1921
-0.2922
1.7293
-0.7302
0.7257
1.387
-0.1803
-2.1326
0.6497
0.1798
-1.6995
0.1322
0.9641
2.6398
0.4485
-0.4894
1.6689
-1.0634
2.9869
-0.7206
2.7641
2.1774
-0.6379
-0.5614
0.9729
2.5318
-0.5955
-0.0118
2.8489
-0.0002
-0.1627
0.9282
1.8385
-2.1418
0.6605
2.2586
1.2185
-0.6162
-1.4027
-2.5742
0.9889
1.2998
0.2013
-0.463
1.1497
0.3294
-1.0811
2.0386
-1.5759
-0.2506
1.3037
-1.623
-0.6343
2.8366
0.8021
-1.6174
0.6977
-0.2394
0.6909
-1.2214
-0.8567
0.3518
0.9701
-0.435
-2.0207
1.3334
1.6397
0.7418
-2.7943
-0.5714
-0.5771
2.309
0.0993
-2.0858
0.8733
0.9898
-0.7975
-0.8192
0.6077
0.4109
-1.2047
-0.7574
1.9573
0.591
-1.3751
-0.459
0.2669
1.0078
-1.3087
0.0762
-1.1866
1.6614
-1.0054
0.8482
-2.4034
-0.725
2.8114
-1.4198
-0.1066
0.4023
0.3114
-0.1741
-0.8498
-1.5105
-1.9518
1.3083
-1.3561
0.0903
2.5756
-0.2493
-1.6256
-1.3489
0.786
1.7067
1.6184
0.7255
2.51
0.6227
1.8224
-0.24
-2.0828
-0.2244
-1.0136
-0.9688
0.1148
-0.8348
-0.336
-1.4608
2.5493
2.0684
0.5785
1.5608
-1.3331
-1.3452
-1.5471
1.5425
-1.7019
-1.245
-0.1591
-1.5158
-1.8339
2.3686
-1.8111
-1.0606
-1.7291
-0.3346
0.0506
-0.3686
-1.3874
0.4758
2.149
-2.7166
2.4678
-1.7538
1.2074
-1.551
0.0062
-0.4697
-2.7742
-0.1485
1.0582
1.0511
0.0346
-1.7861
-0.9297
-0.4681
-0.1964
0.0899
0.596
-1.7505
-0.1908
-1.0741
-0.9184
0.4807
0.0516
-2.0012
1.0808
-0.328
0.5308
0.5852
0.04
2.3768
-2.03
0.1316
-0.7639
2.0416
-1.0771
-0.0852
-1.3311
1.9432
0.1125
-0.0651
-1.6615
-1.1951
1.5389
0.1918
-1.7551
-0.8198
-0.0747
0.6854
-1.6119
-0.2078
-1.4515
-1.861
-1.2318
0.641
0.6854
-1.2944
-1.5063
2.3062
-1.121
-0.1142
0.6163
-0.3633
-1.2096
-0.0795
-1.6835
-0.9014
0.8331
2.0863
1.4248
0.6917
-1.5467
-0.1702
0.1107
1.1391
1.4816
-0.2955
0.9277
-2.8358
0.0875
-1.5665
0.5992
-1.4028
-2.4523
2.5706
-0.875
-1.1153
0.416
2.2852
-0.2179
1.3034
-1.1382
-2.4225
-0.7064
-0.7004
2.7157
1.5546
0.9362
2.7039
-1.1297
1.1091
-1.8436
-1.5911
0.4329
-0.4818
0.7847
-0.4781
0.85
0.0585
-1.0095
-0.5106
0.1215
-0.5469
-0.6724
1.5881
-1.7527
0.979
1.7959
-0.7357
1.7812
1.3592
-0.1583
-0.9282
0.8926
0.5939
0.0188
1.0104
-1.1415
-1.317
2.327
1.8035
2.2324
-1.0968
0.2129
-1.8258
1.1838
1.2547
0.23
-0.0473
-1.0104
-0.8163
-0.8987
0.5858
-1.0733
-0.7561
0.104
0.0733
-2.2819
1.4354
-0.0389
1.6919
1.9176
-0.7955
-1.3275
-1.1118
1.6947
2.3815
-0.4848
1.4925
0.3261
-2.1406
-0.7878
-0.3257
1.0888
-1.2548
1.0405
-0.0126
0.7058
-1.5145
1.7232
-0.8452
2.4541
0.357
-2.0166
0.4535
-0.22
1.0828
-0.3483
-2.6703
-0.7631
0.663
0.1743
-0.3861
0.8252
2.3745
2.8281
-2.5242
-0.0378
-2.1036
0.1014
0.2283
1.7589
-1.6557
0.0197
-2.8406
-0.2012
1.589
2.7348
0.1642
0.6355
1.0768
1.693
-0.588
0.9921
0.0847
0.1713
1.4567
-2.4079
-1.3874
-1.8304
-0.2554
0.2656
-0.0627
-1.0354
-2.4476
-0.8178
-2.4949
-0.7203
1.4339
0.8957
-2.1301
-0.8852
-1.7182
2.1292
1.0314
1.7467
1.2032
-0.3942
-2.8408
-2.655
0.3679
-0.1207
-0.6393
-0.9831
2.3294
-0.3272
1.0822
0.2088
0.5341
-1.0138
-0.9532
0.9206
-1.7412
-2.1803
-0.1917
1.1525
2.0571
-0.55
0.0898
-2.3724
-1.1782
0.6003
-0.1088
-3.1006
1.66
1.2706
2.4895
-1.0319
0.7415
-1.8159
-1.9458
-2.72
-0.657
-2.1056
-0.3074
-1.6114
0.7412
0.4014
0.8508
-0.9827
-1.6173
2.4285
1.5291
-0.834
-1.179
0.6988
-1.5494
-1.1652
2.056
1.7658
1.4456
1.3002
1.5343
-0.9239
0.6839
0.0089
0.5326
-0.8168
-0.5578
1.5144
2.3278
-1.1897
0.9972
-0.737
0.366
1.2341
-1.2045
-0.1915
1.2011
-0.0987
2.6674
-0.126
1.5562
-1.9116
-0.4943
-0.5406
1.4312
-0.9278
-0.8593
-1.4351
0.8263
-0.4239
1.5727
0.4672
3.0182
-0.4
0.2478
1.8895
0.8266
0.4693
0.0469
-1.8744
-0.1745
0.4363
1.801
-0.7907
1.0581
-0.6401
-0.765
-0.7503
-2.0295
0.5172
2.1795
-1.7529
0.3934
0.6313
0.8041
-0.522
-1.5037
-0.2977
-1.6146
-0.3343
2.1097
1.0068
-1.7997
-1.1898
-1.8739
-2.0088
-3.0281
0.1883
-0.347
0.4861
1.2541
0.5232
0.1367
1.9379
1.2162
-0.1851
-0.4227
2.3464
0.1351
-1.9365
-2.0254
-1.5652
1.2875
1.8223
-1.3946
0.0337
1.3969
1.2612
1.4699
0.5895
-2.8138
-0.3431
0.0145
0.102
-1.5141
0.2863
0.7926
-1.4287
-1.2576
-0.1277
-2.7494
-0.7259
-2.0443
-1.5848
-0.7809
-1.0661
-0.5974
-0.8083
0.1445
-2.4496
-0.1937
-1.0749
0.0266
-1.5995
2.4437
0.892
-1.1346
1.4841
0.7609
1.8156
-0.0621
0.2479
1.3118
-1.5807
-0.0327
-2.0316
0.8195
0.5335
2.2302
1.1993
2.5609
1.6044
0.1731
0.1102
-0.0179
-1.6448
0.3495
1.2547
-0.363
0.6165
2.7597
-1.9208
1.5255
1.8347
0.8498
0.4141
-0.9059
-1.2672
1.1735
-1.5709
-1.1038
1.1412
0.454
1.9543
-2.345
-0.7703
-1.3087
1.1596
-1.3525
-0.4481
2.439
-0.6783
-1.4031
2.1076
1.8667
-0.2825
0.7798
2.0964
-0.8423
-0.2717
-2.5409
-0.8911
1.6054
1.8768
0.1277
-0.1601
1.2179
-2.0867
-0.039
-2.2644
-2.0047
0.9451
0.2359
-0.6503
1.7678
-2.1352
0.9525
1.4055
-0.5717
1.7797
-1.1662
0.6259
0.8073
2.8594
0.4335
0.288
-0.649
-2.1729
2.4749
0.3918
1.6131
-0.21
-1.5958
0.9371
1.0401
2.1946
-1.9481
1.924
0.9086
-1.5129
1.4181
-3.201
1.2187
-1.502
-1.3278
1.9459
-1.3063
-1.0495
-0.3553
-2.296
-0.113
-0.1553
1.0589
-2.8195
1.5219
-2.0964
-0.3622
0.3755
0.3217
-0.3191
-1.3417
-2.5416
-0.437
-1.3769
1.3973
-1.7403
2.5227
1.2836
1.301
-0.4973
-0.6295
1.1089
1.6462
-2.0896
-0.0635
1.3759
-0.8436
0.0365
0.9442
2.0844
0.3849
-0.6725
-0.8832
-0.0423
2.055
-0.94
-2.2691
1.5495
0.89
2.5109
0.0634
0.306
0.1665
-0.1501
-0.4392
-0.4959
-0.1154
0.9072
-0.5003
-0.8561
0.0443
2.4061
-0.1198
-0.7748
0.6457
1.0699
-2.5745
-0.2519
1.6886
0.1752
-1.3107
-2.5641
-0.1037
-0.2779
0.3946
2.1188
1.8225
-0.2893
-0.7353
0.6897
-2.3634
0.1408
1.8533
-0.2978
0.4459
-2.2644
1.6066
-0.8437
1.8903
-2.4057
-0.5141
-0.4221
-0.2865
-1.5409
0.9347
-0.847
1.511
0.0214
-0.1958
-0.5742
0.7293
-0.9954
-0.6287
0.3962
0.6453
-1.3146
-0.3639
2.0641
1.2589
2.3405
0.5985
1.1529
-0.7068
0.1396
2.2584
0.9392
1.302
-1.3637
-1.9376
1.4231
0.7316
-2.1693
1.1176
-0.6721
-2.4181
0.9995
-1.6833
1.2071
-1.5933
-1.6878
-0.5098
-2.7698
-0.071
-0.4006
1.3613
0.5046
2.1489
-1.6926
-2.6235
-2.077
1.7897
0.9897
0.6429
-0.6843
2.1281
1.0929
-1.9468
-1.8708
-0.1128
-1.3832
2.7148
0.9171
-1.656
0.1151
-1.7564
1.1259
-2.5016
2.3111
1.0235
2.0323
0.6271
1.9279
1.2243
0.3594
1.1766
-1.0346
-1.1542
-0.6158
2.4237
-0.0226
-2.8351
-0.8934
1.0917
-1.5898
-0.5415
2.8033
0.4573
0.8173
-0.8271
-2.6327
-2.7564
0.6452
-0.4152
-0.8176
-1.9956
1.1707
0.6944
1.6951
-0.5372
-0.8829
2.5016
1.6287
1.6187
1.0379
-1.5473
2.2599
1.1955
0.3794
-1.6218
0.3118
1.4698
0.4186
-0.9987
2.3382
-0.8351
-2.1214
0.3221
1.7854
0.8345
-0.6871
-0.9363
-1.3467
-0.0751
1.4449
1.7796
-0.5044
-0.2872
0.9976
1.9164
0.0341
0.1748
-2.1593
-0.2098
-0.3255
0.9752
0.6202
-1.1855
-0.9603
1.5003
-0.1522
0.8405
-1.8703
-1.5265
-1.1998
-0.6855
0.2212
-1.5517
0.7542
0.7901
-1.2392
-1.8521
-0.8438
-1.2864
0.3019
0.8491
0.5598
-0.3612
1.5679
-0.0017
-1.5887
0.2888
-0.7181
-1.1277
-0.7355
0.6636
-0.0025
0.7478
-0.1575
0.7632
-2.839
-0.9287
0.1453
0.5876
0.603
0.3965
0.1729
0.1367
0.493
1.4465
-0.0747
-0.5893
0.1078
-1.0555
-0.5976
1.6863
-0.5526
-0.5559
1.8812
0.4099
1.7886
-0.3316
0.8079
2.1351
0.5777
-0.3824
-0.5405
0.3083
-0.9083
-0.7084
1.1127
-1.7938
0.6073
-1.3096
-0.7861
-0.8942
-1.4291
1.0908
0.3166
-0.2699
-0.4639
-0.0608
1.1442
0.0793
-3.0507
1.7891
1.6966
-3.1235
0.6409
0.0871
1.9738
-0.0479
-2.4964
1.3867
-1.301
-0.5244
-2.6321
2.4111
1.7026
-1.276
0.2339
-0.1165
1.1541
0.974
-0.4521
0.3575
0.3305
-0.328
-1.4133
0.5562
2.5085
1.3716
0.6271
0.4798
1.1345
-0.4808
-0.8846
0.1281
-0.5147
0.6683
0.6054
-0.4987
0.8377
-1.7345
-1.4566
1.8761
1.9148
-1.1357
2.7598
0.6989
-0.56
1.5905
1.4823
-0.419
1.0064
-2.2286
1.5497
1.0771
1.4739
1.3061
-0.8597
0.0966
-0.5356
-0.913
0.8077
-0.0841
-1.7449
0.9449
-0.0017
-2.7414
-2.1544
0.3258
-0.0111
-1.3221
-1.7637
0.5069
-2.4973
-2.3794
-0.5732
1.4879
2.3701
0.64
-1.8593
-0.0079
-1.7929
1.1826
0.9312
-0.7037
1.3977
-0.7516
1.2451
-0.5995
2.1115
-1.8858
-0.918
0.3047
0.3485
1.0568
0.9959
-1.2679
-0.6144
1.5226
0.4328
-2.0405
-0.7775
-0.4884
-2.6069
-2.0131
-0.1404
1.5774
-1.57
-1.1857
1.2965
1.1664
0.2671
0.4417
0.2568
-1.7214
-0.3728
-0.4077
0.0169
-0.5323
-0.2125
-0.4571
0.5772
1.4566
0.7476
0.2935
-1.3395
0.9689
-0.7689
-1.4327
0.8208
-1.9958
1.7912
0.9179
0.5041
-0.8835
1.8747
0.7917
0.9876
-2.2482
-0.5187
-1.8113
-1.0058
0.4641
1.1647
-0.3375
1.0776
0.6994
0.3713
-1.3405
0.6842
1.7349
0.3779
-1.5435
1.0908
0.2934
1.1845
-0.9465
-0.9794
-0.3479
-0.4857
0.4506
1.0272
-0.1894
1.9209
-0.6293
0.557
-2.5075
-1.4261
-0.909
-2.39
-0.749
-0.6963
-0.3889
-1.2602
-1.4671
0.8335
0.9314
-2.6072
-1.3854
0.4011
0.1654
0.9941
-0.1848
0.1102
-1.1927
-0.6121
-1.2199
0.4656
-1.9045
1.705
-1.6084
-1.8093
1.3069
1.3915
-1.3506
-0.1611
-1.3888
1.7246
-0.4463
-1.1433
-0.1615
-0.5728
1.1043
-1.479
1.7124
1.0531
0.0245
-1.1685
-2.321
0.0485
2.868
-0.2114
0.8457
-0.3097
-0.1959
1.392
1.3819
-0.0214
0.6636
0.3651
-0.7123
-2.3637
2.1694
-0.0155
1.1168
-0.7826
1.0449
0.2503
0.3153
1.4448
0.5667
-2.1142
0.1604
1.0419
0.7349
-0.5557
0.6518
1.2853
1.5496
-1.6274
-1.4871
-1.1017
-0.2663
1.224
0.2971
0.4346
-1.4356
1.4451
2.7277
-0.6597
1.3182
-0.9643
-0.7488
-1.1074
-1.8351
-2.7273
-0.3023
-0.9088
2.2115
-0.567
0.7908
-0.0637
0.3509
-1.0373
-0.7466
-1.8491
-0.8632
-0.861
-1.6375
0.2887
-1.4311
-0.0384
1.3947
-0.2038
1.9244
1.4307
1.7965
-0.0501
2.6494
0.2693
2.8448
-2.5266
0.744
-0.2457
-2.0143
-1.08
-0.5149
-0.1142
0.3268
-2.2638
-1.1275
0.6635
0.0374
0.4757
-1.0936
-1.189
0.3944
0.5847
-0.4135
-2.3952
1.3979
1.3402
0.9132
0.3218
-0.2291
-0.5349
2.8862
0.4085
2.0672
-1.7634
